3857 24
1561 0.00651753 0.0270427 -0.00662396 -0.00890594 0.0219221 0.0661754 0.00885633 -0.0494088 0.0867463 0.0480194 -0.0690151 0.0492992 0.0130542 -0.0135855 -0.00358701 0.0418632 -0.0213369 -0.0332691 0.0578826 -0.0525539 0.0110657 0.0261082 -0.0685384 -0.0471491
729 -0.00318513 0.256958 -0.161459 -0.0732954 0.0450169 0.574269 0.125462 -0.370305 0.608752 0.346567 -0.398189 0.494732 0.192104 -0.21241 0.01222 0.192236 -0.209262 -0.185363 0.438583 -0.549334 -0.0150957 0.119902 -0.675814 -0.43524
1000 -0.020351 0.105111 -0.0417607 -0.0487378 0.00624766 0.220208 0.050184 -0.130429 0.230709 0.142274 -0.161568 0.176655 0.0688013 -0.0974455 -0.000880453 0.0808908 -0.0885243 -0.0804483 0.160348 -0.196229 -0.0132703 0.0358719 -0.244648 -0.180914
519 -0.0067194 0.147935 -0.082898 -0.0361861 0.00888068 0.335452 0.0755159 -0.207492 0.336922 0.165313 -0.236964 0.284555 0.10041 -0.103721 0.0243678 0.0860604 -0.121816 -0.105164 0.227303 -0.317756 0.00745003 0.0738501 -0.368689 -0.244121
498 -0.016866 0.170409 -0.109049 -0.0363725 0.0209872 0.359468 0.092827 -0.2488 0.399793 0.210895 -0.254606 0.316512 0.14158 -0.120729 0.0181556 0.124682 -0.162302 -0.125396 0.256747 -0.364946 -0.00851994 0.0964954 -0.454366 -0.297938
280 -0.0155595 0.247756 -0.165553 -0.0833699 0.0537836 0.58816 0.0950285 -0.343024 0.582769 0.307865 -0.37035 0.474488 0.20151 -0.209451 0.0195012 0.189182 -0.225199 -0.155628 0.43484 -0.516919 -0.0402703 0.110095 -0.647183 -0.432891
5624 0.015099 0.0450619 -0.0281552 -0.00770875 -0.0147479 0.0763938 0.00812979 -0.0576591 0.0722125 0.051745 -0.0657789 0.0687377 0.0134327 -0.0277091 0.00877946 0.029817 -0.0454404 -0.0376151 0.0623777 -0.0709167 0.00484795 0.00615882 -0.0926223 -0.0528493
430 -0.0248563 0.160223 -0.10693 -0.0744985 0.018604 0.43463 0.0622867 -0.257621 0.424912 0.262914 -0.299589 0.361301 0.174286 -0.140299 0.0248043 0.119913 -0.159537 -0.149686 0.331397 -0.391897 -0.00335563 0.0827607 -0.504578 -0.340124
129 -0.0142372 0.126886 -0.056571 -0.0611251 0.00447365 0.254572 0.0409222 -0.163292 0.288423 0.159934 -0.187046 0.197079 0.104209 -0.0817941 0.0133226 0.0927272 -0.0932612 -0.0784952 0.188731 -0.257328 0.00766166 0.0354767 -0.313426 -0.205696
4536 0.0110886 0.0409802 -0.0139487 -0.0231477 -0.0105747 0.0955684 0.0240819 -0.0826521 0.0957268 0.04181 -0.0635168 0.0853257 0.0191511 -0.020943 0.00698732 0.021035 -0.0571331 -0.0248702 0.0721322 -0.100093 0.00803587 0.0242941 -0.134051 -0.0605474
2332 -0.0143653 0.0819049 -0.0546451 -0.020355 -0.000673503 0.167353 0.0400115 -0.091269 0.139241 0.088677 -0.100924 0.12402 0.0382464 -0.072908 -0.000289203 0.0579354 -0.0777106 -0.0550349 0.130196 -0.146058 0.000716041 0.0367214 -0.152928 -0.120764
2340 -0.0176161 0.205622 -0.138445 -0.038949 0.0194189 0.446303 0.0950992 -0.310336 0.477344 0.255274 -0.311209 0.377262 0.149366 -0.17464 0.0251671 0.143011 -0.171884 -0.158214 0.33996 -0.4315 -0.0136321 0.0930148 -0.528074 -0.35365
4925 0.0206152 0.0834925 -0.0562196 -0.0426967 0.00439749 0.170979 0.0185835 -0.0986576 0.178551 0.083761 -0.116766 0.118308 0.0471544 -0.0478747 -0.0123093 0.0420279 -0.0711925 -0.0604852 0.128386 -0.151623 -0.000623976 0.0490529 -0.175489 -0.113745
2231 0.0196 0.0569391 -0.0490613 -0.0466754 0.0184452 0.15415 0.0417493 -0.0858252 0.142728 0.0780164 -0.0845099 0.116747 0.0792203 -0.0430431 -0.0124421 0.0267568 -0.0753051 -0.060419 0.0903834 -0.1516 0.00658709 0.0184574 -0.164773 -0.108961
3073 -0.00905973 0.0667606 -0.0375969 -0.0518737 -0.0112117 0.203702 0.0398836 -0.126491 0.207111 0.0961148 -0.143807 0.154929 0.0926959 -0.0514652 0.0245663 0.0647092 -0.0569929 -0.0674525 0.128324 -0.195194 -0.0151366 0.0295111 -0.237173 -0.164673
3518 0.0143273 0.0254376 -0.000184311 -0.0142352 0.0183517 0.0516354 -0.00441685 -0.0521953 0.061673 0.0449956 -0.0393578 0.0454884 0.036781 -0.0327313 0.0156911 0.0278201 -0.0282733 -0.010085 0.043397 -0.0374488 0.00252371 -0.00294834 -0.0626081 -0.0452142
358 -0.0287946 0.20587 -0.15817 -0.0707102 0.00310632 0.544529 0.0911025 -0.319496 0.543951 0.282944 -0.35906 0.426594 0.209474 -0.211597 0.0297196 0.160355 -0.20217 -0.160002 0.393515 -0.477854 -0.0147376 0.108005 -0.604697 -0.405788
354 -0.00253103 0.0860043 -0.0861375 -0.0403594 0.0217333 0.239751 0.0567821 -0.17268 0.244319 0.130278 -0.175361 0.208657 0.094359 -0.0645484 0.0186681 0.074726 -0.076102 -0.0935162 0.199136 -0.21266 -0.0089344 0.0472798 -0.289579 -0.164503
561 0.0138509 0.0228769 -0.0318998 -0.0124643 0.0107559 0.121829 0.032177 -0.085392 0.110401 0.0633192 -0.0759198 0.102193 0.0238705 -0.0353282 -0.0111014 0.0123686 -0.0589493 -0.0322283 0.082853 -0.088982 -0.00727159 0.0153932 -0.119408 -0.0656618
565 -0.0108228 0.111602 -0.0825378 -0.0549742 -0.00755217 0.255736 0.0381497 -0.150557 0.261969 0.156985 -0.170934 0.208109 0.0920281 -0.099109 0.0089565 0.0643732 -0.0786033 -0.0845297 0.177331 -0.236925 0.000906903 0.073848 -0.293713 -0.201988
542 -0.00297487 0.160057 -0.0902922 -0.0373761 0.00768944 0.408418 0.0911409 -0.249216 0.424674 0.230104 -0.268192 0.326602 0.127527 -0.158974 0.0051287 0.110895 -0.166202 -0.121704 0.306659 -0.356379 -0.000614297 0.101216 -0.469815 -0.285585
4875 -0.0133538 0.0100768 -0.0205354 -0.00589446 -0.0152554 0.0743957 -0.00216474 -0.0582175 0.082528 0.0477945 -0.0553342 0.0676377 0.0369551 -0.00643372 -0.00348778 0.015058 -0.0293492 -0.00596122 0.0252525 -0.0630578 -0.0115668 0.00754315 -0.0609854 -0.0537119
351 -0.0151193 0.145299 -0.072105 -0.0594806 0.0175246 0.304015 0.0818593 -0.22001 0.335511 0.17795 -0.214247 0.24632 0.114357 -0.138458 0.00814449 0.0954263 -0.115141 -0.109292 0.256127 -0.321222 0.00940078 0.0707774 -0.384777 -0.228669
386 -0.0138227 0.154341 -0.095618 -0.0519282 0.010122 0.308122 0.0661069 -0.205242 0.338037 0.203003 -0.229903 0.25954 0.137053 -0.0991965 -0.00472082 0.121751 -0.134568 -0.102165 0.257991 -0.298176 -0.0116362 0.0590884 -0.385262 -0.23057
2442 0.00390223 0.0548442 -0.0246258 -0.0135215 0.0201302 0.107949 -0.000629244 -0.0715685 0.108054 0.0561604 -0.0748764 0.0950197 0.0397925 -0.0406852 0.0110486 0.0167476 -0.0540939 -0.0337774 0.0866585 -0.0973609 0.0156377 0.0376329 -0.0957653 -0.0619221
456 -0.0779831 0.301675 -0.230006 -0.0792552 0.0503665 0.696456 0.0879884 -0.465624 0.714125 0.366835 -0.525161 0.587165 0.190281 -0.238157 0.03579 0.238007 -0.265862 -0.194995 0.521123 -0.68686 -0.0195444 0.141498 -0.848109 -0.514288
317 -0.0517879 0.222069 -0.165815 -0.0647772 0.0417564 0.532945 0.100374 -0.350131 0.545519 0.321259 -0.392514 0.459557 0.160884 -0.188294 0.0403109 0.191573 -0.191787 -0.161776 0.394891 -0.505978 -0.0471436 0.0897792 -0.629444 -0.404071
4737 0.00506467 0.00625945 -0.0179346 -0.0166166 -0.0150958 0.0636266 -0.00616892 -0.0325439 0.0365086 0.0243012 -0.0491098 0.0490345 0.0108736 -0.00896384 -0.00796506 0.0195329 -0.0218285 -0.0312956 0.0495766 -0.0387931 -0.0133436 0.0283839 -0.0556011 -0.0471703
508 -0.00834139 0.140081 -0.0977573 -0.0241414 0.020589 0.356648 0.0556838 -0.219382 0.395806 0.196305 -0.261364 0.305362 0.138366 -0.143841 0.0206829 0.13134 -0.142263 -0.101397 0.279239 -0.361629 -0.0188845 0.068096 -0.430188 -0.286609
510 0.00579759 0.129628 -0.0904436 -0.0562989 0.0138261 0.316149 0.076082 -0.178716 0.314583 0.184314 -0.199584 0.24553 0.0937567 -0.127696 0.0267482 0.0756395 -0.100754 -0.0943919 0.247058 -0.304671 -0.0218493 0.0593521 -0.371465 -0.249202
1065 -0.00662277 0.123155 -0.0856114 -0.0241282 0.0162223 0.297743 0.0711628 -0.204345 0.325997 0.15394 -0.211744 0.252919 0.114456 -0.104259 0.00460757 0.0951238 -0.0967606 -0.0954796 0.229103 -0.301835 0.00233196 0.0813368 -0.35145 -0.230655
983 -0.0183989 0.221216 -0.116113 -0.0553602 0.00159046 0.470333 0.0828853 -0.306812 0.484022 0.25583 -0.350515 0.410921 0.179383 -0.181043 0.0338984 0.144157 -0.204331 -0.137173 0.3558 -0.436388 -0.0101603 0.116393 -0.552436 -0.350556
828 0.00167541 0.158335 -0.0805014 -0.0644984 -0.00710918 0.390445 0.0636449 -0.260163 0.391362 0.231939 -0.241687 0.319082 0.131292 -0.159064 -0.00341655 0.104088 -0.16299 -0.116425 0.301871 -0.357353 -0.0303738 0.0912465 -0.426269 -0.286178
6401 -0.00674106 0.0183611 -0.0254926 -0.0314974 0.0130499 0.0447364 0.0196509 -0.0427953 0.0788584 0.0163182 -0.0402161 0.058005 0.0441164 -0.0365026 -0.00331041 0.0372917 -0.0177126 -0.0268491 0.0379307 -0.0528765 0.00954689 0.00178353 -0.0555212 -0.04955
293 -0.0361841 0.248457 -0.205125 -0.0678781 0.0786971 0.629316 0.10342 -0.410728 0.60916 0.355888 -0.428735 0.505099 0.197788 -0.20113 0.0239026 0.207675 -0.248103 -0.206015 0.449593 -0.596392 -0.0344444 0.1221 -0.742077 -0.444469
285 -0.00523718 0.158653 -0.0789164 -0.0334159 0.0317004 0.3364 0.0566138 -0.244947 0.341135 0.19673 -0.239871 0.283097 0.113525 -0.135319 0.0347477 0.0985116 -0.13156 -0.0943799 0.255141 -0.335784 -0.00340679 0.0730794 -0.398683 -0.263648
3081 0.00454575 0.0285285 -0.0199271 -0.0109393 0.0223034 0.0535185 0.0203347 -0.023691 0.0539366 0.0399159 -0.0487038 0.0590238 0.0232744 -0.00796813 0.0119148 0.0130938 -0.0291226 -0.0134729 0.0332781 -0.0433939 -0.00892819 0.0225624 -0.0587323 -0.0280049
499 -0.00524149 0.138491 -0.0794545 -0.0668573 0.0244611 0.366925 0.0820276 -0.215855 0.350145 0.210346 -0.266086 0.312784 0.108369 -0.11915 0.0198236 0.119666 -0.118568 -0.108475 0.256269 -0.355721 -0.00564767 0.0625421 -0.432665 -0.251336
1261 -0.0176946 0.105937 -0.0912001 -0.0466625 0.00220826 0.297102 0.0574546 -0.191181 0.285584 0.152629 -0.206718 0.211673 0.0961788 -0.0887326 -0.00455093 0.069228 -0.093516 -0.0700807 0.216442 -0.246769 -0.015369 0.065828 -0.342856 -0.226144
1217 -0.00181884 0.0867415 -0.0601131 -0.0229071 0.00760598 0.225211 0.0357655 -0.145936 0.211146 0.117699 -0.135392 0.16703 0.0847361 -0.0716404 0.0308959 0.0577449 -0.084516 -0.0515842 0.171345 -0.188681 0.00798084 0.0553216 -0.260056 -0.155117
3065 0.00868486 0.0634286 -0.0231112 -0.00312385 0.024022 0.129317 0.0349464 -0.0797031 0.117636 0.0529358 -0.0754433 0.0987332 0.0494557 -0.0524718 0.0216908 0.0296494 -0.0560595 -0.0544369 0.0879292 -0.0986361 0.00426132 0.0246482 -0.141189 -0.0940518
1408 -0.0329369 0.0938656 -0.0473981 -0.0152745 0.0120507 0.221573 0.0232414 -0.134237 0.215706 0.130559 -0.132629 0.169128 0.0552775 -0.0836739 0.0198077 0.0487055 -0.0903483 -0.0737136 0.135557 -0.190078 -0.0213659 0.0326183 -0.227113 -0.166752
1117 -0.0248637 0.126586 -0.0855582 -0.0335311 -0.00595938 0.264975 0.0347419 -0.169104 0.269083 0.147504 -0.180883 0.224724 0.118477 -0.104211 0.00731794 0.0661682 -0.109048 -0.0794069 0.212256 -0.263455 0.00817862 0.0513406 -0.297759 -0.212142
5912 0.0107664 0.0667096 -0.0283901 0.000484872 0.0118018 0.13189 0.0222201 -0.0834197 0.140321 0.084451 -0.0925206 0.126782 0.0492558 -0.0403186 -0.012702 0.0249302 -0.0575988 -0.0328549 0.0843192 -0.111331 -0.0033435 0.0310989 -0.173072 -0.105004
1788 -0.00130657 0.0952787 -0.0394655 -0.0296134 0.00932748 0.204651 0.0390645 -0.11356 0.208105 0.133906 -0.129164 0.177505 0.0649596 -0.0739614 -0.00558695 0.0487894 -0.0914366 -0.0851097 0.144845 -0.213398 -0.0136293 0.0593502 -0.252721 -0.137456
898 -0.123315 0.385534 -0.260665 -0.0730174 0.121288 0.9006 0.139994 -0.539262 0.888942 0.5048 -0.657194 0.725392 0.253118 -0.268034 0.043035 0.30327 -0.335004 -0.260108 0.662795 -0.824355 -0.0413629 0.206082 -1.04019 -0.625779
1512 -0.0220319 0.0413887 -0.0271093 0.0107825 0.00642432 0.0660439 0.0260426 -0.0193665 0.0411166 0.029337 -0.0526885 0.0382658 0.0297173 -0.0354392 0.0121317 0.00513953 -0.012147 -0.0239598 0.0593554 -0.0616975 0.000240983 0.00894075 -0.0678625 -0.0511622
337 -0.0118386 0.191212 -0.126347 -0.0635081 0.0345095 0.424949 0.0978141 -0.280303 0.473401 0.262206 -0.321051 0.384827 0.168841 -0.145961 0.0237658 0.1293 -0.163196 -0.158871 0.307413 -0.40905 -0.0234505 0.0954549 -0.526051 -0.336085
419 -0.00868607 0.187843 -0.114357 -0.0699487 0.0041029 0.495961 0.0826331 -0.331295 0.49899 0.292298 -0.340517 0.420602 0.190848 -0.160064 0.0214622 0.148011 -0.169512 -0.149117 0.344468 -0.454677 -0.0274182 0.123026 -0.577199 -0.394943
4446 0.0192965 0.032244 -0.0282409 0.00883461 0.010362 0.0431979 0.0162952 -0.0317414 0.0523221 0.0464114 -0.0407063 0.0299741 0.0251053 -0.0242036 0.00496902 -0.000914619 -0.0318149 -0.00964519 0.0356524 -0.0469265 0.00572054 0.00565307 -0.0616499 -0.0455061
523 0.00218076 0.217417 -0.102637 -0.0909764 0.0179052 0.50498 0.106348 -0.34567 0.543347 0.321325 -0.334695 0.44183 0.212489 -0.203935 0.0156406 0.173049 -0.201095 -0.185233 0.394405 -0.47572 -0.0290033 0.121334 -0.596281 -0.391319
585 -0.00477832 0.198483 -0.12822 -0.074451 0.0060347 0.428748 0.0978844 -0.282113 0.430661 0.232657 -0.289984 0.333418 0.137102 -0.166587 0.0151504 0.141125 -0.182427 -0.119495 0.312595 -0.390257 -0.00861 0.081492 -0.502339 -0.332054
6127 -0.00925843 0.00466661 0.00454993 0.0113166 0.0153291 0.0529982 0.0282183 -0.0126713 0.0366669 0.0437728 -0.0214243 0.0381379 0.016854 -0.0366407 -0.00952147 0.0172714 -0.0133852 -0.0216788 0.050352 -0.056668 0.00594996 -0.00132409 -0.0724714 -0.0554532
367 -0.0238011 0.221526 -0.182348 -0.0832987 0.0455796 0.59343 0.104358 -0.393686 0.592788 0.311804 -0.409957 0.484254 0.189247 -0.195823 0.0156317 0.18118 -0.207486 -0.191755 0.418324 -0.540866 -0.0345742 0.100887 -0.671995 -0.414127
2609 -0.0243783 0.0471169 -0.0336304 -0.0121221 -0.0084842 0.154627 0.0314795 -0.0826489 0.133555 0.0715629 -0.0984537 0.139746 0.0588389 -0.0480187 0.0274236 0.0264914 -0.0717118 -0.0583092 0.128022 -0.135144 -0.00272991 0.0428611 -0.189584 -0.104183
3775 0.00139062 0.0439946 -0.0345016 -0.0353697 0.00727372 0.124785 0.00615615 -0.0877918 0.0928509 0.0679585 -0.0883242 0.104554 0.0306028 -0.0362606 -0.00675958 0.0528818 -0.05778 -0.0373753 0.0605604 -0.0875149 0.00292339 0.00431324 -0.10642 -0.0954735
1996 0.00757831 0.0307523 -0.0464938 -0.00974553 0.0184741 0.135969 0.0228145 -0.0656932 0.104062 0.0605434 -0.0687501 0.0957115 0.0282887 -0.057352 0.0254757 0.0283526 -0.0496431 -0.0205308 0.068348 -0.115022 -0.0121351 0.0272613 -0.158488 -0.0910139
758 -0.00190745 0.100209 -0.048907 -0.0520526 0.00922264 0.234754 0.0421736 -0.153119 0.197762 0.103513 -0.129276 0.165293 0.0777443 -0.0690975 0.0278066 0.0646537 -0.0854521 -0.073382 0.159129 -0.208278 -0.0231768 0.0348579 -0.233415 -0.161983
1308 -0.0216831 0.0967188 -0.0741165 -0.0373677 -0.00253375 0.269796 0.029811 -0.148873 0.246513 0.128614 -0.187591 0.207753 0.0821893 -0.0861692 0.0331664 0.0711163 -0.105105 -0.0598042 0.210479 -0.226333 -0.0117755 0.066681 -0.310163 -0.203584
984 0.0156216 0.0871798 -0.0674834 -0.0590851 -0.0150235 0.258286 0.0568191 -0.181037 0.244403 0.1622 -0.147324 0.208056 0.107165 -0.0754306 0.0112586 0.062824 -0.0956522 -0.0743942 0.188859 -0.252901 -0.0253397 0.0416293 -0.291535 -0.188248
785 -0.0317556 0.0541604 -0.0358626 -0.00545471 0.0260409 0.159576 0.0301608 -0.0798702 0.139761 0.0705596 -0.120621 0.128581 0.0663296 -0.0719966 0.0215048 0.0654359 -0.080175 -0.0334471 0.125482 -0.148623 -0.0103874 0.0390441 -0.198457 -0.117725
1076 -0.00701929 0.0850762 -0.0341955 -0.0184507 0.0243934 0.145697 0.0211641 -0.117193 0.176174 0.0889437 -0.119677 0.105004 0.0602823 -0.0619056 0.0111958 0.0440777 -0.042452 -0.0318441 0.0980399 -0.162272 0.00751894 0.0336234 -0.186983 -0.121247
2016 -0.000224056 0.0393258 -0.0459669 -0.00833876 0.0172547 0.125488 0.0307676 -0.0863261 0.147857 0.0830995 -0.0696621 0.0899264 0.0350943 -0.0565816 -0.0123219 0.0196902 -0.0417521 -0.0340825 0.0812161 -0.139645 -0.00500666 0.0184047 -0.163308 -0.115416
1979 -0.00522361 0.0569079 -0.0259231 -0.0304856 -0.002242 0.174788 0.036682 -0.118412 0.140798 0.0690754 -0.120962 0.108201 0.0401689 -0.0420247 0.0228449 0.0571852 -0.0506642 -0.0531219 0.107276 -0.129514 -0.0239769 0.0453255 -0.188168 -0.125836
1933 -0.000332322 0.123232 -0.0831685 -0.0303014 0.0126322 0.251033 0.0578959 -0.148773 0.254091 0.143249 -0.188132 0.2119 0.0875628 -0.109987 0.0157571 0.0964722 -0.0962713 -0.0734819 0.184646 -0.255777 0.00312585 0.0371847 -0.287299 -0.179377
4146 0.00950023 0.00343108 -0.0210929 -0.00042197 0.0150802 0.0613101 0.0180689 -0.0495121 0.0441644 0.0146723 -0.0441386 0.0440183 0.0233144 -0.0109761 0.0224543 0.00744914 -0.0128072 -0.0166428 0.0219168 -0.0653397 -0.00757969 0.0190107 -0.0638892 -0.0411408
313 -0.00867292 0.220554 -0.121466 -0.0814498 0.0234369 0.495491 0.0816527 -0.300102 0.502508 0.282511 -0.319683 0.398164 0.187713 -0.173815 0.0432713 0.156232 -0.171143 -0.159641 0.338106 -0.447735 -0.0148623 0.0926583 -0.539502 -0.370448
283 -0.0150508 0.158768 -0.110384 -0.0521416 0.0328591 0.426273 0.0870618 -0.277753 0.440578 0.241102 -0.304939 0.340566 0.159646 -0.153028 0.0377162 0.117418 -0.148352 -0.109792 0.295544 -0.383996 -0.00547269 0.0985792 -0.476864 -0.291906
1439 -0.0268518 0.0384759 -0.00389656 -0.0191586 -0.00842813 0.0783402 -0.00411016 -0.0585783 0.0827145 0.0284136 -0.0456204 0.0529318 0.0354618 -0.0286137 -0.0146677 0.0362034 -0.0276146 -0.0222066 0.0617533 -0.0786176 -0.0215209 0.00881806 -0.0843731 -0.0429169
1359 -0.0047926 0.0262443 -0.0191144 -0.0111314 -0.01413 0.0806618 0.0089894 -0.0457388 0.088677 0.0587364 -0.0537262 0.0873534 0.0245991 -0.0347736 0.00934531 0.0194591 -0.0220762 -0.0144868 0.0628091 -0.0724647 -0.0196073 0.0352496 -0.104407 -0.0576417
1560 -0.0151104 0.0520536 -0.0249675 -0.0311636 0.0133265 0.0986679 0.0340384 -0.0814399 0.0910019 0.0615328 -0.0874313 0.0996016 0.0382757 -0.0195587 0.0236968 0.0177448 -0.0247155 -0.0121755 0.0639326 -0.0831687 -0.0246347 0.0326587 -0.11576 -0.0749116
1592 -0.00375869 0.105724 -0.0542597 -0.0488993 0.0116716 0.224004 0.0357153 -0.155893 0.214005 0.144844 -0.154695 0.174418 0.0927535 -0.0785514 0.0100584 0.0781907 -0.0957375 -0.0862557 0.172386 -0.191123 0.00773086 0.0362457 -0.257593 -0.171187
792 -0.00676104 0.0767035 -0.0558938 -0.0232936 0.000636617 0.17217 0.0473773 -0.104905 0.164575 0.110256 -0.134729 0.126214 0.0344352 -0.0503695 0.0114055 0.0745616 -0.0815731 -0.0457484 0.125472 -0.159158 -0.024755 0.0237542 -0.17694 -0.121797
4835 -0.0166023 0.00264876 -0.0336725 0.00206585 -0.00594525 0.0378588 0.000620044 -0.0430676 0.0546465 0.0194563 -0.0404207 0.0307499 0.00416594 -0.0242054 -0.0122264 0.00673655 -0.031172 -0.0158622 0.0410351 -0.0599826 -0.0176073 0.00663063 -0.0674722 -0.0319047
580 -0.0265852 0.248594 -0.161925 -0.0881339 0.049037 0.631107 0.112685 -0.411494 0.638342 0.362514 -0.412174 0.513272 0.234618 -0.238412 0.0484149 0.217468 -0.234771 -0.193143 0.45518 -0.579079 -0.0366704 0.125505 -0.732828 -0.481238
246 -0.0237821 0.075061 -0.0616831 -0.0162234 0.0118132 0.208929 0.0296063 -0.111729 0.187017 0.0954978 -0.149918 0.156105 0.0522062 -0.0441803 -0.00317543 0.0844322 -0.0898287 -0.0703465 0.133878 -0.168421 -0.00624434 0.0295577 -0.210395 -0.146377
3236 0.00224863 0.0110822 -0.0333136 -0.0207303 -0.0108459 0.0750255 0.0216242 -0.045092 0.0609807 0.0405012 -0.0528876 0.061118 0.0128616 -0.028657 0.0114982 0.0324779 -0.0125177 -0.0244783 0.0351664 -0.0606454 -0.00263566 0.0267942 -0.0513505 -0.0233314
288 -0.0337408 0.200824 -0.150718 -0.0711257 0.0365416 0.475111 0.072448 -0.315382 0.493127 0.267876 -0.334959 0.392244 0.144176 -0.154066 0.0295797 0.169439 -0.186242 -0.15605 0.355222 -0.434876 -0.0383771 0.112166 -0.563046 -0.35687
42 0.135026 0.0615215 -0.0186928 -0.144112 -0.100441 0.203717 0.10345 -0.133005 0.256975 0.150209 -0.0904202 0.158002 0.186916 -0.166762 0.00520172 0.0119105 -0.0610223 -0.109882 0.185395 -0.227553 0.0105298 0.0538899 -0.253829 -0.209977
0 1.54947 0.39241 0.308647 -1.60645 -1.32834 1.20379 0.891463 -0.84276 1.68434 0.854527 -0.0599658 0.874643 1.62662 -1.32035 -0.0636086 -0.0584287 -0.368684 -0.824361 1.18665 -1.24078 0.248289 0.217888 -1.29873 -1.39843
4492 -0.0182386 0.00947998 -0.0167904 -0.00454539 -0.0200408 0.0514196 0.0148861 -0.0532627 0.0854096 0.0336478 -0.0620012 0.0727724 0.0253454 -0.0313018 0.0141218 0.0201459 -0.0218253 -0.0339535 0.0296797 -0.0469597 -0.00743872 0.011082 -0.0679658 -0.054596
384 -0.0222283 0.132752 -0.0836429 -0.0444223 0.0148961 0.338676 0.0850139 -0.244396 0.355106 0.195652 -0.259944 0.279847 0.113552 -0.136225 0.0258069 0.103529 -0.123068 -0.0936778 0.268998 -0.328528 -0.0189864 0.0636167 -0.400121 -0.25963
397 0.00475652 0.140551 -0.0926445 -0.0292516 0.0229859 0.32738 0.0483858 -0.223782 0.316012 0.199827 -0.242354 0.260466 0.117551 -0.132757 0.00332259 0.109054 -0.131582 -0.108322 0.23183 -0.310411 0.00084476 0.0483754 -0.378701 -0.236922
3783 0.00590835 0.0345919 -0.0412029 0.00237007 0.0203905 0.0896196 0.0403051 -0.0683437 0.101359 0.0763608 -0.0815164 0.0763845 0.0449306 -0.0400466 0.0130774 0.0456923 -0.0491921 -0.0365566 0.0812756 -0.0923052 0.0167357 0.0335947 -0.103194 -0.0937779
825 -0.0220846 0.284592 -0.178915 -0.0868235 0.03405 0.679293 0.150835 -0.419868 0.679004 0.401335 -0.455326 0.542868 0.255825 -0.252508 0.0452814 0.221944 -0.277013 -0.20839 0.500009 -0.624852 -0.021461 0.119224 -0.789905 -0.488445
2125 -0.0361681 0.110356 -0.100429 -0.0505845 0.0288475 0.3102 0.0597697 -0.182346 0.292757 0.176017 -0.21853 0.245147 0.105209 -0.100566 0.00976978 0.0758539 -0.112818 -0.0855958 0.232487 -0.296499 -0.0105501 0.0648733 -0.360321 -0.218117
6811 -0.00944074 0.0300256 -0.0176696 -0.0136205 -0.00813779 0.0695553 0.0218712 -0.0223747 0.0538939 0.0360613 -0.0413119 0.0366765 0.0404024 -0.0414036 -0.00166646 -0.0017152 -0.0021388 -0.0039234 0.0615295 -0.0419511 0.00764494 0.0293522 -0.0512839 -0.0248525
476 -0.0329517 0.177019 -0.127132 -0.0735174 0.0387335 0.470073 0.0872878 -0.288637 0.46998 0.270134 -0.299828 0.373441 0.161999 -0.155824 0.00818529 0.119043 -0.15667 -0.145562 0.317757 -0.453864 -0.0345607 0.114332 -0.545538 -0.329192
478 -0.0274044 0.172971 -0.131743 -0.0620475 0.0211425 0.382454 0.0558987 -0.263615 0.407907 0.246238 -0.298891 0.316664 0.153058 -0.129201 0.0263075 0.113988 -0.141175 -0.138325 0.266644 -0.358897 -0.0240936 0.0676054 -0.444413 -0.301437
3992 0.00560467 0.019717 -0.0220865 -0.00158929 0.00903205 0.0871426 0.0207191 -0.0828343 0.0931716 0.0392781 -0.080571 0.0979124 0.0248145 -0.0269403 -0.0124109 0.0335011 -0.0297441 -0.0110988 0.0702184 -0.0820098 0.0112267 0.0304327 -0.11053 -0.0655343
3280 0.0129619 0.0873216 -0.0350588 -0.0200281 -0.00617513 0.188499 0.0442157 -0.125175 0.167731 0.118729 -0.119669 0.138655 0.0804401 -0.0753486 -0.0016276 0.0694007 -0.0617109 -0.05264 0.149236 -0.172889 -0.0198698 0.053569 -0.201747 -0.131938
2588 -0.0140188 0.0643963 -0.0111062 -0.000193985 -0.00426481 0.121403 0.03959 -0.0818127 0.104065 0.0539733 -0.0627846 0.089991 0.0591571 -0.0309722 0.0248611 0.0200303 -0.0476324 -0.0204881 0.0845858 -0.103372 0.00510414 0.0258542 -0.142728 -0.0665968
4832 -0.0108603 0.0451942 -0.0351982 0.00244691 -0.0185503 0.0887316 0.0112878 -0.045603 0.0909733 0.0417503 -0.0475038 0.0579485 0.0484638 -0.00729194 0.00347332 0.0132525 -0.0256683 -0.0412116 0.0661616 -0.0793994 -0.0204697 0.00939567 -0.0703648 -0.0487609
480 -0.0431096 0.261764 -0.199535 -0.0867595 0.036832 0.627828 0.0898857 -0.421614 0.656739 0.3478 -0.461831 0.507983 0.222327 -0.209869 0.0207419 0.204226 -0.261062 -0.172063 0.479156 -0.604254 -0.0145762 0.13293 -0.734929 -0.487178
488 0.0161094 0.0927616 -0.0716303 -0.0531784 0.0125594 0.267216 0.0408443 -0.150048 0.256392 0.161163 -0.170247 0.219823 0.114175 -0.09637 0.0314883 0.0815264 -0.0823707 -0.0771626 0.19695 -0.242884 -0.0280719 0.0450328 -0.302573 -0.168479
1386 -0.00580693 0.0443843 -0.0332069 -0.0119326 0.00827797 0.0886406 0.00301081 -0.078043 0.124678 0.0530433 -0.0763777 0.0855065 0.0533685 -0.0576316 0.0124554 0.0151901 -0.0494611 -0.0460217 0.0770133 -0.111955 -0.0222786 0.0357776 -0.140965 -0.0650047
1451 0.00459097 0.0904863 -0.061085 -0.0503835 0.0243715 0.209155 0.06431 -0.160079 0.225327 0.135425 -0.161346 0.177327 0.104852 -0.0841715 0.0178126 0.0567397 -0.0774697 -0.0553931 0.165636 -0.209011 -0.019953 0.0573203 -0.264003 -0.157476
1557 -0.00868885 0.0539333 -0.0152776 -0.0273416 0.00251098 0.142353 0.0148671 -0.0572653 0.133898 0.0760981 -0.0824292 0.110497 0.0439441 -0.0238955 -0.00281579 0.0424205 -0.0644941 -0.0431833 0.0944565 -0.113418 -0.00214371 0.0429489 -0.120381 -0.0952328
852 -0.0217872 0.240666 -0.124787 -0.0807059 0.0415261 0.542506 0.109727 -0.34873 0.566236 0.317339 -0.376626 0.45428 0.171615 -0.20049 0.0338611 0.168556 -0.22472 -0.148968 0.389725 -0.495881 -0.0218069 0.0971379 -0.620689 -0.398239
1085 -0.0249713 0.111594 -0.0584313 -0.052905 0.00802333 0.284753 0.067753 -0.176075 0.290479 0.17264 -0.217491 0.247793 0.104997 -0.101504 -0.000686423 0.0954287 -0.128094 -0.084289 0.20338 -0.262149 0.00308287 0.0713928 -0.346651 -0.197605
2160 -0.0181556 0.0440247 -0.00798112 -0.00550016 0.0199466 0.0608961 -0.000174932 -0.056074 0.0651233 0.0418037 -0.0531907 0.0459176 0.020558 -0.0325968 -0.0177919 0.0233609 -0.031011 -0.038597 0.0422801 -0.0451331 -0.00138502 0.0123845 -0.0568813 -0.0532656
725 -0.0302088 0.214375 -0.118978 -0.0492395 0.0191147 0.497269 0.0959719 -0.300225 0.483699 0.273654 -0.341783 0.398021 0.184275 -0.175973 0.0205877 0.169814 -0.194955 -0.144587 0.337157 -0.436809 -0.034298 0.113925 -0.553277 -0.355781
1037 -0.0150982 0.0762901 -0.0434848 -0.0181436 -0.00326095 0.149014 0.0242454 -0.0837714 0.168366 0.103246 -0.100821 0.134748 0.0317573 -0.0558523 0.00398628 0.0315572 -0.0534558 -0.0247906 0.102749 -0.131834 -0.00625444 0.023253 -0.178969 -0.0964844
2103 0.004549 0.0759286 -0.0225367 -0.0260601 0.0135966 0.113171 0.0234434 -0.102234 0.12477 0.0613972 -0.0754997 0.111739 0.0288702 -0.0383783 0.00986571 0.0248298 -0.0622656 -0.0355732 0.0854437 -0.109132 0.00663639 0.0312027 -0.144955 -0.0848853
902 0.00943661 0.0508856 -0.0177045 -0.00234989 0.000248173 0.0983241 -0.000411861 -0.0789742 0.10117 0.045293 -0.0780104 0.0656029 0.0378967 -0.0401354 0.0159798 0.0417002 -0.0296537 -0.0136311 0.0793147 -0.0811936 0.0100163 0.00165292 -0.12955 -0.0827222
751 -0.00794994 0.142553 -0.0964613 -0.0786397 0.000618685 0.33728 0.0849626 -0.23727 0.34148 0.203574 -0.206695 0.276183 0.150108 -0.127151 0.020426 0.0999672 -0.152138 -0.123534 0.248882 -0.308769 -0.0244832 0.0861617 -0.380908 -0.248647
1535 -0.013681 0.208388 -0.155179 -0.0432772 0.0410207 0.53271 0.100098 -0.349635 0.521601 0.314167 -0.34767 0.430329 0.169756 -0.180886 0.00829527 0.151416 -0.189156 -0.153032 0.378437 -0.513274 -0.00531162 0.109561 -0.631045 -0.398723
669 -0.0416851 0.270247 -0.181326 -0.0918325 0.0369286 0.643381 0.131029 -0.409228 0.667364 0.379932 -0.453423 0.516534 0.252792 -0.241287 0.036467 0.204867 -0.239886 -0.220459 0.491671 -0.625222 -0.0390421 0.118993 -0.738926 -0.477335
4159 0.0215181 0.0207639 -0.00429259 -0.0220494 0.00338158 0.0683134 0.0171283 -0.0269795 0.0408752 0.047242 -0.0378383 0.0643537 0.0117211 -0.0235866 0.0181396 0.0168389 -0.0311618 -0.0133623 0.0441702 -0.0544468 0.010345 0.0306334 -0.0631996 -0.0347682
440 -0.0600016 0.256345 -0.179337 -0.0416341 0.0416116 0.610212 0.0841668 -0.360059 0.604494 0.308191 -0.406566 0.46768 0.20445 -0.2163 0.0125563 0.184832 -0.244253 -0.18589 0.420563 -0.567605 -0.0322367 0.0968548 -0.67262 -0.420797
306 0.00290378 0.16774 -0.134355 -0.0414493 0.0335427 0.425273 0.0602288 -0.245413 0.434792 0.254121 -0.261168 0.320596 0.150896 -0.128165 0.0347067 0.145317 -0.169374 -0.136206 0.320889 -0.389231 -0.0142549 0.0837442 -0.467709 -0.305709
991 -0.0271233 0.0983525 -0.0688146 -0.0124264 0.00330404 0.224346 0.0197262 -0.12518 0.202857 0.119097 -0.146019 0.149783 0.0925248 -0.0691009 0.0185385 0.0783906 -0.0978866 -0.0685523 0.144738 -0.191051 0.000656007 0.0244184 -0.230593 -0.173147
1293 -0.0396411 0.359322 -0.244563 -0.0945243 0.0528238 0.846935 0.168931 -0.539821 0.859978 0.467353 -0.570685 0.714504 0.275383 -0.281208 0.0272621 0.28205 -0.329635 -0.273387 0.632395 -0.799283 -0.0131538 0.170108 -0.993646 -0.623031
925 0.014626 0.110007 -0.0755986 -0.0499883 -0.0022998 0.28201 0.0671125 -0.166687 0.299594 0.173004 -0.194674 0.218343 0.128472 -0.094343 0.0110289 0.0623177 -0.0998216 -0.0970734 0.220981 -0.264157 0.000134083 0.0707654 -0.317883 -0.216389
787 -0.00761873 0.0111167 -0.0284818 -0.0157052 -0.00168194 0.0280951 0.0252638 -0.00836053 0.0451367 0.0239732 -0.0424284 0.0324625 0.00936641 -0.00443255 0.00876635 0.0131984 -0.0264221 -0.00689274 0.0151879 -0.0628949 -0.000672279 0.0171097 -0.04162 -0.0489422
474 -0.0429499 0.27509 -0.193209 -0.0621014 0.0134682 0.628961 0.0967685 -0.41597 0.617389 0.363678 -0.470627 0.543657 0.218294 -0.203038 0.00752226 0.230846 -0.280057 -0.185346 0.48458 -0.593162 -0.0543997 0.122219 -0.729376 -0.502886
469 -0.0165824 0.157305 -0.11952 -0.0443899 0.0195892 0.466292 0.0718206 -0.293033 0.434006 0.271195 -0.290331 0.376296 0.171571 -0.160115 0.0479473 0.151826 -0.152157 -0.107888 0.319711 -0.41886 -0.0370532 0.111673 -0.499245 -0.351787
831 0.0113432 0.0924996 -0.0543119 -0.0313465 0.00502373 0.179368 0.0385991 -0.121763 0.169747 0.0871795 -0.118687 0.143836 0.0836097 -0.0712218 0.00914769 0.0676357 -0.060677 -0.0598584 0.128088 -0.177153 -0.0124005 0.0196243 -0.192462 -0.148059
1629 -0.0250919 0.0574242 -0.0271956 -0.00173951 -0.0140641 0.111881 0.0293582 -0.0591101 0.103987 0.0695219 -0.079699 0.073106 0.0333659 -0.0446238 -0.0130876 0.030442 -0.0245579 -0.0472384 0.0772223 -0.0873771 0.0142198 0.0322512 -0.13194 -0.0880524
3277 -0.00321982 0.0940641 -0.0596141 -0.0241454 0.0243474 0.182917 0.0335555 -0.129377 0.186338 0.0827351 -0.135151 0.155473 0.0674594 -0.0855438 0.0131633 0.0600019 -0.0846339 -0.0764662 0.14448 -0.152074 0.00936507 0.0555125 -0.224507 -0.145943
1355 0.00132125 0.0806574 -0.0523616 -0.0436656 0.00354151 0.166463 0.0197261 -0.106086 0.184445 0.0730267 -0.131672 0.113967 0.0577317 -0.0634857 0.00391009 0.0556443 -0.0751292 -0.0304654 0.136333 -0.138657 -0.0124824 0.0355929 -0.206121 -0.108455
979 -0.0122614 0.18343 -0.0932858 -0.0292957 0.0182209 0.382767 0.082107 -0.22561 0.396533 0.22015 -0.281221 0.306865 0.127136 -0.119436 0.0351325 0.108793 -0.161547 -0.115296 0.290859 -0.351186 -0.00010615 0.0764818 -0.435397 -0.303326
149 0.017601 0.0940628 -0.0324172 -0.0615808 0.00320225 0.224063 0.0700815 -0.165991 0.22676 0.114763 -0.135343 0.208114 0.107392 -0.0753474 0.00837771 0.0692332 -0.102882 -0.0603613 0.16441 -0.226259 -0.0141791 0.0295032 -0.284683 -0.172635
55 -0.0275874 0.167341 -0.119333 -0.0703125 0.0338469 0.396261 0.075042 -0.271515 0.429304 0.210547 -0.266587 0.347806 0.161635 -0.145586 0.0335725 0.109164 -0.147697 -0.118528 0.309337 -0.390798 -0.00202299 0.0753175 -0.474213 -0.323845
266 -0.0266865 0.0534005 -0.0183051 0.00276197 0.0156942 0.130252 0.0210031 -0.075775 0.116693 0.0866845 -0.0728849 0.108315 0.0461756 -0.0540003 -0.0101823 0.0455398 -0.0400208 -0.0509651 0.0999785 -0.115837 -0.0260001 0.0447086 -0.157186 -0.0986723
5774 0.00850178 0.0309219 -0.023366 -0.0148556 -0.0132026 0.0823459 0.00537398 -0.0205298 0.0529772 0.02713 -0.0629204 0.0698426 0.0443694 -0.0277621 0.000810671 0.0285193 -0.0358085 -0.0336444 0.0307838 -0.0396759 -0.0183617 -0.00453222 -0.0796938 -0.0458263
359 -0.0166542 0.21497 -0.154406 -0.0676958 0.0226059 0.570175 0.0948356 -0.355025 0.546987 0.290088 -0.385815 0.456428 0.171617 -0.214049 0.0127146 0.168729 -0.233396 -0.173051 0.391952 -0.529473 -0.0386254 0.097626 -0.655638 -0.431152
331 -0.0318042 0.149379 -0.102235 -0.054928 0.00266912 0.394016 0.0793055 -0.241385 0.402074 0.225901 -0.266872 0.313831 0.141077 -0.128127 0.0330615 0.110605 -0.135866 -0.131262 0.272125 -0.337359 -0.0127085 0.083733 -0.434302 -0.292515
3959 -0.00675933 0.0148737 -0.0376635 -0.016379 -0.0109442 0.0898657 0.025693 -0.0547956 0.0797335 0.041338 -0.0322239 0.0430462 0.0397702 -0.0418756 -0.0106382 0.0376912 -0.0166161 -0.0123164 0.0673762 -0.0809956 -0.0018843 0.0104322 -0.0960783 -0.0579535
963 -0.00111033 0.168776 -0.0871972 -0.046781 -0.00568321 0.380112 0.0986155 -0.248627 0.405201 0.24102 -0.24417 0.32113 0.135686 -0.149777 0.0230129 0.118082 -0.143202 -0.114779 0.302429 -0.355485 -0.0195888 0.0727476 -0.444643 -0.279811
1351 -0.00603993 0.149382 -0.0671753 -0.0623085 -0.00677587 0.329598 0.0517325 -0.214869 0.305683 0.180273 -0.206928 0.268317 0.112993 -0.10518 0.00873058 0.0811857 -0.116426 -0.114673 0.228395 -0.309832 0.00225477 0.0641792 -0.342011 -0.215163
4147 0.0187086 0.0313723 -0.000914954 -0.0014976 -0.00661926 0.0681285 0.0334119 -0.0420549 0.0750231 0.0515355 -0.0260901 0.0292807 0.0312727 -0.00737654 0.004397 0.00501827 -0.0414367 -0.026807 0.0637518 -0.0427686 -0.0128808 0.00717847 -0.0497491 -0.0570196
688 -0.0245159 0.0786202 -0.0284258 -0.0374436 0.0125635 0.172623 0.0459273 -0.0820398 0.168029 0.0732887 -0.095179 0.111285 0.0431121 -0.0729547 -0.0110177 0.0288347 -0.0761795 -0.0670654 0.115592 -0.1405 -0.00450853 0.0400331 -0.169818 -0.125195
681 0.0071193 0.150162 -0.0890286 -0.0728694 0.0120206 0.385147 0.0901574 -0.227954 0.396915 0.233145 -0.263993 0.304491 0.140284 -0.122898 -0.00026569 0.105411 -0.133018 -0.106905 0.272101 -0.358116 -0.010066 0.062547 -0.421169 -0.265425
5887 0.0143056 0.0344841 -0.0114033 -0.0181289 -0.00474062 0.070911 0.00725233 -0.0486735 0.045094 0.0307643 -0.0239697 0.0631309 0.00905846 -0.024417 0.0136216 0.0290068 -0.000295278 -0.0152416 0.0331631 -0.0458444 -0.00717332 -0.00248729 -0.0755885 -0.0443645
365 -0.000957029 0.192299 -0.101163 -0.0569167 0.0100346 0.432847 0.0742675 -0.273274 0.452263 0.249206 -0.292592 0.377063 0.144682 -0.163374 0.0287629 0.153866 -0.18025 -0.129788 0.314836 -0.419252 -0.0126619 0.0780244 -0.514892 -0.332984
323 -0.0451482 0.203742 -0.127448 -0.0530618 0.0647417 0.497884 0.0901499 -0.318061 0.496093 0.286339 -0.375987 0.436642 0.156528 -0.15647 0.0444619 0.156975 -0.201193 -0.150385 0.374083 -0.469581 -0.0223591 0.116243 -0.591964 -0.372145
2542 0.0044586 0.0669662 -0.0356025 0.00109293 -0.00343566 0.125688 0.00754391 -0.060431 0.142573 0.0555079 -0.0937563 0.103356 0.0605686 -0.0524648 0.0224646 0.0349798 -0.0531943 -0.0592093 0.102176 -0.131456 -0.0211182 0.0311501 -0.134903 -0.0839271
1938 0.00471609 0.0869749 -0.0393898 -0.0440825 0.00140612 0.225251 0.0544055 -0.139583 0.237936 0.129815 -0.146445 0.168065 0.0847779 -0.0926915 0.00673575 0.0564104 -0.0866538 -0.0572691 0.145049 -0.227987 -0.0241205 0.0508619 -0.25101 -0.165471
2454 0.000574902 0.0692222 -0.0246342 -0.0128381 0.00975106 0.185934 0.0336049 -0.109027 0.161463 0.107068 -0.118792 0.136603 0.0747412 -0.0657207 -0.00673311 0.0473662 -0.0667079 -0.071718 0.102499 -0.155156 -0.00381319 0.0461819 -0.199474 -0.119197
2948 -0.0101012 0.078215 -0.041955 -0.0174939 0.0159694 0.167003 0.0188495 -0.123653 0.198561 0.080689 -0.119377 0.122844 0.0726772 -0.0596012 0.0254475 0.0560828 -0.0741051 -0.0433772 0.132028 -0.15671 0.00972959 0.0459237 -0.202855 -0.135099
2947 -0.00252057 0.0790907 -0.0468743 -0.0156786 0.00535641 0.153618 0.0253204 -0.0744912 0.159718 0.0628918 -0.0868185 0.101026 0.0376335 -0.0304653 0.0226947 0.0450904 -0.0727697 -0.0458 0.0864026 -0.150778 -0.02516 0.0479587 -0.146062 -0.0915196
6138 0.0149507 0.0405688 -0.0280402 -0.0231248 0.0170307 0.0696515 -0.00826877 -0.0353996 0.0672988 0.0335315 -0.0528152 0.0360908 0.0239959 -0.0249097 -0.0119004 0.0349437 -0.0191748 -0.0365357 0.0568193 -0.0763672 0.0107801 0.0154441 -0.0849452 -0.0314884
532 0.131333 0.186356 -0.0851101 -0.193409 -0.0703133 0.463008 0.157886 -0.310123 0.559233 0.308616 -0.295985 0.409916 0.294425 -0.222128 -0.0170956 0.0873882 -0.157502 -0.223031 0.38738 -0.445528 -0.0154569 0.137855 -0.579055 -0.414552
214 0.32411 0.206642 -0.0556451 -0.344772 -0.255159 0.568502 0.275391 -0.382223 0.724608 0.378686 -0.245429 0.464419 0.441671 -0.382234 -0.0446575 0.113448 -0.190768 -0.231955 0.498114 -0.601483 0.0689857 0.0916394 -0.671773 -0.594652
4569 -0.00652211 0.0131548 -0.00440281 -0.0119485 0.00155005 0.0481556 0.0241512 -0.0510925 0.0468694 0.0223562 -0.0314876 0.0530541 0.0401959 -0.0221843 -0.0121434 0.00820224 -0.0251672 -0.00537358 0.0231945 -0.0403275 0.00542607 0.0264074 -0.0539729 -0.0426499
672 -0.0235437 0.146506 -0.0858587 -0.0403682 0.0216965 0.352536 0.0541599 -0.222097 0.361236 0.184003 -0.222445 0.283656 0.126955 -0.132249 0.0202687 0.117073 -0.139603 -0.0919094 0.258252 -0.310851 -0.00433397 0.0887345 -0.402242 -0.248397
846 -0.0113398 0.13198 -0.0851406 -0.0535114 0.00464955 0.35613 0.0825403 -0.211124 0.36666 0.185312 -0.228551 0.269793 0.114572 -0.134663 -0.00527312 0.0960122 -0.134079 -0.104706 0.253376 -0.31182 0.00198313 0.0905398 -0.408974 -0.239888
2747 -0.0179225 0.0496727 -0.0151825 -0.0103155 0.00136326 0.0711444 0.00625144 -0.0465104 0.0596586 0.0283853 -0.0750998 0.0780839 0.0444412 -0.0249988 -0.00240597 0.0200402 -0.0184143 -0.0390714 0.0511106 -0.0666458 -0.000794093 0.000296636 -0.0787114 -0.0606124
2429 0.00330918 0.131052 -0.0871126 -0.0261192 0.0141253 0.293028 0.0467854 -0.199914 0.297697 0.180611 -0.215666 0.257185 0.103097 -0.115245 0.00225372 0.0993388 -0.12828 -0.106771 0.226681 -0.299167 -0.0106964 0.0544346 -0.350644 -0.226618
749 -0.056223 0.245105 -0.187646 -0.0826178 0.0593972 0.616003 0.109069 -0.413258 0.63734 0.370257 -0.442653 0.514124 0.218254 -0.222136 0.0144376 0.221288 -0.250665 -0.203803 0.47333 -0.579111 -0.024593 0.125708 -0.730713 -0.470557
3170 0.00929691 0.0559831 -0.0476426 -0.00381092 0.0091434 0.104796 0.0290693 -0.0472734 0.084648 0.0615064 -0.051321 0.0699577 0.0184876 -0.0518285 -0.0151327 0.0266695 -0.0590744 -0.00950197 0.0600166 -0.101303 -0.0251149 0.0136983 -0.100797 -0.0708387
680 -0.0337302 0.227539 -0.142931 -0.0589469 0.0433069 0.5269 0.11196 -0.327205 0.525136 0.313144 -0.370873 0.4534 0.170114 -0.177929 0.0258655 0.167373 -0.194078 -0.173702 0.407165 -0.506527 -0.00985016 0.112388 -0.617336 -0.401126
653 0.0126183 0.14771 -0.110327 -0.0775936 0.00678939 0.378382 0.0632938 -0.238542 0.402119 0.224174 -0.259133 0.292931 0.162034 -0.130634 0.0282233 0.122764 -0.151959 -0.108731 0.282847 -0.368691 -0.0313468 0.0995039 -0.425065 -0.297594
102 0.0567184 0.0221148 0.0077977 -0.0613674 -0.0546117 0.0677347 0.0435326 -0.0640254 0.102498 0.059137 -0.00314526 0.0758513 0.0982571 -0.0565556 -0.0230967 -0.00696328 -0.031457 -0.0301171 0.060086 -0.0600376 0.0127508 0.0265546 -0.0783894 -0.0657634
3782 -0.015641 0.0698693 -0.0705258 -0.0215197 0.0339113 0.17042 0.0525134 -0.0981032 0.198217 0.108194 -0.139122 0.135146 0.0654896 -0.0515675 0.0219023 0.0511752 -0.0910467 -0.0477476 0.144152 -0.177325 0.00570544 0.0419314 -0.23131 -0.13931
2964 0.0248475 0.0877639 -0.0590467 -0.0146744 -0.00211395 0.184707 0.0575386 -0.13294 0.18845 0.0923943 -0.13002 0.166762 0.077817 -0.0824639 0.0145069 0.0545192 -0.0524133 -0.0539527 0.119163 -0.19026 0.00985113 0.0296757 -0.220091 -0.126397
817 -0.0112268 0.0313275 -0.0368157 0.00110557 -0.00544077 0.0885397 0.0278395 -0.0588183 0.0623739 0.0342829 -0.063313 0.0480722 0.0304728 -0.0375207 0.00391469 0.00741335 -0.0309839 -0.0392882 0.0412003 -0.0610533 -0.000198322 3.45249e-05 -0.0833174 -0.0458609
295 0.00452445 0.168097 -0.102333 -0.05246 0.00187163 0.398609 0.0706649 -0.245383 0.388125 0.226654 -0.278728 0.310566 0.159649 -0.172586 0.0308788 0.100126 -0.135014 -0.140126 0.276458 -0.379122 -0.00909913 0.0926687 -0.459227 -0.293213
9 0.0426267 0.106309 -0.0441684 -0.0569524 -0.0147923 0.300604 0.0520998 -0.183441 0.299206 0.169592 -0.195922 0.234525 0.145905 -0.136249 0.0240907 0.101111 -0.120474 -0.0885798 0.230625 -0.283293 -0.00942941 0.05503 -0.315097 -0.203842
1639 0.0222286 0.025123 -0.0312136 -0.014 -0.00479347 0.0711615 0.0202709 -0.0342573 0.0810123 0.0565393 -0.0625341 0.0794151 0.0356906 -0.0131191 0.0208523 0.0187214 -0.0337807 -0.0155001 0.0487862 -0.067559 0.0176746 0.0158173 -0.0796389 -0.0751194
372 -0.0507954 0.247905 -0.151913 -0.0509494 0.0323949 0.588403 0.0947967 -0.357947 0.607393 0.348134 -0.398859 0.477351 0.199254 -0.195108 0.0298085 0.206833 -0.230211 -0.15928 0.425716 -0.545347 -0.0280776 0.136017 -0.667747 -0.426579
396 0.0166371 0.100176 -0.0747021 -0.0438166 -0.0144121 0.21806 0.0530882 -0.135923 0.217204 0.143216 -0.151674 0.179148 0.0819164 -0.101461 0.0153838 0.0745401 -0.0972336 -0.0719268 0.177816 -0.199349 -0.0121205 0.0631993 -0.237331 -0.158945
6586 0.0139158 0.0224917 -0.016949 0.00798072 0.00754452 0.0337016 -0.00802794 -0.0163686 0.0492285 0.0121761 -0.0398677 0.0603117 0.0181916 -0.0241557 0.00436801 0.00206174 -0.0155663 -0.0229954 0.0531659 -0.0600287 0.0045069 -0.00285159 -0.0740935 -0.042413
278 -0.0634612 0.219822 -0.174927 -0.0387349 0.0344902 0.570008 0.0964844 -0.339441 0.563996 0.329858 -0.386499 0.472242 0.17361 -0.197044 0.0451214 0.193512 -0.201474 -0.177687 0.41819 -0.531728 -0.0118879 0.101531 -0.639965 -0.387822
6863 -0.00329631 0.023815 8.28572e-06 -0.00896785 -0.0195878 0.0614658 0.00270776 -0.0475837 0.0455663 0.0442102 -0.0250573 0.0366166 0.0177787 -0.0199662 0.0128711 0.0345267 -0.00839705 -0.0299131 0.0361263 -0.0632749 0.00530204 0.022103 -0.0928482 -0.0664873
334 -0.00296232 0.148606 -0.122466 -0.0558313 0.0248651 0.415749 0.0801393 -0.274521 0.406989 0.245081 -0.271305 0.349182 0.153913 -0.138686 -0.00105426 0.124214 -0.152324 -0.140766 0.280128 -0.378575 -0.0184427 0.0802833 -0.458946 -0.303677
412 -0.00630719 0.19143 -0.113176 -0.0556067 0.0135457 0.396118 0.074791 -0.251202 0.40166 0.252968 -0.295154 0.341758 0.157101 -0.16344 0.0209065 0.147531 -0.141569 -0.138759 0.314268 -0.3723 -0.033711 0.0856561 -0.458581 -0.307196
264 0.0774731 0.0338384 0.0214222 -0.0821601 -0.0751271 0.0959899 0.0659447 -0.0847242 0.141806 0.0959505 -0.0377594 0.0720151 0.124413 -0.07155 -0.0188619 -0.00390636 -0.0265248 -0.080246 0.113221 -0.118529 0.00673966 0.0411177 -0.135573 -0.105306
6313 -0.00836036 0.00506118 -0.0125108 -0.0248367 -0.00558307 0.0597782 0.00524586 -0.0587145 0.0730587 0.0205515 -0.0514972 0.0390515 0.00722367 -0.00319053 -0.00420659 0.031355 -0.0282221 -0.030228 0.0506635 -0.0497438 -0.000715032 0.0230745 -0.0516113 -0.066989
479 -0.00135685 0.138119 -0.0918346 -0.0579675 0.0336661 0.38938 0.0812248 -0.2338 0.382941 0.241613 -0.243002 0.324264 0.127328 -0.125606 0.0364374 0.128015 -0.153082 -0.12763 0.286863 -0.349388 -0.0291233 0.0613718 -0.437077 -0.293294
6903 0.00473007 0.038087 -0.029129 -0.00227114 0.0164382 0.0394043 0.021847 -0.054002 0.0347322 0.019344 -0.0150878 0.060402 0.00515902 -0.014272 0.00847143 0.00888648 -0.0319798 -0.00529694 0.0260727 -0.0564929 -0.00662502 -0.00484256 -0.0560684 -0.040105
473 -0.015539 0.184078 -0.130019 -0.0360355 0.0306802 0.46257 0.08007 -0.26569 0.460333 0.257934 -0.332132 0.359643 0.159268 -0.154685 0.0015312 0.152007 -0.163015 -0.129931 0.349519 -0.420788 -0.0397818 0.0787282 -0.516692 -0.349556
467 -0.0363067 0.190526 -0.151902 -0.0400937 0.0245833 0.523066 0.0630114 -0.29958 0.527126 0.283128 -0.329846 0.427373 0.16799 -0.143422 0.0196621 0.147719 -0.20791 -0.116352 0.349152 -0.454217 -0.038502 0.0840271 -0.557691 -0.367484
1732 -0.00296651 0.116551 -0.0551891 -0.0268531 -0.00447483 0.296239 0.0572111 -0.183382 0.276183 0.14783 -0.195646 0.238555 0.119823 -0.0937381 0.00452012 0.102402 -0.100985 -0.101633 0.20121 -0.247772 0.01095 0.0749991 -0.318322 -0.225961
2186 -0.0109953 0.0924398 -0.0612206 -0.0126303 0.0217461 0.251175 0.0242478 -0.150029 0.236428 0.142793 -0.179503 0.208108 0.0586016 -0.0608775 0.0177599 0.0805464 -0.0908027 -0.0749826 0.169178 -0.23838 -0.0135463 0.0535677 -0.279023 -0.173432
4207 0.0123791 0.0785226 -0.0438323 -0.0078565 -0.00800141 0.146782 0.0310049 -0.0965486 0.159642 0.0965943 -0.0912124 0.102277 0.0714114 -0.0456488 0.00250819 0.0401606 -0.064766 -0.0418345 0.12644 -0.123863 -0.00516787 0.021245 -0.160144 -0.113854
1626 0.013435 0.0395972 -0.030919 -0.0154796 0.00545586 0.0504082 0.0135538 -0.0517463 0.0507919 0.0354869 -0.0232779 0.0329313 0.0367951 -0.0250914 0.0201901 0.0224247 -0.0328173 -0.0267836 0.0467226 -0.0801576 -0.00838335 -0.00560751 -0.0939195 -0.0282948
962 -0.00178656 0.102536 -0.075541 -0.0200216 0.0214206 0.235817 0.0619574 -0.167931 0.241156 0.120096 -0.174171 0.179584 0.102167 -0.0975494 -0.00769602 0.0761113 -0.0876918 -0.0737438 0.169745 -0.200717 -0.0163831 0.0469582 -0.28194 -0.190531
966 -0.0272324 0.14588 -0.0999996 -0.0555228 0.0224283 0.337831 0.0533579 -0.210771 0.340088 0.178945 -0.2214 0.283292 0.130335 -0.107928 -0.00326939 0.109871 -0.130255 -0.117299 0.238012 -0.301386 0.00891842 0.0838429 -0.384492 -0.241665
4903 -0.0161195 0.0268335 -0.0301225 -0.0110691 -0.0118559 0.0509791 6.35789e-05 -0.0229709 0.044777 0.0455836 -0.0237695 0.0491115 0.0121734 -0.0221214 0.0107388 0.0311579 -0.0380968 -0.0162338 0.0537147 -0.0571754 -0.0168605 0.00721739 -0.0770285 -0.0579622
1586 0.00431612 0.0415114 -0.0228176 -0.000468838 0.0189087 0.0496672 0.00581132 -0.0522739 0.0614919 0.0513197 -0.0392487 0.0468309 0.0010346 -0.0165349 0.0197629 0.0293394 -0.00739098 -0.0107399 0.0247095 -0.0488628 0.00301055 0.0212914 -0.0512328 -0.0264374
291 -0.0566794 0.248824 -0.151121 -0.035858 0.0608052 0.536613 0.0805677 -0.363543 0.563169 0.30578 -0.379961 0.46281 0.181995 -0.169183 0.0197666 0.18041 -0.225639 -0.174644 0.385508 -0.511712 -0.037925 0.103882 -0.649184 -0.416245
2939 -0.0257599 0.0286362 -0.0387933 -0.00738875 0.0140235 0.0637806 0.00858961 -0.043022 0.0512703 0.0522414 -0.057786 0.0509652 -0.00223697 -0.00479626 0.0215126 0.0307001 -0.0244992 -0.0337206 0.0453186 -0.074369 0.00606581 0.0288251 -0.0704018 -0.0430177
1081 -0.0114748 0.280431 -0.164101 -0.0809235 0.0432901 0.632215 0.135164 -0.427048 0.662794 0.379963 -0.441884 0.523558 0.213917 -0.213579 0.0363197 0.208546 -0.241005 -0.190728 0.465372 -0.589967 -0.00444254 0.113513 -0.747716 -0.487567
73 -0.0192469 0.035563 -0.0186732 -0.0270757 -0.0170717 0.0793555 0.0202488 -0.0662841 0.0736324 0.0399468 -0.0321319 0.0696521 0.00871467 -0.0150053 -0.0070673 0.0151232 -0.0453151 -0.0256698 0.0497442 -0.0650239 0.0148122 0.02438 -0.0772759 -0.0675314
89 0.0116433 0.0911021 -0.0602437 -0.0423323 0.00795816 0.216173 0.0256451 -0.118368 0.228918 0.112022 -0.168595 0.163668 0.0713321 -0.0827091 0.00733767 0.0863599 -0.0806487 -0.0861259 0.17754 -0.209134 -0.00682708 0.0576982 -0.2335 -0.182017
193 0.171158 0.0782076 0.0106207 -0.204516 -0.1544 0.238224 0.128493 -0.17804 0.321416 0.139284 -0.0994806 0.195379 0.223202 -0.179154 -0.0198628 0.0361557 -0.100283 -0.128736 0.20815 -0.255716 0.00213307 0.0663074 -0.290537 -0.215015
1699 -0.00729851 0.0283837 -0.0108385 0.0118853 0.0190118 0.0392654 -0.00830686 -0.0148555 0.0394922 0.0273729 -0.0561787 0.0229934 -0.0110533 0.00885636 0.0150919 0.0334856 -0.0203989 -0.00847007 0.03852 -0.0409983 0.00483342 -0.00158108 -0.0777756 -0.0127289
304 -0.0367265 0.234658 -0.172697 -0.0612976 0.0441205 0.505101 0.081336 -0.340382 0.492619 0.273557 -0.37994 0.427085 0.161118 -0.185185 0.0174973 0.182231 -0.21177 -0.146401 0.386594 -0.49678 -0.0254965 0.085635 -0.606923 -0.38395
1035 -0.000473242 0.172426 -0.108764 -0.0834234 0.00753689 0.450707 0.0807794 -0.28898 0.46725 0.24984 -0.310829 0.361488 0.152834 -0.173837 0.00995455 0.152014 -0.187833 -0.132114 0.31383 -0.436023 -0.0172395 0.109198 -0.520094 -0.326189
2471 -0.00725281 0.0503067 -0.0293707 -0.0204636 0.0142748 0.119717 0.0331345 -0.0948966 0.106969 0.0550883 -0.0760624 0.0790385 0.0425227 -0.0528021 -0.0137225 0.0533997 -0.0311055 -0.023122 0.0750025 -0.12366 0.00607563 0.0141532 -0.152782 -0.0817668
2570 -0.00154839 0.0693381 -0.0601658 -0.0317625 0.000360587 0.170555 0.0205198 -0.0942058 0.148224 0.0801393 -0.106184 0.133372 0.0559956 -0.0526108 0.00182904 0.0622418 -0.0733686 -0.0645888 0.126026 -0.142743 -0.0228067 0.0303867 -0.168021 -0.127205
2116 -0.0117757 0.0953974 -0.0641896 -0.0360433 -0.0025904 0.222464 0.0247758 -0.170467 0.226829 0.115225 -0.178651 0.18488 0.0993646 -0.0703275 0.0129637 0.0546866 -0.0928726 -0.0936258 0.165735 -0.215084 -0.0258246 0.0508177 -0.292104 -0.195446
2335 -0.00991778 0.185053 -0.133988 -0.0545861 0.0155851 0.428264 0.102538 -0.293526 0.464433 0.26068 -0.28981 0.349838 0.170615 -0.138049 0.00658935 0.135494 -0.182425 -0.12623 0.308999 -0.402819 -0.00989909 0.0783817 -0.487215 -0.334818
4562 -0.0142528 0.0333022 -0.00737905 0.00622823 -0.00338394 0.061759 -0.000885317 -0.0568068 0.052363 0.0220989 -0.0380241 0.0672972 0.00940019 -0.0151355 0.0226047 0.0153954 -0.0203381 -0.00842941 0.0553536 -0.0553573 -0.00682172 0.00441249 -0.0939931 -0.0421555
512 0.00585799 0.0902137 -0.0734691 -0.0314386 0.0295173 0.251054 0.0380407 -0.162986 0.245402 0.141662 -0.180282 0.230739 0.103051 -0.0962619 0.0334378 0.0684522 -0.107884 -0.0995697 0.194928 -0.225883 -0.00399739 0.0472693 -0.313485 -0.195235
1755 -0.00792679 0.0532366 -0.0511705 -0.0248155 -0.00738963 0.136714 0.00962997 -0.112926 0.175133 0.101661 -0.104628 0.145046 0.0630503 -0.067694 -6.86509e-05 0.0476718 -0.0428708 -0.0391659 0.103439 -0.128298 -0.00024363 0.0343162 -0.197479 -0.132376
738 -0.00529021 0.0939486 -0.0775596 -0.0483549 0.00500004 0.257672 0.0463978 -0.17595 0.253253 0.132989 -0.190764 0.218394 0.0896111 -0.0888995 0.000839362 0.0792136 -0.103003 -0.0706087 0.187595 -0.269117 0.00594751 0.0349215 -0.327462 -0.198663
798 0.00214193 0.101629 -0.0599589 -0.0457672 0.0249621 0.202741 0.0224438 -0.148836 0.216837 0.11596 -0.141588 0.177703 0.0697898 -0.0832812 0.00796018 0.0793019 -0.0897167 -0.0746606 0.132072 -0.194855 -0.00405558 0.0300004 -0.226313 -0.151752
3856 -0.00203705 0.0401643 0.00249636 -0.00773405 -0.00379178 0.0552523 0.0195814 -0.0438434 0.0628714 0.0262624 -0.0448796 0.0423476 0.00733512 -0.00886219 0.0138665 -0.000392534 -0.00534378 -0.0113646 0.0331909 -0.053666 -0.0194848 -0.0014521 -0.0827103 -0.0372408
341 -0.0464529 0.223321 -0.152363 -0.0460528 0.053238 0.54546 0.107817 -0.328192 0.546722 0.290814 -0.380499 0.420049 0.167419 -0.161463 0.045441 0.161235 -0.213809 -0.137198 0.399399 -0.470394 -0.0308708 0.0861903 -0.617552 -0.382548
369 -0.0167747 0.104 -0.0586274 -0.0323584 -0.00985416 0.221818 0.0406511 -0.135557 0.226056 0.139654 -0.162292 0.172686 0.0723002 -0.0759997 0.0307451 0.0835444 -0.101253 -0.0595276 0.147361 -0.196568 0.010675 0.0523777 -0.265952 -0.173684
4173 -0.013289 0.0463015 -0.0347104 -0.0267557 -0.000753967 0.080877 0.0261826 -0.0483076 0.0863469 0.0466142 -0.0468063 0.0721412 0.0294018 -0.0441495 -0.0113085 0.0174887 -0.0539437 -0.0218396 0.0560402 -0.0690126 0.0144871 0.0390513 -0.0983512 -0.0609545
2858 -0.00721248 0.0874482 -0.0563281 -0.0460952 0.00738847 0.188251 0.0405705 -0.103455 0.161282 0.0768464 -0.111019 0.155508 0.0566858 -0.0737714 -0.00263658 0.0703602 -0.0667561 -0.0601657 0.145543 -0.142855 -0.00724959 0.0439506 -0.1831 -0.108087
3890 -0.00104968 0.066419 -0.0493155 -0.0350665 0.0170826 0.106789 0.0258564 -0.0536935 0.109477 0.0558545 -0.0936944 0.080458 0.0367975 -0.0596059 0.0190917 0.0491599 -0.0530441 -0.0344966 0.0905503 -0.110013 0.0062794 0.0105367 -0.1363 -0.0888999
2681 -0.0237236 0.0552761 -0.0461029 -0.00377336 -0.000820389 0.159973 0.0467042 -0.110244 0.140342 0.0903502 -0.101523 0.132167 0.0334672 -0.0474849 0.0269851 0.0329381 -0.0691326 -0.0497437 0.107125 -0.133658 -0.00768804 0.0148404 -0.14857 -0.092022
2650 -0.00526387 0.0429002 -0.0249397 -0.0287129 0.013438 0.157385 0.0178818 -0.0947065 0.156912 0.0917765 -0.0801771 0.126668 0.0764759 -0.0754828 0.0123311 0.0343893 -0.0546577 -0.0368989 0.12372 -0.128732 -0.0248628 0.0494242 -0.150206 -0.10466
2477 -0.00401915 0.0696133 -0.0716061 -0.0187273 0.000753755 0.210161 0.0583008 -0.145301 0.223573 0.115272 -0.15748 0.185759 0.097544 -0.0814311 0.0229262 0.0775664 -0.0699182 -0.0510112 0.145388 -0.181984 0.00566588 0.0477054 -0.235981 -0.150807
5180 -0.0179273 0.0316603 -0.0292708 -0.0195214 0.00191826 0.0910171 0.0120791 -0.0546357 0.0604962 0.0306795 -0.0514978 0.063937 0.0467943 -0.0199075 -0.0121358 0.0362911 -0.0449884 -0.0317221 0.0542017 -0.070248 0.00438867 0.0303361 -0.0862448 -0.0770648
917 -0.000895608 0.0773854 -0.0530002 -0.0206216 0.00628364 0.152453 0.00979918 -0.0930647 0.157031 0.0718728 -0.112626 0.108676 0.0336041 -0.059328 -0.00176945 0.0322446 -0.0642305 -0.0590556 0.122771 -0.138841 -0.0229675 0.0203427 -0.159106 -0.127268
684 -0.0494811 0.305214 -0.199514 -0.0740714 0.0529547 0.688556 0.123548 -0.433068 0.700873 0.400461 -0.48922 0.566573 0.22703 -0.238757 0.0219798 0.192909 -0.254794 -0.201271 0.512643 -0.648738 -0.0162902 0.16054 -0.793847 -0.508895
1295 -0.00967056 0.0183361 -0.0295837 -0.0317843 0.00435177 0.0766964 0.00998914 -0.0767109 0.109554 0.0509078 -0.0417173 0.0786359 0.0459942 -0.0295948 -0.0102969 0.0421883 -0.0358734 -0.0147353 0.0512823 -0.106877 0.0162198 0.0242446 -0.116462 -0.0503819
2675 -0.0164238 0.0637146 -0.0511811 -0.00889796 -0.0137457 0.155067 0.0517798 -0.0861561 0.171539 0.102114 -0.132646 0.145803 0.0608937 -0.0405108 -0.0122643 0.0550946 -0.0593396 -0.0620869 0.13767 -0.174828 -0.0186356 0.0454743 -0.213501 -0.14288
1042 -0.0243472 0.116934 -0.0508037 -0.0313125 0.00248296 0.227473 0.0574742 -0.174527 0.238812 0.139922 -0.179292 0.185397 0.10535 -0.0826588 -0.0084068 0.0745678 -0.0780636 -0.0802617 0.177977 -0.236201 -0.00847926 0.0535712 -0.257196 -0.175848
660 -0.00396377 0.147981 -0.115546 -0.0485658 0.017568 0.370909 0.0588852 -0.253859 0.368669 0.215613 -0.233578 0.290511 0.157883 -0.125812 0.0376512 0.100145 -0.161757 -0.114199 0.255756 -0.364302 -0.0113964 0.069742 -0.448288 -0.294443
1897 -0.0229172 0.075403 -0.0435024 -0.0166048 0.012324 0.121977 0.0197168 -0.0715418 0.144823 0.090566 -0.0768977 0.0889601 0.0671457 -0.035096 -0.0105638 0.0507471 -0.0397856 -0.0434141 0.0792632 -0.143405 0.00280855 0.0343762 -0.156556 -0.101318
746 -0.0141655 0.246871 -0.171555 -0.0653911 0.0363408 0.580651 0.0988984 -0.366526 0.593413 0.350426 -0.393728 0.506886 0.218716 -0.199491 0.0423456 0.200305 -0.215326 -0.165833 0.424597 -0.555718 -0.0295948 0.130263 -0.686368 -0.45356
4261 0.0114398 0.0280731 -0.020354 -0.0121594 0.0057093 0.101838 0.0329633 -0.070727 0.112911 0.0526256 -0.0534336 0.0827721 0.0337256 -0.0455803 0.00854395 0.0245185 -0.0415125 -0.0469656 0.0771111 -0.0911996 -0.0188494 0.00698589 -0.0985156 -0.065849
771 -0.0322689 0.225483 -0.167194 -0.054101 0.0542701 0.51841 0.0843457 -0.326733 0.552975 0.297642 -0.388016 0.441441 0.173238 -0.162974 0.0371496 0.188781 -0.208313 -0.176163 0.391835 -0.492851 -0.0277866 0.121876 -0.623597 -0.382403
1588 -0.0160578 0.0246868 -0.0169464 0.00604514 0.0116274 0.124574 0.0259366 -0.0705713 0.095213 0.0406606 -0.0829383 0.103984 0.00908257 -0.0422626 0.0163667 0.0383474 -0.061274 -0.0197826 0.0668318 -0.0937448 -0.0226168 0.0200628 -0.136464 -0.0811348
871 -0.00920407 0.0862907 -0.0668853 -0.0312728 -0.00484047 0.228811 0.038363 -0.151385 0.235612 0.116304 -0.169619 0.169722 0.0771256 -0.0641371 -0.00631583 0.0852618 -0.0834775 -0.0629792 0.182092 -0.200412 -0.0266658 0.0588522 -0.253936 -0.162665
2564 0.0137673 0.131277 -0.064473 -0.049643 0.0125517 0.272028 0.0626374 -0.19184 0.306718 0.167757 -0.182515 0.226095 0.11297 -0.100123 -0.00465452 0.106564 -0.121945 -0.0855856 0.193714 -0.251991 -0.0282744 0.0596808 -0.347934 -0.20468
1200 -0.00868244 0.126851 -0.0735152 -0.0220833 0.0273708 0.304682 0.0607494 -0.191264 0.29419 0.154694 -0.198047 0.251898 0.0783888 -0.102804 0.0298352 0.0999641 -0.1047 -0.095643 0.228726 -0.292802 -0.0232993 0.0404624 -0.328195 -0.211761
4191 -0.00693987 0.0526754 -0.0170506 -0.0146155 -0.0126029 0.119732 0.0300056 -0.0569437 0.142312 0.0516602 -0.09494 0.0858391 0.0343123 -0.0455909 0.00908227 0.0490653 -0.0358917 -0.05848 0.0752589 -0.125718 0.00643729 0.0094018 -0.142142 -0.110522
697 -0.0119011 0.263826 -0.156663 -0.0868748 0.0467911 0.590958 0.13406 -0.399991 0.611131 0.34796 -0.42851 0.491164 0.202136 -0.198221 0.0319051 0.184116 -0.250404 -0.193184 0.452869 -0.543772 -0.0269301 0.126967 -0.689028 -0.436868
1146 -0.00652933 0.0807022 -0.0451595 -0.0297001 0.0177163 0.239703 0.0255848 -0.159593 0.206821 0.111733 -0.162516 0.186131 0.0893395 -0.0644233 0.0198429 0.0688237 -0.0772982 -0.0678206 0.17815 -0.203273 0.00434559 0.0608057 -0.257616 -0.163579
1896 -0.00217239 0.0474973 -0.0322212 -0.0131869 -0.0191394 0.129854 0.0203267 -0.0579373 0.113463 0.0748252 -0.0527489 0.101641 0.0286771 -0.030023 0.00998952 0.0287118 -0.0408661 -0.0414854 0.0932785 -0.0961272 0.00895136 0.0253418 -0.144195 -0.0782151
1683 -0.0144465 0.0542545 -0.0405642 -0.030023 0.0163645 0.147972 0.0298466 -0.0955802 0.144606 0.0930694 -0.0840253 0.123815 0.0531453 -0.0557216 -0.0127213 0.039966 -0.0521942 -0.0446497 0.102654 -0.162609 0.00992242 0.0387999 -0.181288 -0.139073
1887 0.00473919 0.0705111 -0.0141849 -0.0158584 -0.00255705 0.125313 0.0259394 -0.105756 0.148295 0.0888419 -0.0856736 0.101486 0.0535532 -0.0476951 0.0265086 0.0540246 -0.0403606 -0.0271117 0.0898042 -0.115866 -0.0204358 0.017251 -0.141852 -0.094245
4069 -0.00884306 0.0282628 -0.0106059 0.0047629 0.00912455 0.0622061 0.0267198 -0.0457287 0.051885 0.043828 -0.0553087 0.0449464 0.00689116 -0.00990822 -0.00531519 0.0184054 -0.0399272 -0.0370084 0.0604369 -0.0706958 0.00567434 0.0298814 -0.0684155 -0.0433943
290 -0.0219117 0.115445 -0.0529115 -0.0403662 0.00656804 0.241292 0.0712692 -0.163737 0.243936 0.147849 -0.150536 0.219818 0.0813049 -0.0956081 -0.0030164 0.0641377 -0.0894814 -0.0876454 0.191524 -0.228165 0.00801656 0.0339249 -0.273781 -0.176042
215 0.00884723 0.0332348 -0.0467975 -0.00110083 0.010448 0.130133 0.0220098 -0.0661324 0.117314 0.0711715 -0.0985193 0.0827991 0.0428964 -0.0269382 -0.00460826 0.0428426 -0.0578488 -0.0230174 0.0690533 -0.118929 -0.013524 0.0205824 -0.150226 -0.0972784
239 -0.00699946 0.115948 -0.0691859 -0.0185139 0.0153528 0.24698 0.0290605 -0.139342 0.237546 0.1446 -0.160573 0.186782 0.073268 -0.0740462 0.0164827 0.0583431 -0.081432 -0.0774433 0.160782 -0.214241 -0.00114857 0.039482 -0.253976 -0.178602
39 0.000934194 0.151484 -0.0759038 -0.0555309 -0.0153351 0.329147 0.0554152 -0.204121 0.343653 0.175838 -0.206207 0.265009 0.108719 -0.139984 0.00194683 0.0965882 -0.102322 -0.117706 0.218581 -0.309527 -0.00918078 0.057555 -0.381979 -0.253825
1611 0.0149203 0.0529284 -0.0353345 -0.0338578 -0.0108303 0.0992991 0.0181432 -0.0718674 0.100451 0.0432261 -0.0898605 0.0832077 0.030078 -0.0252731 0.0140815 0.0156449 -0.059226 -0.0154306 0.097267 -0.101438 -0.00411651 0.012776 -0.111865 -0.0961579
1752 0.013154 0.0978423 -0.0537286 -0.0613946 0.0201261 0.246849 0.0589516 -0.179368 0.275627 0.13551 -0.166004 0.194288 0.0950078 -0.0801864 0.0212094 0.0638925 -0.090851 -0.0653879 0.18723 -0.248602 -1.34136e-05 0.0471068 -0.296832 -0.206476
2302 -0.0101829 0.143802 -0.0713202 -0.0288477 0.0227713 0.318386 0.0411563 -0.186614 0.322434 0.163734 -0.217699 0.252594 0.103399 -0.105662 0.0300086 0.0931929 -0.119329 -0.102112 0.217196 -0.302604 -0.0144203 0.0446159 -0.348621 -0.24619
5524 0.000642102 0.0562404 -0.0247488 -0.0275395 0.00396388 0.103543 0.0206614 -0.0662779 0.120278 0.0869206 -0.0764422 0.104775 0.0467756 -0.0511381 -0.00622102 0.0439914 -0.0528613 -0.0565147 0.0997903 -0.125435 -0.0155547 0.0285867 -0.140497 -0.087602
719 -0.00595084 0.159354 -0.0886947 -0.0490911 -0.00440516 0.366482 0.0844999 -0.223891 0.37937 0.182991 -0.232973 0.298034 0.124186 -0.123986 -0.00511616 0.0980191 -0.127724 -0.0906548 0.267078 -0.325862 -0.010769 0.0899699 -0.42669 -0.251435
881 -0.00522355 0.0503876 -0.0213909 -0.0288184 0.0308522 0.112828 0.0395135 -0.0870824 0.107731 0.0648856 -0.069728 0.0992086 0.0571425 -0.0424705 0.0164126 0.0185692 -0.0389465 -0.0402245 0.0956265 -0.105315 0.00574561 0.0355389 -0.142336 -0.0696491
1192 0.00169216 0.0189447 -0.0358035 0.0119597 -0.00249469 0.0796552 -0.00214343 -0.070135 0.0860977 0.0471607 -0.054303 0.0500894 0.0191569 -0.0137925 0.00341865 0.031401 -0.0191346 -0.00490871 0.057539 -0.07465 -2.47237e-05 -0.00230915 -0.104741 -0.045955
5096 0.00342487 0.0420413 -0.00328388 -0.00977647 0.0111255 0.0690041 0.0203674 -0.0584896 0.0813258 0.0216354 -0.0673752 0.0610589 0.0446416 -0.0181884 0.0198686 0.00558723 -0.0409474 -0.00967635 0.0556982 -0.0550585 -0.0189443 0.0182202 -0.0967375 -0.070072
4306 -0.00314331 0.049039 -0.00899801 -0.014796 0.0152066 0.0970044 0.0168625 -0.0543676 0.0807427 0.044262 -0.0478906 0.0824307 0.0289896 -0.0451775 -0.00580497 0.0337066 -0.0334207 -0.0401136 0.0736363 -0.0888265 -0.0145448 0.0359471 -0.0869358 -0.0533031
1790 -0.0343754 0.163766 -0.0850555 -0.0189674 0.0517547 0.365344 0.0719041 -0.230091 0.363489 0.225824 -0.278212 0.305935 0.134703 -0.122866 0.00663007 0.126261 -0.126671 -0.102247 0.258603 -0.357062 -0.0267209 0.0953745 -0.439836 -0.272384
5822 0.0111527 0.0287596 -0.00266364 -0.0210587 -0.00483296 0.0752217 0.0278222 -0.0455153 0.076884 0.0314648 -0.0214263 0.0338017 0.0153183 -0.00313318 0.020435 0.0268252 -0.0185313 -0.0237566 0.0607008 -0.0438509 -0.0161198 0.0169211 -0.0736655 -0.0491575
344 -0.0128394 0.0848171 -0.0654751 -0.0442764 0.00701061 0.231442 0.0239554 -0.152899 0.211199 0.121201 -0.172568 0.184032 0.0864538 -0.0904634 0.0323378 0.062824 -0.0876555 -0.0708968 0.166295 -0.19225 -0.0206605 0.0633569 -0.236794 -0.164573
2472 -0.0122597 0.0235795 -0.0445671 -0.0135365 0.00407086 0.0863607 0.0207423 -0.0669919 0.0846501 0.0472466 -0.0650833 0.0761821 0.0321424 -0.0313278 0.00208291 0.0402744 -0.0431805 -0.0486522 0.0764129 -0.0842148 0.00598643 0.0335137 -0.115906 -0.0556514
790 -0.0247257 0.141853 -0.0769037 -0.0535704 0.0105777 0.331697 0.0640785 -0.211709 0.333691 0.196195 -0.248115 0.265167 0.127184 -0.110318 0.0247925 0.129747 -0.133424 -0.116497 0.26995 -0.306415 -0.00554119 0.0847288 -0.416037 -0.275162
1377 -0.0175164 0.190279 -0.113035 -0.0599993 -0.0137108 0.445678 0.0809606 -0.278412 0.487787 0.264613 -0.320233 0.365713 0.188533 -0.170294 0.0202189 0.128851 -0.180732 -0.160803 0.356946 -0.410761 -0.0126151 0.0992807 -0.538307 -0.326728
2331 -0.0152384 0.0335247 -0.0430566 -0.0148137 0.00287503 0.111711 0.0248719 -0.0765032 0.106275 0.06584 -0.0983448 0.114868 0.0307147 -0.0550424 -0.0123105 0.0308626 -0.0387187 -0.0373132 0.10761 -0.113762 -0.0136976 0.00848758 -0.132314 -0.103217
2341 -0.0468772 0.115408 -0.0797521 -0.0439491 0.0448516 0.325136 0.0420312 -0.194127 0.317414 0.198059 -0.2226 0.249082 0.103251 -0.118364 0.00654314 0.112873 -0.117844 -0.0915365 0.240227 -0.316004 -0.00156046 0.080067 -0.36976 -0.254932
2343 0.0193139 0.0682058 -0.056435 -0.0426627 0.0140146 0.228549 0.0608049 -0.115666 0.223662 0.102278 -0.121178 0.163763 0.0813228 -0.0679867 0.00012105 0.0478968 -0.0632505 -0.0813656 0.150594 -0.207613 0.015904 0.0489301 -0.263093 -0.183189
339 0.00968291 0.0435217 -0.00728162 -0.0110763 0.0143071 0.109965 0.0253376 -0.0492456 0.119143 0.0521959 -0.0586027 0.0767272 0.0363948 -0.0469695 -0.00536495 0.0132706 -0.0526437 -0.0227959 0.0719484 -0.0902189 -0.00866404 0.000667793 -0.131314 -0.0775681
52 0.0186696 0.0427376 -0.0325258 -0.000732921 -0.0167657 0.0981457 0.00962756 -0.0440123 0.105969 0.0701301 -0.0819117 0.0714027 0.0461021 -0.0583452 -0.00282967 0.0269225 -0.0374997 -0.0383878 0.0806135 -0.0812204 0.0124931 0.0224561 -0.136157 -0.0796326
85 -0.00135435 0.0892306 -0.0455329 -0.0454325 0.0220275 0.255261 0.0605268 -0.140747 0.27016 0.151926 -0.18224 0.219906 0.10787 -0.113035 0.000439728 0.0602312 -0.113883 -0.076139 0.171939 -0.246022 -0.0187477 0.071756 -0.292907 -0.182839
5110 -0.00195004 0.0452351 -0.0348708 -0.0287264 0.0193418 0.05521 0.0322073 -0.0568334 0.0694331 0.0443593 -0.028153 0.0692893 0.0279505 -0.0199358 -0.00174762 0.0223363 -0.012772 -0.0355237 0.0625776 -0.0548099 -0.0145027 0.0232262 -0.0830901 -0.0526432
520 -0.0101548 0.11532 -0.0709953 -0.0140295 0.0220857 0.271907 0.0576285 -0.146958 0.275866 0.151973 -0.186451 0.203686 0.0739986 -0.0802492 0.0231254 0.0866958 -0.086447 -0.0644139 0.203757 -0.22239 -0.0010106 0.0691859 -0.293175 -0.169159
2713 0.0226604 0.0182074 -0.0275368 -0.00968532 0.0124133 0.051898 0.0310894 -0.0284815 0.0646764 0.051538 -0.0453622 0.0645275 0.00727192 -0.0325955 0.0187676 0.0246291 -0.0142168 0.00152675 0.0540891 -0.0728244 0.00132944 0.00331133 -0.0470181 -0.0548678
1786 -0.00946571 0.140467 -0.0900123 -0.00632458 0.0209346 0.295057 0.0455839 -0.185195 0.277781 0.163825 -0.190095 0.239953 0.106549 -0.0890058 0.00934305 0.102599 -0.117964 -0.0772876 0.195201 -0.282745 0.00565106 0.0590215 -0.347285 -0.221308
1846 0.0038638 0.0379098 -0.00803363 -0.0123974 -0.00758938 0.0889292 0.0245836 -0.0474091 0.0848931 0.0449351 -0.0486968 0.084257 0.0458775 -0.0295227 -0.00445028 0.0164661 -0.0327353 -0.0109301 0.0853134 -0.0977899 -0.00149714 0.0199294 -0.111759 -0.0811688
2333 -0.00383144 0.0286552 -0.0129725 -0.00820428 -0.00326795 0.0774745 0.0235708 -0.0237968 0.0551722 0.02636 -0.0467698 0.053853 0.00163694 -0.00508456 -0.0169065 0.0163973 -0.0186733 -0.0333001 0.0291479 -0.0656195 -0.00115977 0.0134717 -0.0595241 -0.054868
2353 -0.00239547 0.123807 -0.0916856 -0.032892 -0.015834 0.313522 0.0802322 -0.208607 0.326192 0.155595 -0.207261 0.256129 0.116886 -0.128013 -0.00825489 0.0871993 -0.0977925 -0.075237 0.203361 -0.264294 -0.0227786 0.0712974 -0.324771 -0.225369
4325 0.0182777 0.0114519 -0.00680409 -0.00497463 0.0158826 0.0671138 -0.00694579 -0.0367074 0.0805209 0.0180633 -0.0297946 0.0421455 0.0208414 -0.0116219 0.017561 0.0341485 -0.00985681 -0.00888515 0.0323838 -0.04682 0.0031814 0.00160904 -0.0635959 -0.0350874
492 -0.013896 0.0602077 -0.0476517 -0.00138757 -0.00264707 0.113051 0.0120272 -0.0784383 0.129245 0.0611679 -0.0916776 0.104603 0.0443363 -0.054374 0.0117949 0.0468694 -0.0355416 -0.0275465 0.075693 -0.0998343 0.00966508 0.0367395 -0.139428 -0.0976455
279 -0.0356919 0.221978 -0.132237 -0.0687352 0.0442782 0.51239 0.115191 -0.335565 0.533232 0.289317 -0.357271 0.430235 0.174669 -0.184707 0.0419062 0.147502 -0.20793 -0.15566 0.385437 -0.479004 -0.0321457 0.0800972 -0.585047 -0.381242
5808 0.0189335 0.0159272 -0.0196975 0.00289243 0.00472602 0.0462514 -0.000740856 -0.0379985 0.0636929 0.0333706 -0.0419789 0.0590513 0.0423184 -0.0250561 -0.011179 0.0266648 -0.00791213 -0.0141738 0.0270926 -0.0490733 0.0083327 0.00159971 -0.0743701 -0.0226033
309 -0.0295369 0.247633 -0.177119 -0.075994 0.0585205 0.621827 0.129889 -0.378042 0.621528 0.333753 -0.397571 0.496705 0.202024 -0.215444 0.0378747 0.191464 -0.244866 -0.167485 0.434885 -0.576471 -0.0413839 0.123677 -0.723198 -0.443109
981 -0.0169452 0.0909582 -0.0522901 -0.0534449 0.0138118 0.227538 0.0522129 -0.169124 0.258607 0.14141 -0.153783 0.211978 0.108628 -0.0851181 0.0130598 0.0606013 -0.0756937 -0.0807236 0.197528 -0.234548 -0.00566935 0.0372253 -0.270534 -0.173982
891 -0.0268934 0.244159 -0.157718 -0.0799933 0.0139022 0.582795 0.0887875 -0.350746 0.571786 0.304043 -0.381897 0.454218 0.199055 -0.188894 0.0195755 0.189029 -0.212153 -0.172972 0.424867 -0.516057 -0.0356129 0.103113 -0.659534 -0.419271
2892 0.0132308 0.0355705 -0.01924 -0.00731383 0.0139276 0.0358836 0.0178458 -0.0239408 0.0536386 0.0508027 -0.0440048 0.0518222 0.00335097 -0.0177892 -0.00523092 0.00723829 -0.00461704 -0.0342423 0.0565147 -0.0383313 -0.0184755 -0.00254078 -0.056796 -0.0256099
503 -0.02307 0.276031 -0.207481 -0.107637 0.049028 0.683658 0.107315 -0.42164 0.688568 0.393371 -0.474618 0.5678 0.223747 -0.252139 0.0255471 0.2063 -0.27438 -0.193729 0.523099 -0.668027 -0.0194501 0.125677 -0.80143 -0.502737
414 -0.0240829 0.135735 -0.112676 -0.0650379 0.0176136 0.365226 0.0641355 -0.222953 0.353129 0.213108 -0.240216 0.283786 0.133988 -0.133596 0.0259033 0.0888444 -0.152102 -0.0968069 0.266304 -0.315971 -0.00700048 0.0786029 -0.401458 -0.266402
2151 -0.00304539 0.164026 -0.0865299 -0.0195313 0.0425797 0.34913 0.0684223 -0.23682 0.362068 0.18498 -0.246529 0.30518 0.140681 -0.122529 0.0326651 0.124004 -0.123051 -0.110376 0.275734 -0.345247 -0.00382635 0.0805524 -0.405457 -0.280063
1432 -0.00672962 0.0595142 -0.0343423 -0.0249536 0.0135604 0.202804 0.0187376 -0.133969 0.186432 0.101363 -0.121901 0.157434 0.0673653 -0.0761064 0.0224994 0.065627 -0.05992 -0.0614595 0.147367 -0.189596 0.00167208 0.0308786 -0.199261 -0.160445
2541 0.00508485 0.0470145 -0.0487688 -0.0102097 0.0305073 0.085704 0.017379 -0.0622717 0.10102 0.0377859 -0.0737396 0.100417 0.0151757 -0.0472908 0.00589923 0.0203037 -0.0233847 -0.0467125 0.0774709 -0.101596 -0.0181839 0.00511747 -0.120299 -0.0545678
619 0.0331674 0.0277134 -0.011369 -0.0238287 -0.0327548 0.0598195 0.0204066 -0.0413452 0.053423 0.0504772 -0.03566 0.0549868 0.0293405 -0.0543417 0.0152065 0.00629135 -0.0081848 -0.0279471 0.0438586 -0.0731326 -0.00303467 0.0269108 -0.048344 -0.0473839
261 0.18956 0.0907222 0.00539945 -0.225423 -0.172978 0.273997 0.121314 -0.188177 0.35018 0.182736 -0.0882819 0.19711 0.232769 -0.22684 -0.000140405 0.0257084 -0.0815756 -0.130261 0.236233 -0.261244 0.0148233 0.0402867 -0.276473 -0.258381
5235 -0.0211703 0.0229025 -0.0314803 0.0130519 0.0206477 0.0659782 0.0123064 -0.0349144 0.0558696 0.00630412 -0.0181864 0.0473391 0.030727 -0.0114547 -0.0143465 0.0163195 -0.00917916 0.00383756 0.0335361 -0.0279231 0.0103915 0.00150355 -0.0421984 -0.0513573
571 -0.00810658 0.124953 -0.110192 -0.0161766 0.01878 0.342133 0.0655475 -0.219281 0.343753 0.211533 -0.245351 0.299775 0.0906923 -0.10375 0.0273581 0.0955483 -0.114425 -0.11144 0.231954 -0.315641 -0.0286189 0.0609815 -0.414248 -0.236185
312 -0.0353731 0.201182 -0.143216 -0.0833657 0.0359662 0.500352 0.0977862 -0.309527 0.509052 0.263828 -0.337464 0.422761 0.170619 -0.175474 0.0408586 0.166966 -0.211973 -0.163731 0.352767 -0.453066 -0.0256441 0.0976248 -0.574524 -0.365179
4671 0.0215159 0.00853981 -0.00113248 -0.0162814 -0.0129586 0.0425697 0.0148405 -0.0252178 0.0523606 0.018643 -0.0196729 0.0298559 0.031604 -0.0409586 0.0111371 0.0310528 -0.00859576 -0.000899452 0.056442 -0.031709 -0.0185249 0.00526514 -0.0741548 -0.0488433
151 -0.00484834 0.0928035 -0.026611 -0.0558839 -0.017725 0.190776 0.0371044 -0.126155 0.213061 0.0918158 -0.11251 0.166641 0.098234 -0.0587219 0.0169417 0.074628 -0.0518002 -0.0493878 0.152961 -0.160093 0.00680207 0.0158242 -0.227402 -0.159535
5883 -0.0169542 0.0304294 -0.0346558 0.00252913 -0.0147274 0.0461237 0.0149705 -0.0279713 0.0646274 0.014441 -0.0447821 0.0291805 0.029855 -0.0362738 -0.0127705 0.0155574 -0.0310431 -0.0195169 0.0617721 -0.0533709 -0.00949685 -0.00157846 -0.0583972 -0.0381743
494 -0.0167461 0.16328 -0.111301 -0.037881 0.006915 0.355483 0.0850748 -0.215556 0.365659 0.213206 -0.254336 0.295484 0.104908 -0.139759 0.0214293 0.127725 -0.147994 -0.108319 0.259253 -0.34203 -0.0166619 0.0774327 -0.392893 -0.25497
2003 -0.00763052 0.0471152 -0.00298474 0.00240396 0.0198055 0.100569 0.0295429 -0.0384317 0.103948 0.0642861 -0.0676327 0.0817797 0.0394589 -0.0134863 -0.00394668 0.0283202 -0.028566 -0.0155808 0.0783802 -0.0955158 0.0150761 0.0192208 -0.107353 -0.077682
579 -0.0346802 0.296506 -0.201163 -0.0980235 0.0520679 0.670287 0.110659 -0.452202 0.688173 0.379787 -0.477272 0.551514 0.209486 -0.258266 0.034279 0.204512 -0.255424 -0.187917 0.480391 -0.623918 -0.0343666 0.125173 -0.796406 -0.490843
1941 0.00856819 0.0577461 -0.0273394 -0.0190911 0.00969692 0.148733 0.00995655 -0.104932 0.151239 0.0758327 -0.0783081 0.127517 0.070651 -0.047726 0.0271169 0.0590229 -0.0525162 -0.0382571 0.0855026 -0.120158 -0.00490782 0.0198344 -0.166695 -0.111039
982 -0.00705436 0.193192 -0.1101 -0.0806387 0.0115136 0.426829 0.101233 -0.253568 0.452871 0.231847 -0.305749 0.339926 0.166073 -0.166915 0.0377774 0.119997 -0.1831 -0.152262 0.31491 -0.3836 -0.0187194 0.0911386 -0.480833 -0.305761
777 0.00688351 0.0335845 -0.0181261 0.0125873 0.0148704 0.0745165 -0.00929506 -0.0542659 0.0470213 0.0529438 -0.0240173 0.035163 0.0315409 -0.039872 0.00184549 0.0138902 -0.0414651 -0.00821484 0.0525704 -0.0446822 -0.0189976 0.00558993 -0.0819867 -0.0562361
4214 -0.00487291 0.099498 -0.0817699 -0.0675613 -0.00367034 0.246498 0.0663689 -0.16539 0.272766 0.127532 -0.152156 0.197169 0.093431 -0.109139 -0.00254616 0.0599553 -0.0816904 -0.0879041 0.193698 -0.241729 -0.0124135 0.0418017 -0.300122 -0.183439
4239 0.0177682 0.0863618 -0.0355492 -0.0190311 0.014394 0.166873 0.0244724 -0.120445 0.18577 0.112503 -0.113544 0.16235 0.0711682 -0.0589155 0.0251008 0.0583965 -0.0884148 -0.048168 0.134598 -0.156242 0.00851066 0.0564077 -0.202721 -0.122741
4217 -0.0145875 0.109913 -0.0732911 -0.0461995 0.0111268 0.231661 0.0450461 -0.152365 0.243295 0.138492 -0.165661 0.185603 0.0773522 -0.0894641 0.0234326 0.0658031 -0.091141 -0.0913797 0.181779 -0.224381 -0.0161796 0.0612332 -0.267615 -0.166441
30 -0.00751253 0.0626173 -0.0432388 -0.0322049 -0.00176924 0.196435 0.0373838 -0.116146 0.202571 0.114795 -0.121843 0.131597 0.0561441 -0.0742962 0.0198262 0.0515424 -0.0748097 -0.0593924 0.122434 -0.173744 0.0123262 0.0297646 -0.207205 -0.1514
125 0.00756644 0.0753293 -0.0348832 -0.0397986 -0.0239397 0.211199 0.0556045 -0.1224 0.226534 0.14258 -0.151218 0.161367 0.113624 -0.0923477 0.0187435 0.0452778 -0.0662357 -0.0872583 0.150443 -0.197623 0.0021995 0.0565104 -0.256139 -0.147598
3181 0.0140513 0.0294786 -0.0151525 -0.0125878 -0.00941251 0.0962361 0.0215368 -0.0577121 0.119123 0.0461998 -0.0581128 0.0698876 0.0323626 -0.0194699 0.00437829 0.0377731 -0.0465686 -0.0365311 0.0641518 -0.0930661 0.00526419 -0.000257014 -0.123478 -0.0820482
3180 0.00259272 0.100382 -0.0687341 -0.00690002 0.0236145 0.181455 0.0565658 -0.113434 0.204508 0.110532 -0.125124 0.144617 0.0464559 -0.0476428 0.0162893 0.0537038 -0.0850031 -0.0625797 0.164579 -0.20349 -0.0228975 0.0218127 -0.215695 -0.166418
4004 0.0043381 0.0550906 -0.0288776 -0.0280576 0.0152136 0.0662713 0.035443 -0.0608246 0.0939856 0.0360068 -0.0509117 0.0582261 0.0397205 -0.0328719 0.0118194 0.0224681 -0.0399505 -0.0072586 0.0529198 -0.0965501 0.00710519 0.0369687 -0.105298 -0.0481581
1472 -0.0192962 0.083355 -0.0623144 -0.0218958 0.0210147 0.230161 0.0389019 -0.159421 0.255938 0.142462 -0.17139 0.179157 0.0787067 -0.0882326 0.00563114 0.0720104 -0.0908568 -0.0699568 0.171253 -0.226966 0.00697577 0.032158 -0.28376 -0.191531
1391 -0.00402919 0.0451356 -0.0422828 -0.0295297 0.0001704 0.133392 0.0393116 -0.0969362 0.128547 0.0525713 -0.0681274 0.102843 0.0579435 -0.0589324 0.0249244 0.0444492 -0.0580591 -0.0325636 0.0925816 -0.0953346 -0.00619715 0.0306681 -0.117434 -0.099921
1390 -0.0238157 0.0828992 -0.054441 -0.0219927 0.0163409 0.196418 0.0611415 -0.151621 0.229102 0.108255 -0.152077 0.160339 0.0617673 -0.0914871 -0.00357655 0.0720227 -0.0736015 -0.0702456 0.143983 -0.195405 -0.0150941 0.0484234 -0.268353 -0.145237
2522 -0.00917088 0.022324 -0.0260955 0.00870956 0.021363 0.0547494 0.0244891 -0.0286628 0.0490341 0.0336161 -0.0468097 0.0455782 0.0192094 -0.036594 0.00840245 0.0273574 -0.0235753 -0.0151269 0.0462313 -0.0693771 0.0132253 0.0254179 -0.0604169 -0.0296539
298 -0.0404313 0.208525 -0.133189 -0.0380928 0.0563607 0.524321 0.109815 -0.30849 0.510393 0.29076 -0.362782 0.440902 0.176015 -0.152322 0.00943002 0.14717 -0.202668 -0.165971 0.389876 -0.480679 -0.036098 0.0923445 -0.60598 -0.372388
2819 -0.00353708 0.0292798 -0.0449489 -0.0141092 0.012088 0.10261 0.021114 -0.0756397 0.096908 0.0686739 -0.0589338 0.0853391 0.0380002 -0.0428465 0.0154459 0.0273548 -0.0287628 -0.0509561 0.0948873 -0.121673 0.00176397 0.0409539 -0.136771 -0.0889598
2818 0.0159956 0.0417053 -0.018215 -0.0341668 -0.0194413 0.15828 0.0485621 -0.089503 0.137145 0.0954846 -0.0988864 0.133603 0.0490782 -0.062289 0.00285563 0.0457283 -0.0634709 -0.0440279 0.113147 -0.139619 -0.00232767 0.0486957 -0.156102 -0.0868913
6253 -0.0198193 0.0243739 0.00392385 -0.0291682 -0.00313439 0.0507255 0.0189221 -0.0311906 0.0813941 0.0411186 -0.0319688 0.0552563 0.00868327 -0.0391138 0.00365555 0.0377025 -0.0268819 -0.0405605 0.0445055 -0.0536592 -0.0150163 0.00316758 -0.0590989 -0.0389225
5152 0.00142284 0.0938771 -0.0626178 -0.0464889 0.0252125 0.169831 0.0572528 -0.104682 0.171371 0.0861112 -0.129341 0.145224 0.0574451 -0.0782218 0.00883152 0.0761012 -0.078957 -0.0443497 0.128739 -0.1927 -0.00553565 0.0451829 -0.230962 -0.116426
2832 -0.0122715 0.0891849 -0.0417699 -0.0143555 0.0218823 0.185914 0.032743 -0.11454 0.185713 0.113105 -0.134531 0.165277 0.0814248 -0.0772674 -0.00846907 0.0793383 -0.0791562 -0.0669318 0.136645 -0.198422 -0.0131278 0.028855 -0.233094 -0.134543
4229 -0.0160512 0.0464184 -0.031076 -0.0210747 0.0156928 0.167365 0.0342926 -0.0971623 0.167158 0.100132 -0.11304 0.123283 0.0854879 -0.0475514 0.00643195 0.0609067 -0.0595082 -0.0509728 0.112986 -0.169882 -0.0168622 0.016077 -0.1666 -0.132455
700 -0.0111576 0.184156 -0.107446 -0.0643965 0.0201527 0.416968 0.0868917 -0.285537 0.462207 0.24469 -0.310388 0.345737 0.15124 -0.166604 0.025289 0.130567 -0.173633 -0.143535 0.310982 -0.416514 -0.027661 0.0933491 -0.518999 -0.30513
1689 0.0171846 0.0439364 -0.0256816 -0.00158867 -0.00968619 0.116755 0.0119644 -0.0848107 0.106297 0.0721601 -0.0618168 0.111514 0.0586954 -0.0319609 0.0187821 0.0295974 -0.058584 -0.0289546 0.105726 -0.108923 -0.00814663 0.0155697 -0.157507 -0.106647
1247 -0.00565913 0.081966 -0.0576069 -0.013867 0.0422256 0.203384 0.0268912 -0.135023 0.223832 0.108333 -0.139134 0.192304 0.0604469 -0.0789569 0.0127783 0.0691321 -0.102508 -0.0717505 0.138032 -0.187224 -0.0152546 0.0428089 -0.231104 -0.159024
1203 -0.0198148 0.112314 -0.0840648 -0.0162099 0.0315249 0.2572 0.0497111 -0.140539 0.242647 0.123837 -0.174404 0.211262 0.0786946 -0.0981629 0.00530409 0.095891 -0.0871128 -0.08275 0.173405 -0.221436 -0.0214062 0.0598127 -0.263189 -0.172742
969 -0.0146669 0.121653 -0.0624843 -0.0677928 -0.00680904 0.26052 0.0488959 -0.174402 0.300637 0.164256 -0.188772 0.240272 0.115362 -0.119196 0.000493136 0.0755883 -0.117137 -0.098062 0.189344 -0.258978 -0.0165711 0.0777283 -0.336065 -0.225544
2851 0.000107673 0.0224105 -0.0141473 -0.00685121 0.00861023 0.117451 0.000291845 -0.0603776 0.0804157 0.0567355 -0.0493035 0.0907368 0.0355762 -0.0337321 1.91193e-06 0.0378151 -0.0543503 -0.0437504 0.0540721 -0.102511 -0.00750188 0.0136228 -0.131597 -0.058551
682 -0.0266921 0.133976 -0.103183 -0.0288854 0.0362274 0.336827 0.0802208 -0.206008 0.330783 0.163336 -0.217061 0.263998 0.120304 -0.102085 0.00475874 0.107172 -0.141724 -0.0950649 0.233775 -0.283226 -0.0253778 0.0704737 -0.364097 -0.230899
1157 -0.0132203 0.154581 -0.063031 -0.0432258 0.00140898 0.350859 0.0728453 -0.196012 0.340206 0.211133 -0.226954 0.249996 0.138465 -0.118107 0.0188553 0.105225 -0.12623 -0.0939515 0.256359 -0.292028 0.00396622 0.0555641 -0.362836 -0.255702
6555 -0.0180344 0.0100003 -0.0138925 -0.00885403 0.030883 0.051135 -0.00506307 -0.0236591 0.0330468 0.022812 -0.0557293 0.0339982 0.013223 -0.0181235 -0.0138874 0.0265966 -0.0396366 0.00620602 0.0182687 -0.0552086 -0.00277539 -0.000590576 -0.0519385 -0.027156
2473 0.00900251 0.00874339 -0.018674 -0.00896212 0.0179833 0.0746796 0.0113911 -0.0322426 0.0518355 0.0608599 -0.0467682 0.0394049 0.0078113 -0.0197967 -0.0041371 0.00738441 -0.0205872 -0.0148484 0.0525346 -0.0868988 -0.0122319 0.0031708 -0.0879976 -0.059323
667 -0.0412614 0.225299 -0.154314 -0.0525042 0.0540717 0.555113 0.0971606 -0.360688 0.592702 0.310826 -0.412296 0.459957 0.202499 -0.203182 0.0179355 0.169833 -0.241427 -0.192322 0.421318 -0.548462 -0.0396875 0.105784 -0.666822 -0.440902
763 0.00387846 0.0718227 -0.0516601 -0.00692657 0.0121417 0.133168 0.0207224 -0.109981 0.13707 0.0657772 -0.103805 0.127721 0.0553534 -0.067727 -0.00104271 0.0383627 -0.0592292 -0.0243549 0.109232 -0.134534 0.0150588 0.0384341 -0.148286 -0.115068
5015 0.00498718 0.0227671 -0.0127701 -0.0193545 0.0203916 0.0420913 -0.0118988 -0.0383903 0.0729753 0.0282146 -0.0398004 0.0411909 0.0115815 -0.0362659 -0.0107158 0.0382762 -0.0128765 -0.000944237 0.0447652 -0.0350772 -0.012192 0.0163513 -0.063462 -0.0527231
562 -0.00347755 0.102726 -0.0722424 -0.0320175 0.00405686 0.288956 0.0591111 -0.195052 0.301961 0.159796 -0.198064 0.239816 0.0963409 -0.0948247 0.00319453 0.0980658 -0.124948 -0.0692791 0.219748 -0.278175 0.00938291 0.0412308 -0.321688 -0.196489
564 -0.00813048 0.171649 -0.112709 -0.0422042 -0.00728082 0.439452 0.0766704 -0.274963 0.445117 0.220796 -0.278546 0.332498 0.148542 -0.173654 0.0106895 0.145733 -0.169366 -0.140409 0.308339 -0.397904 -0.0350859 0.0913512 -0.504732 -0.302141
262 0.16428 0.0889785 -0.00382018 -0.182969 -0.106069 0.233492 0.125768 -0.165502 0.301083 0.15393 -0.0976376 0.209634 0.21264 -0.163565 0.0141843 0.0372862 -0.0918829 -0.0981333 0.211898 -0.256665 0.0317924 0.0387546 -0.266006 -0.208044
3418 -0.0175722 0.054423 -0.0426946 0.0042188 0.0105231 0.084074 0.0293029 -0.0447713 0.100493 0.0520095 -0.0753887 0.0666341 0.0377618 -0.0248193 -0.00133071 0.0489385 -0.0416721 -0.00727537 0.0722914 -0.103569 -0.0107975 0.00203483 -0.0992101 -0.0886836
2395 -0.0230974 0.157858 -0.10461 -0.0321876 0.00972878 0.33545 0.0722852 -0.236975 0.363285 0.213151 -0.218741 0.28509 0.120912 -0.113869 0.00114186 0.0983999 -0.150218 -0.118168 0.267117 -0.319756 -0.020343 0.0897846 -0.377184 -0.260224
807 -0.0155628 0.276708 -0.164894 -0.0790127 0.0390791 0.667474 0.113575 -0.419136 0.660597 0.380635 -0.47131 0.527438 0.23504 -0.250268 0.0263119 0.212214 -0.253364 -0.190786 0.482583 -0.636022 -0.0135113 0.132349 -0.767065 -0.509655
3526 0.0071067 0.0341411 -0.0368386 0.00705854 -0.0106729 0.0963161 0.0269962 -0.0417062 0.0976517 0.0672235 -0.0532964 0.0664897 0.0123743 -0.017771 0.0241916 0.0177891 -0.0268259 -0.041283 0.0536395 -0.0809328 0.00286511 0.0247481 -0.124134 -0.083869
1396 -0.000295042 0.0719812 -0.0222617 -0.0298817 -0.0119981 0.127672 0.0262148 -0.0816473 0.128617 0.0949853 -0.0751775 0.094922 0.0357582 -0.033238 -0.006662 0.0422321 -0.0405449 -0.0541598 0.0849301 -0.121131 0.00882059 0.0458597 -0.136468 -0.0869938
1571 0.00323585 0.0477683 -0.0457417 0.00669504 -0.0101511 0.114943 0.0075556 -0.0648429 0.117099 0.0796668 -0.0982592 0.119634 0.0341302 -0.0565342 0.00914024 0.0257449 -0.0323069 -0.0554619 0.0708421 -0.129723 -0.0121648 0.0274947 -0.141857 -0.0780866
1712 -0.01775 0.00743458 -0.0136688 0.00898387 0.00426456 0.0595806 0.0142356 -0.0480592 0.0399493 0.0445687 -0.0357133 0.049598 0.00938907 -0.0310162 -0.00399081 0.00152413 -0.023247 -0.0103454 0.0493865 -0.0614185 0.0129756 0.0295953 -0.0610947 -0.0610342
1595 -0.011764 0.120562 -0.0737679 -0.0494677 0.0287989 0.337348 0.0654284 -0.232911 0.333334 0.186623 -0.208759 0.252397 0.135764 -0.107205 0.0254428 0.0974414 -0.107839 -0.11147 0.258708 -0.316949 0.0108949 0.0837296 -0.372709 -0.240674
1566 0.00188492 0.0363705 -0.0248102 -0.0152048 -0.00208419 0.0565569 0.00816269 -0.0520279 0.0724035 0.0627335 -0.0658554 0.0772227 0.00790698 -0.00971377 -0.00201899 0.00718436 -0.0116008 -0.00370269 0.0388527 -0.0656215 0.012353 0.0302852 -0.0908673 -0.0545904
1244 0.00446287 0.0177287 -0.000643949 -0.0117045 -0.00145536 0.0640551 0.0276743 -0.03226 0.048423 0.0215465 -0.0305018 0.0535556 0.015371 -0.00509775 -0.0154545 0.0353226 -0.0336765 -0.0366582 0.0239778 -0.0342642 -0.0219701 0.0116931 -0.0485839 -0.0252534
654 -0.0684282 0.400542 -0.252102 -0.125748 0.0653637 0.940225 0.16948 -0.607812 0.938197 0.54336 -0.622641 0.751253 0.31984 -0.317862 0.065347 0.319141 -0.354531 -0.261848 0.689934 -0.882357 -0.0423924 0.204117 -1.07312 -0.694321
2845 -0.0120421 0.0835783 -0.0501571 -0.0471935 -0.00160572 0.218208 0.0618201 -0.139239 0.214369 0.143805 -0.150693 0.169728 0.0994294 -0.0736216 0.00608673 0.0730925 -0.0724418 -0.0749898 0.162175 -0.216677 -0.0227068 0.0266047 -0.255195 -0.165445
1522 -0.00749519 0.0235279 -0.00970839 0.00625097 -0.00226292 0.0931175 0.0327266 -0.052386 0.094576 0.0542623 -0.0644153 0.0851434 0.0506374 -0.0171727 0.0115863 0.0319471 -0.0224147 -0.0310506 0.0856892 -0.0802255 0.000210831 0.00888416 -0.124428 -0.0658888
382 -0.0150019 0.164033 -0.0875484 -0.0592297 -0.0012724 0.370534 0.0823961 -0.217504 0.344245 0.2154 -0.218678 0.287377 0.119611 -0.114255 0.0347241 0.115492 -0.122727 -0.118621 0.263695 -0.332373 -0.0235847 0.0895952 -0.414193 -0.284603
403 0.0129472 0.0503824 -0.0263555 -0.0236638 -0.0169685 0.104593 0.0102588 -0.0798579 0.105912 0.0512278 -0.066753 0.0830538 0.0533678 -0.039647 0.011193 0.0144908 -0.0523385 -0.0593701 0.0871282 -0.113182 -0.0127057 0.0114647 -0.12269 -0.0942764
6262 0.0103927 0.0330871 -0.0233762 -0.0214112 -0.0173554 0.0674076 0.00896737 -0.032079 0.0906327 0.0483651 -0.0471533 0.0647661 0.0194413 -0.0145261 -0.00486621 0.000498033 -0.0332304 -0.0117444 0.0639432 -0.053788 -0.016792 0.0198982 -0.0730798 -0.049314
607 -0.0163037 0.114399 -0.0965271 -0.0447399 -0.00428736 0.332396 0.0657943 -0.183902 0.319056 0.202254 -0.205269 0.248074 0.126092 -0.103174 -0.00600879 0.0801896 -0.109858 -0.0877059 0.25127 -0.278117 0.00778406 0.0828357 -0.379902 -0.252712
2308 0.0115933 0.081887 -0.0383544 -0.0454025 0.0202186 0.17828 0.0340407 -0.139714 0.211605 0.129215 -0.101857 0.135227 0.0860659 -0.0536268 0.0137681 0.0591123 -0.092953 -0.0433568 0.124941 -0.186307 -0.00110226 0.0388571 -0.208746 -0.149879
2307 -0.0174631 0.0578127 -0.0415939 -0.024326 -0.00567782 0.184647 0.0212117 -0.125572 0.181307 0.108531 -0.131515 0.126984 0.0684132 -0.0623174 0.00553235 0.0580549 -0.0853049 -0.0595779 0.130529 -0.180732 -0.0248484 0.0388407 -0.222071 -0.150154
3197 -0.0157519 0.0662493 -0.052029 -0.0275196 0.017445 0.125693 0.0478363 -0.0924428 0.122474 0.0750009 -0.0864521 0.101891 0.064559 -0.0327958 0.0154415 0.0588302 -0.0329195 -0.0250068 0.11441 -0.113388 0.00284349 0.0338039 -0.166528 -0.08151
721 -0.0191375 0.0697672 -0.0381439 -0.0186233 0.0197746 0.138471 0.044201 -0.0810864 0.133798 0.0879671 -0.0789561 0.13181 0.0745536 -0.0372684 0.0135466 0.0359969 -0.0407112 -0.0660174 0.12512 -0.119346 -0.00824825 0.0455795 -0.169054 -0.124272
2397 -0.0110215 0.0705913 -0.0333572 -0.0355229 0.0168246 0.182068 0.0430134 -0.0941976 0.185845 0.080427 -0.114813 0.148696 0.050453 -0.0666932 -0.0050543 0.0469203 -0.0731364 -0.0320976 0.11286 -0.162482 -0.011024 0.036982 -0.198194 -0.116701
1765 0.010229 0.116253 -0.0754705 -0.0680999 0.0102234 0.310506 0.0636981 -0.209131 0.322858 0.171284 -0.179659 0.260009 0.102514 -0.097599 0.0190106 0.0886113 -0.134372 -0.0959219 0.226917 -0.276842 -0.0169897 0.0717069 -0.360915 -0.240775
3053 -0.00791395 0.110571 -0.0709521 -0.0404819 0.000477761 0.292017 0.0688718 -0.185456 0.330105 0.165585 -0.223612 0.247196 0.114525 -0.119155 0.00814982 0.0790914 -0.127089 -0.104501 0.246323 -0.296488 -0.0265721 0.0633496 -0.351831 -0.233427
5542 0.0151887 0.069682 -0.0175343 -0.0286765 -0.00913452 0.175875 0.0371949 -0.0964537 0.150472 0.0833787 -0.0943104 0.151095 0.0882771 -0.0620708 0.0122213 0.0608717 -0.0707758 -0.0641086 0.13604 -0.149723 -0.000451733 0.0235824 -0.167113 -0.108493
3054 -0.0324229 0.164189 -0.0782066 -0.0338271 0.0148795 0.351533 0.0639927 -0.208883 0.342018 0.179076 -0.229564 0.272477 0.124681 -0.136039 0.0319592 0.112033 -0.119761 -0.105711 0.275661 -0.349468 -0.0252074 0.0522278 -0.425443 -0.266978
2797 -0.00698377 0.0294118 -0.00802156 -0.0163687 -0.0151653 0.0408268 0.0241289 -0.0325459 0.0569513 0.0213797 -0.037925 0.0659997 0.0114169 -0.0154277 -0.00153191 0.0180463 -0.0362373 -0.013518 0.0371839 -0.057819 0.0108839 -0.00463507 -0.0565214 -0.0296989
502 0.0371285 0.0609136 -0.0414609 -0.0635012 -0.0544316 0.178573 0.0720742 -0.0911768 0.185906 0.0810706 -0.0752966 0.111709 0.103428 -0.0931676 0.0203499 0.0307696 -0.0562737 -0.0593591 0.151692 -0.176918 -0.0175123 0.0429446 -0.202221 -0.127595
424 -0.0208516 0.0940957 -0.0404322 -0.013214 0.00991579 0.171322 0.0128162 -0.117561 0.195064 0.0929864 -0.112863 0.140026 0.0582922 -0.0769747 0.000242621 0.0396821 -0.059731 -0.0411043 0.119324 -0.157359 -0.00164618 0.0260429 -0.221014 -0.119858
439 -0.0396507 0.213807 -0.139459 -0.0778924 0.0121786 0.478085 0.0975243 -0.285478 0.471203 0.284925 -0.307041 0.385835 0.145184 -0.16327 0.0102554 0.159522 -0.173198 -0.123161 0.344873 -0.439472 -0.0222744 0.110768 -0.537045 -0.35668
310 -0.00339437 0.176849 -0.0875238 -0.0430298 0.0299809 0.385357 0.0774003 -0.240889 0.421149 0.221732 -0.278269 0.332068 0.128697 -0.128292 0.00536394 0.125118 -0.142762 -0.112981 0.304683 -0.376114 -0.019682 0.0810508 -0.478862 -0.319281
2281 0.00414779 0.00607401 -0.00612084 -0.0266873 -0.00919472 0.06349 0.00580127 -0.0302916 0.063714 0.0191648 -0.0251419 0.0547767 0.01094 0.000987221 0.0191624 0.0295927 -0.0260693 -0.0238619 0.0352177 -0.0431817 0.0175216 0.0161231 -0.0615735 -0.0411869
1110 -0.0190938 0.0693928 -0.0235679 -0.0234911 0.0220449 0.192297 0.037945 -0.0911205 0.185328 0.10023 -0.104053 0.146204 0.0735864 -0.0747293 0.0171161 0.0583305 -0.0661074 -0.0667681 0.115395 -0.181896 -0.0204844 0.0290356 -0.184667 -0.121485
2303 -0.0149113 0.0473801 -0.00291447 -0.0215059 0.0194147 0.0537131 0.0129783 -0.0568338 0.0884037 0.0275604 -0.0303116 0.035677 0.00919692 -0.0269752 0.0160347 0.00165914 -0.020693 -0.0399752 0.0357435 -0.047002 -0.00732116 0.0151828 -0.0605083 -0.070065
2508 0.0144763 0.183447 -0.0988219 -0.0991684 -0.00876143 0.418182 0.0939475 -0.281396 0.447814 0.264698 -0.298796 0.35377 0.179813 -0.170874 0.0110099 0.147881 -0.17505 -0.1205 0.312241 -0.399668 -0.0310263 0.0879845 -0.476703 -0.312166
4266 -0.0235738 0.0214781 -0.00754592 -0.00938434 0.00362068 0.0578251 0.00870977 -0.0382283 0.0638269 0.0238641 -0.0702461 0.0413657 0.0284904 -0.00724967 0.0190075 0.0369959 -0.0130004 -0.0251271 0.0468423 -0.0819104 -0.0175623 -0.00165459 -0.0791836 -0.0625752
1205 -0.00603204 0.104835 -0.0510437 -0.03081 -0.00594706 0.260891 0.0636012 -0.165258 0.265565 0.145469 -0.174077 0.230262 0.0836065 -0.0935241 0.00600513 0.0724738 -0.0851242 -0.0632645 0.172939 -0.254049 0.005682 0.0594684 -0.293958 -0.21177
860 0.000642226 0.161992 -0.0890845 -0.0631703 0.00125358 0.406935 0.0724998 -0.229436 0.410198 0.216366 -0.252235 0.315856 0.120082 -0.126172 0.035737 0.117261 -0.148498 -0.130081 0.27212 -0.353491 -0.0147443 0.0831966 -0.454519 -0.280457
5977 -0.0271231 0.0286585 -0.0211851 0.0100756 0.0260954 0.0819417 0.0107032 -0.0469748 0.0418388 0.020861 -0.0478297 0.0326374 0.0262333 0.0036172 0.00330434 0.0067959 -0.0376827 -0.0349616 0.0366324 -0.0525682 -0.0245671 0.0146834 -0.0590484 -0.0458594
345 -0.0120935 0.219416 -0.125389 -0.0677922 0.00153641 0.484732 0.0822776 -0.314814 0.489342 0.272371 -0.323384 0.404643 0.166198 -0.194242 0.0239668 0.162482 -0.21263 -0.148428 0.377066 -0.450794 -0.0035275 0.10205 -0.550637 -0.390645
2019 0.0160768 0.0248318 -0.00304881 -0.0138062 -0.0112789 0.0804619 0.0148823 -0.0612365 0.0874024 0.0461948 -0.0432446 0.0876123 0.0316351 -0.0308424 0.00652742 0.0275703 -0.0223106 -0.0341805 0.0670903 -0.0851745 0.0147517 0.0140284 -0.117436 -0.0743293
2540 0.00390363 0.028591 -0.00558525 -0.00870703 0.000356157 0.0426781 0.018475 -0.0280049 0.0501574 0.0363628 -0.034346 0.042039 -0.0066225 0.00608982 0.0157255 0.00437431 -0.0171905 -0.00886628 0.0205496 -0.0333151 0.0083115 0.017234 -0.0407744 -0.0239295
874 -0.0141486 0.0645243 -0.0451203 -0.0167173 0.00728974 0.132283 0.0225268 -0.0853521 0.134351 0.0803774 -0.0987969 0.0985463 0.0599011 -0.0509936 0.0203482 0.0198606 -0.0555915 -0.0202763 0.113231 -0.105918 0.0075601 0.0106045 -0.138382 -0.0889014
450 0.0368682 0.0227613 0.0138586 -0.0615765 -0.0355056 0.0659067 0.0263875 -0.0615166 0.08902 0.0558297 -0.0367005 0.0605544 0.0586715 -0.0656543 -0.015395 0.00629004 -0.0246418 -0.0294568 0.0418602 -0.0568493 0.0206555 0.0285695 -0.0675845 -0.0788793
148 0.112842 0.0322249 0.0157273 -0.112073 -0.0872099 0.120374 0.0475359 -0.0673623 0.137779 0.0633766 -0.0341833 0.0838307 0.132398 -0.107614 0.0175102 0.0114976 -0.0259615 -0.065797 0.092245 -0.101388 0.0338265 0.0255278 -0.140015 -0.133988
1010 0.00514717 0.0960732 -0.0276805 -0.0366643 0.0214325 0.185228 0.0535606 -0.110336 0.190398 0.100029 -0.129084 0.16481 0.0614943 -0.0842514 0.0280946 0.0748307 -0.0761455 -0.0467984 0.139208 -0.18287 0.0138557 0.0390755 -0.227187 -0.150489
1180 0.0123976 0.130445 -0.0849138 -0.0317568 -0.0193714 0.293692 0.0440731 -0.180323 0.313662 0.144471 -0.20288 0.22664 0.123668 -0.112886 0.0290731 0.0799568 -0.113529 -0.0727106 0.208681 -0.27401 0.012784 0.0778309 -0.320721 -0.211997
907 -0.00997778 0.197199 -0.131652 -0.0782084 0.000339555 0.510101 0.0895428 -0.312352 0.537709 0.281436 -0.319057 0.418351 0.17715 -0.17412 0.00312529 0.147277 -0.202611 -0.16829 0.380928 -0.455815 -0.024475 0.1211 -0.603516 -0.369305
2133 -0.0233296 0.0127509 -0.0117455 -0.0223576 0.0194142 0.0668598 -0.00644833 -0.0520271 0.084279 0.0482248 -0.038149 0.0596791 0.00646663 -0.0256054 -0.00225637 0.0432501 -0.0168026 -0.0104326 0.0311957 -0.051936 0.00940862 -0.00347475 -0.0743916 -0.0510599
569 0.0442654 0.0791329 -0.0193272 -0.0589075 -0.0550685 0.159422 0.0679495 -0.108897 0.195981 0.087281 -0.0689325 0.108379 0.0874375 -0.0665895 0.0226195 0.0248414 -0.0547005 -0.0596714 0.136455 -0.131446 -0.0157905 0.0386222 -0.174545 -0.127899
241 0.124522 0.0622657 -0.00250595 -0.108077 -0.0736649 0.199883 0.103557 -0.157101 0.236997 0.146038 -0.0831979 0.147994 0.145746 -0.156551 -0.0149201 0.0455811 -0.0613797 -0.104385 0.170032 -0.215311 0.0155121 0.0583287 -0.231386 -0.205134
3207 0.00868394 0.020674 0.00123769 -0.0182064 0.0092219 0.087513 0.00475296 -0.0576874 0.0864435 0.033781 -0.03606 0.0472057 0.0406104 -0.0293536 0.0162239 0.00519345 -0.0471953 -0.00203593 0.0556429 -0.0780941 -0.00513601 0.0193458 -0.082684 -0.0611198
481 -0.0270921 0.181052 -0.11913 -0.0409723 -0.000489959 0.454928 0.0714521 -0.263814 0.450373 0.248544 -0.309709 0.361164 0.157772 -0.135924 0.0293057 0.129993 -0.180635 -0.125299 0.341295 -0.425275 -0.0184046 0.111347 -0.489356 -0.324444
465 -0.0167249 0.133269 -0.0649806 -0.0533283 0.0112402 0.290936 0.0507569 -0.193279 0.316873 0.159108 -0.193791 0.265503 0.122394 -0.0993024 -0.000593678 0.0722464 -0.12896 -0.11219 0.215185 -0.273226 -0.00885777 0.0827959 -0.348194 -0.225825
5749 0.00985685 0.00615447 -0.00110094 0.00353306 0.00750364 0.0386564 0.0238695 -0.0240659 0.0423506 0.0387941 -0.0391521 0.0315085 0.0170339 -0.00863865 0.0244092 0.0233488 -0.0352253 -0.000889 0.0324694 -0.060917 -0.0134061 -0.00658901 -0.0790944 -0.0504866
357 0.0090387 0.0973776 -0.0907294 -0.039695 0.0114634 0.290085 0.042618 -0.183948 0.283457 0.167304 -0.187846 0.219064 0.118013 -0.115141 0.0265069 0.0852491 -0.0888224 -0.105722 0.193486 -0.24273 -0.0034762 0.0455109 -0.318453 -0.214303
3897 -0.0174038 0.0559035 -0.0407741 0.00698145 0.0143059 0.0972709 0.0339627 -0.0796405 0.113641 0.071315 -0.0766094 0.100437 0.0526956 -0.0344543 0.0215699 0.0226429 -0.0449715 -0.0467134 0.0794157 -0.0859661 -0.0239272 0.0249319 -0.137332 -0.0672508
2998 -0.00387246 0.0823721 -0.0764462 -0.0112577 -0.000455125 0.209213 0.0248527 -0.1549 0.224821 0.141378 -0.162599 0.163392 0.0939471 -0.0871406 0.0225899 0.065852 -0.0743121 -0.0479962 0.178068 -0.21408 0.00937467 0.0384109 -0.257259 -0.158788
2342 0.0209659 0.0468011 -0.0100338 -0.000838721 -0.00182269 0.0890132 0.00665765 -0.0702062 0.0870113 0.0481079 -0.0698213 0.0715495 0.0520141 -0.0142631 0.0137833 0.00999779 -0.0324417 -0.0245214 0.0632453 -0.0964438 0.00571593 0.000685134 -0.0912335 -0.0705733
856 -0.020976 0.193793 -0.108668 -0.0832689 -0.00226742 0.468121 0.077775 -0.316495 0.511584 0.274309 -0.347318 0.402125 0.183871 -0.172849 0.0323497 0.169303 -0.189574 -0.145346 0.346087 -0.463389 -0.000519581 0.114745 -0.575855 -0.359558
3643 -0.0050051 0.0682291 -0.0367368 -0.0247057 -0.000220725 0.159329 0.024983 -0.116953 0.149857 0.0672308 -0.0961585 0.121812 0.070765 -0.0375465 0.00166201 0.0377282 -0.0662341 -0.0317115 0.110961 -0.147697 0.00124362 0.017556 -0.195127 -0.109989
250 0.0367976 0.0741663 -0.0293187 -0.029713 -0.0227093 0.132086 0.0331291 -0.0831731 0.14502 0.0639085 -0.10067 0.102617 0.0687462 -0.0839797 -0.010634 0.0197019 -0.0480675 -0.0517443 0.112842 -0.12128 -0.0150122 0.0218987 -0.178174 -0.101746
34 -0.00512069 0.0909067 -0.0404738 -0.0444124 0.0287 0.218068 0.0613537 -0.149455 0.220605 0.115741 -0.126651 0.179477 0.0676022 -0.0620214 0.0274532 0.0588844 -0.0655067 -0.0713901 0.17125 -0.180767 -0.0204164 0.0430743 -0.238492 -0.15429
56 0.00501616 0.0239711 -0.0112519 -0.00310477 -0.0166466 0.105581 0.00418284 -0.0731581 0.10634 0.0391179 -0.0466876 0.0807657 0.0242319 -0.0337955 -0.00159333 0.0226005 -0.0278138 -0.0156292 0.067671 -0.0975375 -0.00209705 0.0273393 -0.110731 -0.0541344
69 0.00062862 0.0879457 -0.0730926 -0.0379134 -0.0143875 0.20426 0.0571791 -0.139196 0.228729 0.138312 -0.160204 0.173505 0.101791 -0.0789958 0.0286248 0.0563399 -0.102152 -0.0865088 0.165467 -0.212104 -0.0203798 0.0435156 -0.265616 -0.178636
29 -0.0183029 0.0605133 -0.0473728 -0.00335042 -0.0030672 0.169935 0.00976019 -0.0847253 0.163627 0.0717119 -0.107405 0.10818 0.0735606 -0.0344748 0.0083354 0.0637367 -0.0420119 -0.0457648 0.123464 -0.156217 -0.0218325 0.0441466 -0.178917 -0.105301
2351 -0.0116069 0.0782863 -0.04278 -0.0291338 0.00119117 0.225831 0.0615599 -0.138222 0.221978 0.113495 -0.146013 0.17119 0.101707 -0.0846574 0.00618923 0.0751633 -0.0777654 -0.0845167 0.141657 -0.187831 0.0122597 0.0445472 -0.255036 -0.171536
2367 0.00465949 0.0254007 -0.0377224 -0.00707581 -0.00883683 0.0832217 0.0294247 -0.0446816 0.0709893 0.0595858 -0.0576732 0.0483289 0.0124143 -0.0462789 -0.016091 0.0131996 -0.016621 -0.0405866 0.0770587 -0.0580382 0.00180873 0.0042063 -0.0718466 -0.0470745
2360 -0.0080224 0.106753 -0.0978165 -0.0549999 0.0113028 0.285181 0.0593834 -0.19089 0.303974 0.186678 -0.204015 0.223288 0.118105 -0.113354 0.0102517 0.0981192 -0.100294 -0.0745295 0.199963 -0.296745 -0.0165342 0.0601161 -0.350826 -0.234071
531 0.0717794 0.146751 -0.0545768 -0.0910941 -0.0490398 0.302233 0.0940843 -0.193989 0.369758 0.182144 -0.19276 0.278957 0.152873 -0.167592 0.022532 0.0538818 -0.130564 -0.14379 0.259053 -0.290124 -0.0180331 0.0846004 -0.388443 -0.264845
6020 -0.00432886 0.0431652 -0.00923268 -0.0141034 0.0079663 0.0772909 0.0156684 -0.0445797 0.0769275 0.0297859 -0.0569077 0.0500751 0.0130279 -0.0222659 0.0181783 0.0351648 -0.0437199 -0.0212875 0.0529319 -0.049306 0.0109591 0.0224707 -0.0732773 -0.0700671
628 0.0708457 0.0701312 -0.0572053 -0.0804819 -0.0315448 0.210119 0.0735048 -0.168252 0.242636 0.120501 -0.114599 0.195334 0.142444 -0.107595 -0.000312124 0.0400456 -0.0889747 -0.107967 0.199574 -0.203425 0.0150429 0.0446855 -0.2525 -0.176347
273 0.21121 0.159018 -0.0357052 -0.295869 -0.194628 0.483038 0.188711 -0.325244 0.576198 0.301347 -0.206942 0.385061 0.360093 -0.296164 -0.0147896 0.0869544 -0.145861 -0.232055 0.390127 -0.456552 0.0101759 0.108739 -0.513107 -0.441279
6562 -0.0167051 0.0186102 -0.00957612 0.00773198 0.021349 0.0682492 0.00896399 -0.0154092 0.0651228 0.0452997 -0.0172963 0.042499 0.00880497 -0.037941 0.000402141 0.0072948 -0.0295383 -0.0240012 0.0316749 -0.0545962 -0.0162283 0.010874 -0.0563027 -0.0566291
526 -0.0005805 0.210725 -0.11252 -0.0790055 0.0260646 0.480321 0.0858987 -0.309666 0.482291 0.281033 -0.327857 0.36837 0.157826 -0.156808 0.0051983 0.157705 -0.187041 -0.157325 0.34418 -0.449048 -0.0254046 0.0985613 -0.520405 -0.36875
3228 -0.0114438 0.0388945 0.000149602 0.00147063 0.0157891 0.0489182 -0.000482314 -0.0277006 0.0613634 0.0190989 -0.0146604 0.0424658 0.029265 -0.00330854 -0.00599824 0.0104195 -0.0132834 -0.0230021 0.0210663 -0.0655163 -0.00981093 -0.00891349 -0.0657215 -0.0343904
487 -0.0229901 0.158123 -0.0959469 -0.0363879 0.0136628 0.380798 0.0906557 -0.240925 0.404918 0.231784 -0.280731 0.33725 0.117598 -0.125729 0.0193325 0.105996 -0.172997 -0.0988258 0.275701 -0.367946 -0.0195854 0.0671688 -0.451929 -0.27247
302 -0.00742006 0.178175 -0.107612 -0.0757878 0.0271401 0.437611 0.0950643 -0.298865 0.484463 0.251789 -0.328231 0.374962 0.150993 -0.158192 0.0331098 0.150625 -0.189771 -0.151424 0.333923 -0.426955 -0.0341754 0.0755963 -0.511712 -0.356587
4334 0.0168563 0.0313378 0.00647843 -0.0311469 -0.00603234 0.0605151 0.0232067 -0.0397017 0.0455383 0.0210534 -0.0514411 0.0691088 0.0090392 -0.0297355 0.00162112 0.025071 -0.00402116 -0.0386025 0.04974 -0.0430663 -0.00114271 0.0223061 -0.0665812 -0.0617374
