3857 24
4930 -0.00946084 0.0576376 -0.0273491 -0.0204927 0.0379336 0.0245838 0.0270811 -0.0338433 -0.0110043 -0.0573974 0.0349561 -0.0589653 -0.0315713 -0.0465992 -0.0958775 0.0304883 0.0403188 0.022912 0.0264643 0.0386701 0.0259624 -0.0152078 -0.00244212 -0.012013
385 -0.204003 0.396701 -0.216959 -0.0276365 0.228044 0.05773 0.111116 -0.333209 0.0409976 -0.299663 0.372584 -0.365878 -0.212401 -0.307352 -0.654928 0.245571 0.391754 0.0766934 0.0792651 0.289929 0.266454 -0.12842 -0.127284 -0.180695
435 -0.0675077 0.354721 -0.20653 -0.0815976 0.0765172 0.0258642 -0.0286381 -0.332315 -0.0877472 -0.146063 0.325408 -0.251454 -0.250797 -0.188937 -0.438098 0.109017 0.311862 0.0389243 -0.00148634 0.189947 0.292946 -0.105713 -0.169724 -0.0778313
4425 -0.0293714 0.0533148 -0.0386206 0.00744124 0.00700383 -0.00246351 0.0208416 -0.0539949 -0.00580003 -0.0107478 0.0303534 -0.0260963 -0.0147646 -0.0304711 -0.0514087 0.0271759 0.0470367 0.0112362 0.0193311 0.0487872 0.0492822 -0.0303481 -0.0114957 -0.0140775
437 -0.0239029 0.197609 -0.109073 -0.044224 0.0465126 0.0175345 -0.0152475 -0.17016 -0.0307034 -0.0958928 0.184228 -0.168202 -0.130487 -0.129848 -0.263303 0.0732207 0.175551 0.0282658 -0.00234095 0.134667 0.140795 -0.0808816 -0.0782433 -0.0451434
137 0.0154972 0.149905 -0.0852477 -0.0522504 -0.0294015 0.0010876 -0.0671999 -0.165584 -0.111737 0.0106672 0.180239 -0.0859315 -0.180977 -0.0685787 -0.139812 -0.0145146 0.149624 0.000616052 -0.0446066 0.0969161 0.204779 -0.0555246 -0.124249 0.0278532
58 -0.0209775 0.0974616 -0.0527111 0.000901707 0.0575796 0.0108119 0.00879998 -0.0735094 0.00391571 -0.0700692 0.0793244 -0.065298 -0.0532403 -0.0479885 -0.110525 0.0518061 0.0814965 0.0339219 0.0135743 0.060469 0.0611411 -0.0331092 -0.0304698 -0.0283768
33 -0.033725 0.0747321 -0.0711817 -0.0188169 0.0253437 0.0308429 0.00012237 -0.060965 0.0237945 -0.0603454 0.0621343 -0.0585587 -0.0400193 -0.0764941 -0.155707 0.0374646 0.105454 0.0184632 0.0356195 0.0562036 0.061158 -0.0286054 -0.00910241 -0.0449025
66 -0.0476713 0.175362 -0.0927103 0.00745321 0.0574752 0.0164392 0.0298585 -0.148321 0.0203488 -0.0975604 0.132635 -0.116171 -0.10191 -0.11129 -0.235703 0.0771166 0.13042 0.0122875 0.0231199 0.100329 0.084103 -0.0352983 -0.0298207 -0.0735166
5205 -0.0460796 0.118494 -0.067436 0.00551413 0.0484374 0.0283158 0.0329189 -0.084751 -0.00636368 -0.0668781 0.0780807 -0.11819 -0.0606457 -0.0608526 -0.202443 0.0671421 0.116643 0.0272873 0.0258152 0.0786403 0.0485229 -0.0485782 -0.0323735 -0.0532893
3192 -0.0813837 0.205411 -0.133 0.00794965 0.112777 0.0612047 0.0713816 -0.181425 0.0429438 -0.160301 0.194276 -0.185763 -0.120968 -0.147052 -0.330837 0.127844 0.20988 0.0550323 0.0564526 0.156176 0.151731 -0.0764364 -0.0544722 -0.10854
686 -0.196051 0.525785 -0.307951 -0.0442514 0.244886 0.103494 0.107559 -0.454939 0.0155634 -0.345338 0.489101 -0.444396 -0.277395 -0.349174 -0.818366 0.287458 0.504033 0.127923 0.0909322 0.342472 0.358039 -0.176976 -0.173777 -0.198849
2964 -0.0705749 0.146888 -0.0682857 -0.00270954 0.104868 0.0156337 0.0633188 -0.107515 0.0305533 -0.115549 0.12899 -0.118138 -0.0556098 -0.118859 -0.243648 0.0931327 0.131976 0.0461994 0.0650436 0.120493 0.0717717 -0.0613076 -0.0286074 -0.0517464
3782 -0.084722 0.133415 -0.0786887 0.0206782 0.0746917 0.0118954 0.0370543 -0.10488 0.0438313 -0.0980799 0.123458 -0.117999 -0.0601448 -0.112565 -0.266299 0.11003 0.161144 0.0503246 0.0382437 0.104455 0.0911274 -0.0338462 -0.0389055 -0.0824725
6198 -0.0378863 0.0600352 -0.00767402 -0.0197086 0.0407447 0.0225792 0.0322298 -0.0578014 0.0215974 -0.0423247 0.0552083 -0.0537557 -0.013457 -0.027144 -0.0722785 0.0327992 0.0429725 0.00416222 -0.000417672 0.0435361 0.0459189 -0.0098079 -0.0132899 -0.0341042
377 -0.113986 0.294241 -0.176282 -0.029581 0.164155 0.0578581 0.052403 -0.224048 0.00768688 -0.185464 0.264997 -0.232665 -0.128325 -0.189878 -0.467193 0.184436 0.282032 0.0716533 0.0818954 0.178514 0.16001 -0.0956067 -0.0960151 -0.0981746
380 -0.14557 0.334713 -0.202908 -0.0231754 0.173284 0.0400864 0.0814216 -0.269861 0.0193599 -0.206342 0.313841 -0.289501 -0.168316 -0.219223 -0.52331 0.190697 0.332795 0.0486384 0.0617651 0.200828 0.23073 -0.111279 -0.111177 -0.119142
5285 -0.0289704 0.0694876 -0.0368833 -0.0056108 0.0414996 0.0111942 0.0190071 -0.0928344 -0.00103689 -0.0495461 0.0925863 -0.0653333 -0.0478359 -0.0460316 -0.1522 0.0394789 0.0910538 0.0264363 0.00865199 0.0413049 0.0767202 -0.0316456 -0.0159167 -0.0356071
478 -0.127732 0.322855 -0.178346 -0.00326805 0.183963 0.080384 0.0770172 -0.27386 0.0162243 -0.246209 0.309547 -0.318399 -0.166165 -0.244033 -0.547633 0.190627 0.35292 0.0594996 0.0826794 0.236756 0.224286 -0.134781 -0.0900813 -0.139956
465 -0.122637 0.320544 -0.151103 -0.0247936 0.169154 0.0352329 0.0633364 -0.237413 0.0133816 -0.18014 0.256509 -0.245457 -0.149543 -0.208732 -0.461792 0.182527 0.283846 0.0825506 0.0644389 0.189854 0.19694 -0.0895305 -0.104833 -0.102947
4363 -0.0157478 0.0476345 -0.00896877 -0.000708698 0.0190986 0.00247043 -0.00108199 -0.0464112 0.00456601 -0.0455791 0.0264475 -0.0332365 -0.00707192 -0.037654 -0.0619885 0.0385387 0.0522871 0.000994094 0.0237395 0.0195923 0.037896 -0.0240277 -0.0269789 -0.0285378
582 -0.122179 0.309316 -0.182196 -0.0332542 0.152384 0.065948 0.0876505 -0.247206 0.00939575 -0.177067 0.240588 -0.25942 -0.127512 -0.21266 -0.453384 0.150572 0.28919 0.0703313 0.0753043 0.211882 0.189882 -0.0869827 -0.0705594 -0.104738
307 -0.208779 0.427158 -0.253516 -0.0175906 0.216481 0.0849983 0.107064 -0.366032 0.0401733 -0.312618 0.361158 -0.374958 -0.220102 -0.296201 -0.699629 0.24939 0.425657 0.0959167 0.102105 0.263832 0.279289 -0.147863 -0.115992 -0.171976
2234 -0.0443246 0.0360945 -0.0328305 -0.0178168 0.0405342 0.00429779 0.00198693 -0.0258164 0.0163834 -0.0198783 0.048839 -0.0212256 -0.0175878 -0.0414338 -0.0540178 0.0272029 0.0509487 0.021059 0.00566323 0.015659 0.00876467 -0.0152606 -0.0268595 -0.0239253
367 -0.227733 0.49768 -0.295216 -0.00733394 0.278669 0.0688301 0.107654 -0.418088 0.0173712 -0.357334 0.456165 -0.445295 -0.239456 -0.351355 -0.802387 0.302644 0.493404 0.108221 0.114289 0.331134 0.310703 -0.171386 -0.140071 -0.196806
288 -0.166503 0.419649 -0.257154 -0.0205472 0.200869 0.057926 0.0674556 -0.342123 0.00236039 -0.271166 0.384932 -0.345296 -0.231662 -0.263185 -0.664363 0.221591 0.410174 0.0770259 0.0829997 0.266118 0.251254 -0.12419 -0.123209 -0.138437
346 -0.19206 0.375157 -0.206261 -0.0024994 0.241373 0.0836133 0.0913375 -0.296348 0.0345777 -0.267613 0.306401 -0.323472 -0.165581 -0.275925 -0.580087 0.225016 0.364726 0.106419 0.113781 0.256484 0.192174 -0.104207 -0.0811836 -0.179941
353 -0.0586235 0.0884604 -0.0471609 -0.0166233 0.0664329 0.00267494 0.0388892 -0.0899338 0.0200476 -0.0457728 0.073798 -0.0864869 -0.0717231 -0.0643173 -0.150821 0.0377435 0.0797884 0.0315894 0.0145986 0.0587931 0.0845693 -0.0169057 -0.0499722 -0.0555922
331 -0.136736 0.349506 -0.197954 0.00568452 0.18514 0.0529901 0.100076 -0.28885 0.0436684 -0.215995 0.296786 -0.309256 -0.154348 -0.252546 -0.528255 0.197318 0.346024 0.0813725 0.0816443 0.227425 0.220321 -0.130051 -0.0857788 -0.122017
5561 -0.0708393 0.19059 -0.113087 -0.0207913 0.100021 0.0140305 0.0529141 -0.150824 -0.00758897 -0.128398 0.158047 -0.167713 -0.114542 -0.123278 -0.271405 0.0732988 0.177093 0.0170068 0.0272047 0.124613 0.1141 -0.0557754 -0.0557231 -0.0640705
5542 -0.0373931 0.106983 -0.0555416 7.81574e-05 0.0812178 0.0384431 0.0457528 -0.0833458 0.0343779 -0.085063 0.0940928 -0.112944 -0.0487122 -0.0831722 -0.2032 0.0602232 0.117657 0.0140377 0.0521175 0.0777272 0.0637028 -0.0500208 -0.017374 -0.0419705
1894 -0.0258116 0.0483122 -0.054036 0.0151168 0.0708052 0.00961515 0.0384916 -0.0590422 0.0360345 -0.0407342 0.0625687 -0.0593276 -0.00971122 -0.0660254 -0.118504 0.0389878 0.0455185 0.0167232 0.0410293 0.0236845 0.000365468 -0.0280912 0.00750508 -0.0318243
1815 -0.142066 0.299847 -0.172783 -0.0151453 0.188153 0.0457683 0.0737422 -0.274393 0.0437181 -0.211367 0.294677 -0.261209 -0.153611 -0.223462 -0.524664 0.204421 0.300568 0.080163 0.0821287 0.218612 0.184887 -0.130703 -0.0871491 -0.117663
807 -0.262243 0.560862 -0.332597 -0.0393601 0.304962 0.091817 0.128894 -0.48001 0.0473986 -0.407097 0.528222 -0.506935 -0.285266 -0.382323 -0.895301 0.334664 0.582738 0.108207 0.108127 0.402053 0.38418 -0.189465 -0.159889 -0.208618
3277 -0.0308883 0.102583 -0.0654982 -0.0157892 0.0374829 0.0359632 -0.00242515 -0.0987237 0.000362276 -0.0723064 0.112166 -0.109167 -0.0598499 -0.0853595 -0.165943 0.0405081 0.108088 0.0302522 0.0340345 0.0863329 0.0787393 -0.0503261 -0.0492084 -0.0325262
1355 -0.0798938 0.145911 -0.106701 0.00752112 0.0709374 0.0116699 0.0586259 -0.135523 0.0229161 -0.0916005 0.151643 -0.146256 -0.0858512 -0.100737 -0.252167 0.0882568 0.167936 0.0206972 0.0344515 0.114235 0.0884755 -0.0397313 -0.030773 -0.0481621
1293 -0.346984 0.814412 -0.479963 -0.0390974 0.448437 0.162045 0.212834 -0.677694 0.0555004 -0.544852 0.72921 -0.695753 -0.401856 -0.570187 -1.29378 0.465456 0.788492 0.161729 0.189356 0.532816 0.537218 -0.281816 -0.270088 -0.326992
1079 0.000733724 0.0538526 -0.0422113 0.00329145 0.0180472 0.0201224 -0.00418016 -0.0420351 0.0157713 -0.0367011 0.0644494 -0.0540944 -0.0243799 -0.0397137 -0.0726542 0.0448972 0.0618261 0.0282958 0.0266191 0.0320234 0.0583841 -0.0388066 -0.0193719 -0.0279771
319 -0.120157 0.315643 -0.168039 0.00697465 0.166608 0.0341706 0.0644095 -0.264385 0.0303014 -0.181201 0.286009 -0.27144 -0.171717 -0.22397 -0.449876 0.16147 0.294255 0.0589196 0.0489104 0.204338 0.209836 -0.0901303 -0.079815 -0.110032
396 -0.107156 0.255079 -0.118645 -0.024283 0.151041 0.0598751 0.0547482 -0.204945 0.0330081 -0.180562 0.216105 -0.198745 -0.103469 -0.163758 -0.394773 0.123583 0.213667 0.0728062 0.0561359 0.15729 0.143866 -0.0972263 -0.0749256 -0.113605
1658 -0.0770012 0.139006 -0.0668908 0.0134048 0.0653927 0.0320132 0.0387699 -0.115535 0.0290564 -0.119022 0.122417 -0.115347 -0.0716424 -0.110597 -0.220392 0.0957083 0.140906 0.0484018 0.0312723 0.0904108 0.0929859 -0.049623 -0.0490138 -0.0697901
2588 -0.0190319 0.0836083 -0.0397327 -0.0194601 0.0614553 0.0086833 0.0260448 -0.0779118 -0.0161373 -0.0532055 0.0705941 -0.0740655 -0.0635327 -0.0833561 -0.136075 0.0429427 0.0750218 0.0191366 0.00212905 0.0828586 0.0552807 -0.0463902 -0.0488143 -0.037266
1696 -0.0450975 0.117456 -0.0686916 -0.00821128 0.089407 0.0160725 0.0308691 -0.101402 0.00352509 -0.0933352 0.101054 -0.096815 -0.0565373 -0.0867728 -0.216714 0.0898182 0.136382 0.0327572 0.0409579 0.0854859 0.0934398 -0.0562348 -0.0544337 -0.0416379
2149 -0.0401521 0.0598352 -0.0507334 -0.013149 0.0643661 0.0117218 0.00507572 -0.0276599 0.000193652 -0.0511103 0.0500632 -0.0658702 -0.0132083 -0.0658794 -0.116716 0.0413217 0.0439612 0.0205505 0.00682212 0.0291017 0.0287223 -0.00130329 -0.00803804 -0.0121565
1869 -0.0678993 0.111802 -0.0604967 -0.00694174 0.0559536 0.0237735 0.0538303 -0.073461 0.0353174 -0.0635646 0.0661552 -0.101121 -0.0493703 -0.0877015 -0.145926 0.0681595 0.0745547 0.0049919 0.029786 0.0795781 0.0341987 -0.0166534 -0.0265834 -0.0573078
1762 -0.040435 0.105193 -0.0483722 0.00188969 0.0470622 0.0362776 0.0329577 -0.114641 0.000913318 -0.0597685 0.119362 -0.10594 -0.0827321 -0.0867421 -0.195711 0.0635579 0.130524 0.0296674 0.00148285 0.0654687 0.0941486 -0.0526288 -0.0389696 -0.0267899
1198 -0.0121084 0.0849146 -0.0535726 -0.0186916 0.0314597 0.0323073 0.0152551 -0.0517977 -0.00683512 -0.0484125 0.0505284 -0.0715147 -0.0522458 -0.0611035 -0.109851 0.0190205 0.0812032 0.0182909 9.97408e-05 0.0422524 0.0477011 -0.0232626 -0.0333749 -0.03635
654 -0.322184 0.85061 -0.504922 -0.0304305 0.409629 0.134566 0.196039 -0.719669 0.0261001 -0.560117 0.752037 -0.744835 -0.46406 -0.588136 -1.33437 0.459461 0.835297 0.177121 0.155742 0.569467 0.535717 -0.288364 -0.296965 -0.313859
1432 -0.0410061 0.131271 -0.0864885 -0.0088081 0.0892831 0.0199859 0.053718 -0.105613 0.0102564 -0.0905133 0.12438 -0.106487 -0.0728319 -0.0838928 -0.221887 0.0631478 0.155817 0.0461509 0.0338855 0.101167 0.0855013 -0.0651921 -0.0462912 -0.0558565
1897 -0.0393944 0.105777 -0.0769734 0.00670195 0.0453852 0.0304846 0.00835634 -0.107221 0.012774 -0.0863989 0.105461 -0.0898419 -0.0491096 -0.0993898 -0.180513 0.0687523 0.137703 0.0168455 0.00912022 0.060554 0.06842 -0.0445673 -0.0353516 -0.0355272
790 -0.142626 0.334678 -0.174944 -0.007049 0.152572 0.0621452 0.0813355 -0.301374 0.01176 -0.205696 0.316699 -0.2959 -0.186436 -0.215591 -0.487504 0.17729 0.325009 0.0519177 0.061412 0.222121 0.238262 -0.0922119 -0.100778 -0.122659
523 -0.15563 0.434758 -0.240206 -0.0260348 0.226908 0.07426 0.0752783 -0.377716 0.0286428 -0.283445 0.379986 -0.36489 -0.236008 -0.325259 -0.690641 0.228382 0.43901 0.0967065 0.0704279 0.287167 0.300517 -0.170197 -0.123879 -0.152241
236 0.0224808 0.227469 -0.126237 -0.0699169 -0.0526241 0.0328723 -0.0766811 -0.255347 -0.112179 -0.016992 0.243911 -0.188704 -0.248773 -0.1105 -0.248062 0.0304048 0.214917 0.0204006 -0.047211 0.1438 0.270034 -0.0764047 -0.178439 0.0119584
0 0.505848 1.87669 -1.01098 -0.835912 -0.691586 0.0748947 -1.07793 -2.19705 -1.42722 0.152041 1.90936 -1.14329 -2.0499 -0.886255 -1.59258 -0.218816 1.50834 0.0109773 -0.676299 0.894676 2.25587 -0.512745 -1.40722 0.257476
38 -0.0249234 0.05896 -0.0532814 -0.0146646 0.0572282 0.0111797 0.0329577 -0.0763532 -0.0101692 -0.059832 0.0485289 -0.0723761 -0.0417192 -0.0359823 -0.097084 0.0593858 0.085915 -0.00411714 0.0150236 0.0576312 0.0389017 -0.0322079 -0.00843757 -0.00935377
47 -0.133224 0.342262 -0.187341 -0.0260797 0.180006 0.0628481 0.073626 -0.276393 0.0233069 -0.196955 0.29261 -0.275692 -0.187109 -0.211282 -0.518908 0.195999 0.302541 0.0894338 0.0608921 0.217363 0.213332 -0.102473 -0.103925 -0.118275
46 -0.0476775 0.139361 -0.0627206 -0.0107818 0.0590795 0.0309067 0.0414962 -0.119411 0.0269693 -0.0974532 0.10188 -0.115362 -0.0608887 -0.111997 -0.213338 0.0703009 0.113689 0.0126594 0.0304682 0.0743986 0.0635168 -0.0389574 -0.027554 -0.0552316
6336 -0.0168278 0.0460019 -0.0117319 -0.0126767 0.0107622 0.0203326 0.0250497 -0.0568484 0.00407994 -0.0425778 0.0430987 -0.0364425 -0.0425852 -0.0154485 -0.0820087 0.0197913 0.0316686 0.00138445 0.00121096 0.0235983 0.0381229 -0.0172685 -0.0212164 -0.0124808
407 -0.190462 0.454723 -0.272115 -0.0128608 0.239806 0.0707408 0.129012 -0.379618 0.0545589 -0.321954 0.403678 -0.400912 -0.239908 -0.333739 -0.730683 0.258755 0.450267 0.115857 0.116231 0.313982 0.286709 -0.160434 -0.125707 -0.201397
573 -0.113852 0.267901 -0.168648 -0.00858212 0.155144 0.0403714 0.0761659 -0.223141 0.0444171 -0.179376 0.255306 -0.222379 -0.133185 -0.180891 -0.43704 0.170688 0.239947 0.0798858 0.0589919 0.189621 0.185306 -0.0815872 -0.0752424 -0.10089
1372 -0.0432158 0.154274 -0.0840905 -0.0015094 0.0579904 0.00360425 0.0189862 -0.131912 -0.0152088 -0.106879 0.101935 -0.118295 -0.0861768 -0.0874777 -0.202306 0.0672447 0.12621 0.0398234 0.0167982 0.106256 0.0665603 -0.0281773 -0.0436253 -0.0531911
1062 -0.116248 0.242497 -0.115599 0.0150956 0.120164 0.04596 0.0490546 -0.182407 0.00291839 -0.178027 0.194273 -0.210761 -0.116274 -0.155748 -0.3598 0.15519 0.230371 0.0496877 0.0744661 0.175944 0.16194 -0.0909608 -0.0755983 -0.108934
1521 -0.0672904 0.135657 -0.0991321 -0.0127913 0.105132 0.0477281 0.0396169 -0.123567 0.00337106 -0.108318 0.152134 -0.14802 -0.0861425 -0.127678 -0.266809 0.0824995 0.135783 0.037925 0.0248116 0.106563 0.0741742 -0.0328243 -0.0213084 -0.0618281
1446 -0.0383295 0.0585526 -0.0499498 -0.0185537 0.0269243 0.020073 0.0221796 -0.0776274 -0.0178556 -0.0536191 0.0765494 -0.0436365 -0.0234733 -0.0453057 -0.0928799 0.0546396 0.0771155 0.018376 -0.00694905 0.0468487 0.0419269 -0.00775015 -0.032733 -0.0231466
1164 -0.130006 0.341781 -0.175054 -0.0267214 0.160545 0.0724751 0.0797413 -0.253496 0.0355103 -0.231062 0.306886 -0.288678 -0.146311 -0.217117 -0.50304 0.199479 0.298799 0.0543509 0.083669 0.229563 0.213643 -0.117609 -0.0875747 -0.143313
1380 -0.082892 0.194475 -0.135528 -0.0182138 0.102229 0.0542909 0.0375756 -0.196813 -0.00846729 -0.132276 0.192088 -0.165202 -0.115555 -0.123134 -0.31432 0.133134 0.203242 0.0312526 0.0325849 0.140235 0.117918 -0.063164 -0.0685449 -0.0719813
4157 -0.0162338 0.0309151 -0.0290714 0.0117898 0.0201512 0.00851288 0.00048941 -0.0549728 0.00747359 -0.0055673 0.0454947 -0.0269725 -0.0139689 -0.0215109 -0.0457226 0.0276043 0.0194239 0.0246296 -0.0100511 0.0388532 0.0322976 -0.0160722 -0.00922815 -0.029162
511 -0.261401 0.591643 -0.311089 -0.0391063 0.304176 0.103094 0.158405 -0.484441 0.0219681 -0.367208 0.525249 -0.48771 -0.273024 -0.388851 -0.900027 0.305772 0.544813 0.137235 0.132567 0.383029 0.339908 -0.188697 -0.152369 -0.210186
496 -0.178543 0.421037 -0.259297 -0.00845143 0.263662 0.0757357 0.10978 -0.360429 0.0351197 -0.30913 0.380679 -0.377643 -0.209405 -0.28248 -0.674352 0.255706 0.43613 0.0875185 0.102742 0.286584 0.259989 -0.144345 -0.110359 -0.181129
3671 -0.0254663 0.0726681 -0.0370932 -0.0123323 0.00393663 -0.00943593 -0.000528913 -0.056444 -0.00978631 -0.015061 0.0670836 -0.0262471 -0.0306942 -0.015013 -0.0676444 0.0356005 0.0574455 0.00894615 0.0220645 0.0466114 0.0465969 -0.0356758 -0.00704279 -0.0106643
466 -0.227049 0.538959 -0.322631 -0.0282381 0.283587 0.0801765 0.112406 -0.451826 -0.00502074 -0.317757 0.447466 -0.436395 -0.243554 -0.334828 -0.836245 0.282231 0.522464 0.115299 0.0805835 0.359655 0.320426 -0.200651 -0.143713 -0.222308
585 -0.189012 0.438094 -0.25807 -0.0150619 0.205562 0.0878225 0.10992 -0.35119 0.018549 -0.265283 0.387555 -0.357032 -0.233811 -0.300078 -0.686687 0.264524 0.429384 0.0754854 0.107721 0.276577 0.288968 -0.136756 -0.152266 -0.162435
986 -0.0432943 0.1135 -0.0807712 0.000638052 0.0818832 0.0177988 0.0256174 -0.0957348 0.013803 -0.0610765 0.107942 -0.0707862 -0.0476658 -0.0732914 -0.192052 0.0701984 0.0861423 0.0214666 0.0480053 0.0831332 0.0517639 -0.0262834 -0.0429204 -0.0615017
984 -0.11954 0.204068 -0.133842 -0.00168621 0.124677 0.0499358 0.0809713 -0.170153 0.0391745 -0.149039 0.189673 -0.185518 -0.0829185 -0.154511 -0.369824 0.132927 0.198685 0.0707571 0.0727839 0.173579 0.146538 -0.0579658 -0.0409817 -0.0884469
954 -0.0758231 0.186326 -0.115634 -0.00741822 0.133505 0.0303472 0.0483752 -0.186187 0.00128863 -0.148286 0.190171 -0.157596 -0.115231 -0.156081 -0.313228 0.126873 0.187391 0.0425488 0.0522496 0.121089 0.110345 -0.0580501 -0.0799459 -0.0988951
6195 -0.00758112 0.0548653 -0.0257024 0.011191 0.0168559 -0.00853323 0.0320155 -0.0262074 0.0145175 -0.0338514 0.0292086 -0.062242 -0.0041891 -0.0335548 -0.0810929 0.0434423 0.0502618 0.0227128 0.015968 0.031726 0.0218549 -0.0290749 -0.00778458 -0.0133475
408 -0.153587 0.411722 -0.25258 -0.0153699 0.211021 0.0555271 0.0804652 -0.341324 0.0129271 -0.282094 0.39375 -0.370885 -0.236652 -0.264691 -0.637036 0.208413 0.381785 0.0701188 0.0932681 0.256982 0.296291 -0.145191 -0.121729 -0.145702
2341 -0.123034 0.285483 -0.157204 -0.0201253 0.137497 0.0401388 0.0738139 -0.258538 0.0261255 -0.18004 0.236856 -0.236479 -0.157387 -0.196966 -0.460339 0.164686 0.288302 0.0586365 0.0608471 0.18203 0.166776 -0.0948055 -0.070386 -0.122998
835 -0.154273 0.359444 -0.203218 -0.0233625 0.19304 0.0815271 0.0916153 -0.306482 0.0233459 -0.249342 0.327742 -0.293364 -0.170552 -0.266394 -0.582996 0.189748 0.334714 0.0845125 0.0994804 0.228712 0.242344 -0.103134 -0.112702 -0.157084
1119 -0.132358 0.35447 -0.176147 -0.0133948 0.168151 0.062211 0.0984631 -0.274977 0.0166686 -0.249744 0.312312 -0.277109 -0.159584 -0.242598 -0.544447 0.176289 0.31053 0.0775179 0.0667658 0.234979 0.203666 -0.128543 -0.0828178 -0.144328
2130 -0.0441812 0.0729123 -0.0620304 0.0110203 0.0131273 0.0208688 0.00381935 -0.0572952 -0.0135321 -0.0360177 0.0569828 -0.0731805 -0.0224085 -0.0595338 -0.103855 0.0480043 0.0918586 -0.00398253 0.0227499 0.0480442 0.0705474 -0.0441612 -0.0136738 -0.0141711
746 -0.220681 0.541653 -0.319237 -0.0184133 0.271699 0.103999 0.110317 -0.449621 -0.00558684 -0.348935 0.497185 -0.473481 -0.295745 -0.37217 -0.846632 0.266152 0.525065 0.109758 0.10657 0.347936 0.347434 -0.198502 -0.172247 -0.212408
1129 -0.16148 0.32962 -0.21385 0.00135073 0.186921 0.0448445 0.0946964 -0.288716 0.0434799 -0.237557 0.300948 -0.303044 -0.166547 -0.225657 -0.54028 0.184033 0.349814 0.0713739 0.0738089 0.222606 0.194244 -0.138615 -0.0920589 -0.157259
939 -0.0964457 0.20108 -0.0989125 0.00152625 0.115864 0.0367374 0.0656859 -0.15998 0.00164427 -0.133406 0.191425 -0.193497 -0.114689 -0.125553 -0.308266 0.1179 0.19504 0.062173 0.0363325 0.134593 0.134598 -0.0517332 -0.0767663 -0.0620527
669 -0.232414 0.562027 -0.324841 -0.0294191 0.27716 0.107819 0.110012 -0.471365 0.0235582 -0.357431 0.523047 -0.502113 -0.291492 -0.409035 -0.887289 0.300134 0.558971 0.112974 0.107226 0.361941 0.350139 -0.196887 -0.189302 -0.223203
3654 -0.0523001 0.14768 -0.0807506 0.0140062 0.0905637 0.0364977 0.0337048 -0.135958 0.00287326 -0.116637 0.13081 -0.121859 -0.0838457 -0.088886 -0.247161 0.0736423 0.127048 0.0230388 0.0232883 0.0969979 0.100663 -0.0340976 -0.0322406 -0.0436172
629 -0.00209026 0.139415 -0.0925973 -0.0500097 0.00615799 0.0221088 -0.0495161 -0.134477 -0.0816367 -0.0354577 0.158164 -0.081637 -0.103868 -0.0834718 -0.157567 0.00386239 0.140726 0.0284201 -0.0306698 0.0994151 0.12464 -0.0598537 -0.097492 -0.0312963
273 0.0286756 0.387104 -0.230259 -0.134368 -0.0557337 0.0219185 -0.154182 -0.444313 -0.205228 -0.0381301 0.400331 -0.286726 -0.385515 -0.216813 -0.394104 0.020215 0.354472 0.0267728 -0.078161 0.225509 0.423479 -0.124512 -0.259028 -0.0170521
5179 -0.0213095 0.0560095 -0.0536606 0.0151329 0.0464121 0.0272389 0.00801847 -0.0408017 0.0184951 -0.0394802 0.0494258 -0.0599424 -0.0186053 -0.0566248 -0.0958656 0.0438354 0.0731304 0.00198059 0.0260235 0.0321441 0.0390083 -0.029902 -0.00527679 -0.0397881
456 -0.289832 0.586783 -0.311513 -0.0319054 0.32076 0.101556 0.147852 -0.454273 0.0671185 -0.410217 0.505838 -0.476147 -0.265211 -0.400182 -0.924871 0.364069 0.574512 0.132492 0.158245 0.391174 0.321514 -0.178472 -0.169317 -0.262061
285 -0.159206 0.344522 -0.211935 -0.014518 0.200745 0.064314 0.0816066 -0.267988 0.0581285 -0.232637 0.282618 -0.293596 -0.140045 -0.229126 -0.545328 0.210298 0.304985 0.0698107 0.0708875 0.236101 0.197428 -0.118042 -0.0990738 -0.155686
1036 -0.105662 0.231276 -0.118678 0.0151271 0.1369 0.0438924 0.0587762 -0.173434 0.0291154 -0.170007 0.181089 -0.176054 -0.0851965 -0.151355 -0.367412 0.133942 0.218546 0.0514962 0.0446758 0.138281 0.113892 -0.081857 -0.0535573 -0.0912561
697 -0.235069 0.5629 -0.322853 -0.00221599 0.291727 0.101287 0.107032 -0.461998 0.0378341 -0.341376 0.493067 -0.470605 -0.261389 -0.357179 -0.854376 0.308727 0.521859 0.101649 0.113007 0.360482 0.329327 -0.168719 -0.190646 -0.210615
590 -0.0158709 0.121855 -0.0667119 -0.0127428 -0.0103795 0.00541599 -0.0227858 -0.114826 -0.0416908 -0.0145915 0.105685 -0.0963822 -0.076196 -0.0629235 -0.125425 0.025766 0.0829043 0.0187481 -0.0044046 0.0749542 0.115927 -0.0479481 -0.067776 -0.00560162
252 0.0343042 0.108666 -0.0376027 -0.029806 -0.0638961 -1.04446e-06 -0.0658786 -0.0968741 -0.0664517 0.0376239 0.106242 -0.0702759 -0.0950516 -0.0457879 -0.0586199 -0.0235946 0.0729682 -0.0223655 -0.059366 0.0551917 0.137545 -0.0319753 -0.0829291 0.0323866
3090 -0.0479674 0.072666 -0.0525309 -0.00862224 0.0320382 -0.00518283 0.0325324 -0.0586522 -0.0162075 -0.0575027 0.0707952 -0.0580021 -0.035826 -0.0717619 -0.107218 0.0402389 0.0954539 0.0293902 0.0291207 0.0558717 0.0528773 -0.0223132 -0.0185594 -0.0346586
356 -0.174277 0.428158 -0.251952 -0.0213458 0.224364 0.0781764 0.118011 -0.342839 0.0459679 -0.280193 0.352736 -0.365756 -0.21481 -0.294109 -0.664791 0.256542 0.408297 0.092157 0.109449 0.282893 0.243743 -0.136481 -0.133149 -0.173558
280 -0.21169 0.503547 -0.308081 -0.0112766 0.257695 0.106467 0.12606 -0.429153 0.0101317 -0.346165 0.476275 -0.447248 -0.262778 -0.355131 -0.814969 0.281002 0.490817 0.119626 0.0878782 0.342496 0.318497 -0.181135 -0.15052 -0.20789
2307 -0.0586478 0.152036 -0.074461 0.0194225 0.117696 0.0106399 0.0597916 -0.125992 0.0380606 -0.136646 0.148562 -0.14315 -0.0647875 -0.106683 -0.261064 0.0948236 0.130459 0.0390041 0.056752 0.107168 0.09065 -0.0506389 -0.0466292 -0.06044
2308 -0.0588746 0.146937 -0.0742239 -0.0011268 0.0621329 0.011683 0.0410422 -0.138873 -0.0036233 -0.098587 0.130072 -0.130686 -0.0675723 -0.108005 -0.237896 0.0922721 0.153202 0.0292685 0.0177016 0.0963905 0.10279 -0.0461449 -0.0588612 -0.0431332
2034 -0.0196063 0.0473138 -0.0169209 -0.00901463 0.0451013 0.0243279 0.0341017 -0.0458904 -0.00972079 -0.0404356 0.0694 -0.0607238 -0.0192995 -0.0452695 -0.0866767 0.0507813 0.0573795 0.0298997 0.0229228 0.027972 0.0153901 -0.00360335 -0.0260896 -0.0376861
284 -0.252335 0.493777 -0.261927 -0.00344195 0.290195 0.0920284 0.142599 -0.381671 0.0845103 -0.347668 0.414835 -0.429341 -0.200569 -0.341097 -0.788408 0.278015 0.452255 0.127599 0.119732 0.330524 0.262625 -0.180083 -0.113244 -0.210475
517 -0.117239 0.300327 -0.188037 -0.00286308 0.180732 0.0659684 0.0992015 -0.24056 0.0272814 -0.213801 0.27523 -0.250857 -0.138396 -0.218177 -0.470137 0.182476 0.273152 0.0684966 0.0735269 0.205114 0.195413 -0.122785 -0.0955703 -0.127775
3992 -0.0287484 0.105421 -0.0734028 0.00412883 0.0735568 0.0134461 0.0318216 -0.110205 -0.00517823 -0.0857425 0.10517 -0.115906 -0.0663684 -0.0737393 -0.1709 0.0644101 0.0948604 0.0229848 0.00335924 0.0708852 0.0975731 -0.0228575 -0.0311952 -0.0435565
2010 -0.046687 0.0935937 -0.075007 0.00013221 0.0609563 0.0298745 0.00609341 -0.0911274 -0.011224 -0.0565621 0.0817155 -0.0939991 -0.0611504 -0.068079 -0.15668 0.0449775 0.112052 0.0207749 0.00483508 0.0763608 0.0738239 -0.022587 -0.0256127 -0.0364376
3280 -0.0303554 0.112588 -0.0922149 -0.0111197 0.0762655 0.0280341 0.035941 -0.114053 -0.0127637 -0.0652278 0.0972614 -0.105092 -0.0482359 -0.0744561 -0.195063 0.0718426 0.131817 0.0155979 0.00530239 0.0647009 0.0676756 -0.0397065 -0.0437561 -0.0612196
4222 -0.0387033 0.12944 -0.0819019 0.00714789 0.0546186 0.0108744 0.026018 -0.0764924 -0.00316381 -0.0748354 0.11903 -0.0914349 -0.079714 -0.0630475 -0.18495 0.0447705 0.123806 0.0290378 0.0417913 0.0859331 0.076096 -0.0379024 -0.0347348 -0.0402883
1306 -0.0283852 0.0689438 -0.0665587 0.0162535 0.0268225 0.0356031 0.0208972 -0.0833134 0.00354918 -0.0414004 0.0537585 -0.0790907 -0.0184235 -0.0593808 -0.12013 0.0566904 0.0764051 0.0241349 0.0198913 0.0383708 0.0429785 -0.0432754 -0.00201953 -0.0263484
2867 -0.0309583 0.0657595 -0.0611682 0.0118823 0.0526879 0.00321551 0.00178508 -0.0490566 -0.00728661 -0.0625192 0.072294 -0.0571836 -0.0222525 -0.071976 -0.111187 0.0333072 0.0726379 0.0251959 0.033908 0.0559457 0.0361455 -0.0201836 -0.00476858 -0.0294595
359 -0.18203 0.509923 -0.290974 -0.00937512 0.265339 0.107305 0.113201 -0.403967 0.00110697 -0.32562 0.452954 -0.420496 -0.265672 -0.352447 -0.762005 0.271204 0.481619 0.0881821 0.11398 0.31831 0.312142 -0.14546 -0.149093 -0.193858
439 -0.183471 0.458611 -0.272869 -0.0472856 0.22103 0.0722052 0.07884 -0.365865 0.0174644 -0.273874 0.411954 -0.365794 -0.251187 -0.288353 -0.688369 0.224713 0.406037 0.086417 0.0830933 0.299074 0.314001 -0.1527 -0.14066 -0.153061
226 -0.10068 0.261794 -0.145842 -0.0241794 0.144145 0.0580166 0.05781 -0.201255 0.032343 -0.140567 0.215459 -0.21257 -0.143151 -0.164625 -0.372522 0.118034 0.243036 0.0341752 0.0362464 0.165876 0.163754 -0.0848511 -0.0594968 -0.0920535
270 -0.0866996 0.24027 -0.135551 0.00480932 0.144753 0.0419012 0.0415062 -0.18384 0.00623806 -0.160005 0.212844 -0.186673 -0.117719 -0.156031 -0.351867 0.145444 0.211514 0.0640552 0.0362261 0.140134 0.136193 -0.0807806 -0.0755599 -0.104897
55 -0.125106 0.33803 -0.168207 0.00035978 0.142891 0.0393315 0.072698 -0.260163 -0.0106987 -0.186536 0.288096 -0.277599 -0.160569 -0.202569 -0.477664 0.161338 0.319902 0.0482674 0.0545347 0.201566 0.207407 -0.0998675 -0.100162 -0.113617
1775 -0.0355775 0.0612277 -0.0445636 -0.0176407 0.0246137 -0.00498243 0.0364851 -0.0215517 -0.00165978 -0.0516153 0.0311006 -0.0266499 -0.00423748 -0.0233935 -0.0982436 0.0206459 0.066323 0.0303904 0.0192361 0.0504614 0.0316487 -0.0316346 -0.0168523 -0.0188862
317 -0.214876 0.464649 -0.259806 -0.0195598 0.277708 0.102714 0.110993 -0.40406 0.0439264 -0.330294 0.41782 -0.39071 -0.241885 -0.302619 -0.762755 0.253726 0.452245 0.0940794 0.119838 0.318293 0.282898 -0.178039 -0.133225 -0.185884
381 -0.192687 0.429572 -0.241175 -0.00218933 0.236526 0.0681706 0.101987 -0.371088 0.0217084 -0.300488 0.366773 -0.381592 -0.227022 -0.294741 -0.650195 0.25804 0.419479 0.0870379 0.0882257 0.26613 0.27739 -0.149615 -0.130627 -0.179992
4557 0.00260091 0.0306832 -0.0376764 -0.0105163 0.0121651 0.0171369 -0.00121705 -0.0245917 -0.0211743 -0.00826989 0.022108 -0.0211682 -0.0252644 -0.032657 -0.0742072 0.0125505 0.0551937 0.00962998 -0.0105368 0.0468632 0.0515773 -0.00981108 0.00377577 -0.0362896
476 -0.154454 0.370388 -0.184874 -0.0328117 0.191042 0.0466782 0.0864569 -0.298546 -0.0145872 -0.245279 0.310408 -0.303622 -0.173411 -0.223449 -0.553701 0.215708 0.344519 0.0763813 0.058697 0.252778 0.231749 -0.132555 -0.119481 -0.120767
821 -0.0391532 0.0795865 -0.0637669 0.006334 0.0394696 0.0332104 0.0211452 -0.0788536 -0.00116731 -0.0890118 0.0779018 -0.0676134 -0.038817 -0.0839794 -0.131884 0.0761716 0.0956577 0.0346872 0.0330685 0.0543566 0.0530284 -0.0473206 -0.0159287 -0.0261624
749 -0.183854 0.491867 -0.308137 -0.0145411 0.234921 0.0979118 0.0932606 -0.43468 0.0052039 -0.328189 0.454617 -0.429571 -0.240142 -0.353212 -0.79695 0.291153 0.498235 0.0962904 0.116177 0.344479 0.313693 -0.171346 -0.137443 -0.206381
840 -0.138611 0.336648 -0.188175 -0.00761944 0.167591 0.0485042 0.0888118 -0.276446 0.0461542 -0.244785 0.28578 -0.301559 -0.152272 -0.218237 -0.517827 0.211452 0.330759 0.0770265 0.0732907 0.236697 0.207252 -0.128704 -0.0752974 -0.117995
3512 -0.0301593 0.0371406 -0.00765878 0.00810746 0.0299962 0.0244032 0.0106355 -0.038341 0.00209184 -0.0427176 0.0554569 -0.0407727 -0.0171673 -0.0134892 -0.0969487 0.0116957 0.0573295 0.0212433 0.00707062 0.0382121 0.0389173 0.0027121 -0.00725565 -0.025875
577 -0.243303 0.576344 -0.311019 -0.0388289 0.300401 0.110236 0.1146 -0.450574 0.022585 -0.383101 0.491331 -0.484805 -0.300743 -0.388358 -0.8974 0.298797 0.562923 0.0944925 0.119097 0.353605 0.338703 -0.192523 -0.151342 -0.202062
507 -0.132004 0.240316 -0.130144 0.01101 0.14499 0.0451459 0.0583511 -0.226444 0.0296423 -0.181752 0.236667 -0.232707 -0.115075 -0.168062 -0.430805 0.145364 0.239174 0.0511255 0.0670613 0.187067 0.159273 -0.0689921 -0.0657952 -0.112329
761 -0.00566852 0.0382049 -0.0383279 0.00342647 0.04461 0.000573546 0.0157351 -0.0524936 0.0081008 -0.012636 0.0470278 -0.0498269 -0.0085055 -0.0201598 -0.0878192 0.0238062 0.0574512 -0.00926876 0.0224634 0.0169881 0.00974781 0.0036873 -0.0239502 -0.00353966
304 -0.187084 0.434901 -0.253046 0.00753725 0.232545 0.0825214 0.110193 -0.372784 0.0455598 -0.303307 0.372597 -0.39889 -0.21393 -0.323807 -0.719534 0.243924 0.425234 0.0795545 0.114028 0.313734 0.277878 -0.137029 -0.125957 -0.201521
332 -0.14458 0.364386 -0.207216 -0.00756994 0.179265 0.0629324 0.0644409 -0.308876 0.00677932 -0.253301 0.323678 -0.336341 -0.209576 -0.270933 -0.575888 0.214271 0.357048 0.0792027 0.0950431 0.227741 0.231109 -0.112669 -0.140932 -0.157577
45 -0.0775954 0.189669 -0.122399 -0.0132151 0.121494 0.019338 0.0379959 -0.172099 0.00136566 -0.128648 0.174841 -0.160191 -0.0874661 -0.133019 -0.326592 0.125613 0.182376 0.0579627 0.0700574 0.111394 0.118895 -0.0876602 -0.0621107 -0.102444
160 -0.128345 0.295545 -0.168801 -0.0346569 0.131209 0.0702368 0.0375822 -0.27302 -3.80256e-06 -0.188454 0.260089 -0.245116 -0.161437 -0.192524 -0.469111 0.157676 0.30411 0.0659452 0.04301 0.205271 0.194154 -0.119614 -0.10415 -0.107551
1916 -0.0517717 0.0612275 -0.0334022 0.00127398 0.0490362 -0.00124935 0.0371208 -0.0655521 0.00855522 -0.0600179 0.0556042 -0.0575057 -0.0183434 -0.0440846 -0.10139 0.032544 0.0523382 0.0310423 0.0280435 0.0641544 0.0340578 -0.0111391 -0.0345598 -0.0441301
828 -0.122103 0.347793 -0.217764 -0.0288406 0.158525 0.0414586 0.077025 -0.299893 0.0267553 -0.215604 0.302096 -0.310507 -0.192015 -0.250698 -0.552094 0.17956 0.337743 0.0905194 0.0449592 0.244223 0.240237 -0.106153 -0.106101 -0.124465
1725 -0.0409768 0.0812714 -0.0596183 0.0155648 0.0247279 0.013077 0.0251422 -0.0718507 0.0171397 -0.0675346 0.0724874 -0.0726828 -0.049733 -0.0660233 -0.133805 0.0275649 0.0768085 0.0369156 0.0153693 0.0626194 0.0640979 -0.033902 -0.0149029 -0.0137983
627 -0.023156 0.228874 -0.100997 -0.0281847 0.040263 0.0494389 -0.00763327 -0.194923 -0.0595977 -0.0889024 0.184558 -0.182397 -0.133516 -0.120346 -0.288444 0.0540624 0.184187 0.0152868 0.024244 0.129539 0.152243 -0.0768621 -0.0817318 -0.0600221
272 0.0127727 0.215995 -0.0963745 -0.0531726 -0.0351635 0.0101284 -0.0659046 -0.238685 -0.102119 -0.032218 0.200653 -0.123704 -0.193633 -0.099995 -0.217219 -0.00317635 0.192838 0.0173843 -0.0322664 0.104333 0.221072 -0.0730202 -0.154196 -0.0115009
6252 -0.0132221 0.0480717 -0.0231063 0.00453034 0.0194827 0.00478802 0.000165776 -0.0453476 0.0148388 -0.0274389 0.031141 -0.042684 -0.045093 -0.0356322 -0.100498 0.0347766 0.0579654 0.0277124 0.0267867 0.0400045 0.0451786 -0.00200692 -0.035279 -0.0174281
447 -0.0868093 0.237198 -0.14426 -0.014821 0.108868 0.0615106 0.0690987 -0.194288 0.0211224 -0.170832 0.239725 -0.193198 -0.138556 -0.188868 -0.390373 0.137927 0.237294 0.0480534 0.0401491 0.154384 0.173241 -0.103412 -0.0814157 -0.105465
147 -0.0666508 0.150971 -0.0866566 -0.0112122 0.0920944 0.0399907 0.0293093 -0.136895 0.00536819 -0.100417 0.152905 -0.124592 -0.0917101 -0.119291 -0.23353 0.0966838 0.13879 0.0448457 0.0488744 0.0848429 0.0886751 -0.0392013 -0.043348 -0.0572845
3197 -0.0443514 0.122823 -0.0733393 -0.0175356 0.0734591 0.0147759 0.0248914 -0.102581 0.000920892 -0.0976704 0.118726 -0.110677 -0.0648689 -0.0823978 -0.170078 0.052856 0.11461 0.00470361 0.0215998 0.0980907 0.0766325 -0.0399895 -0.0317561 -0.0417149
719 -0.119176 0.284252 -0.154868 -0.0142546 0.139768 0.0463538 0.067096 -0.243875 -0.000755279 -0.210999 0.27783 -0.255421 -0.145928 -0.19602 -0.483532 0.162964 0.267518 0.0814143 0.0724769 0.215544 0.201264 -0.0897597 -0.081416 -0.10684
655 -0.149824 0.330916 -0.214961 0.00618406 0.178311 0.0637994 0.105918 -0.292988 0.0260182 -0.225184 0.28972 -0.305432 -0.173716 -0.248005 -0.552248 0.225928 0.357058 0.076567 0.0707771 0.249011 0.209042 -0.138983 -0.0943691 -0.144953
2597 -0.0304468 0.0594172 -0.0431309 0.00712995 0.0380666 0.0281364 0.0126211 -0.0627766 0.0113987 -0.0572054 0.0570218 -0.0580353 -0.0388029 -0.0478245 -0.133082 0.0363556 0.0604493 0.012502 0.0251412 0.0592472 0.0301613 -0.0394289 -0.0127397 -0.012521
2325 -0.0828685 0.196385 -0.122698 -0.0196321 0.0861362 0.0277982 0.056278 -0.160836 -0.0110756 -0.117257 0.152346 -0.144044 -0.0794894 -0.111219 -0.260948 0.0847342 0.168364 0.0394903 0.0348636 0.136091 0.113415 -0.0437877 -0.042157 -0.0658903
3849 -0.046847 0.0786263 -0.0362572 -0.0038351 0.0499427 0.00722544 0.0141956 -0.0408953 0.0234784 -0.0608156 0.0675725 -0.0633688 -0.0321029 -0.0469332 -0.108165 0.0419605 0.056462 0.0155836 0.0383664 0.0363337 0.044568 -0.0384418 -0.0211949 -0.0489207
455 -0.0703419 0.164273 -0.0997209 -0.0108338 0.10091 0.0319586 0.0508814 -0.142807 -0.00604216 -0.0880207 0.142484 -0.139413 -0.078574 -0.0938866 -0.238755 0.0993341 0.131708 0.0256987 0.0507787 0.100965 0.0779422 -0.0366545 -0.0612039 -0.0573774
151 -0.0663714 0.16219 -0.0684948 0.00695012 0.0893279 0.0158723 0.0507894 -0.105816 0.0254696 -0.110156 0.112421 -0.110194 -0.0895316 -0.109711 -0.221531 0.0947228 0.147098 0.0486659 0.0413067 0.0829452 0.0770903 -0.0328201 -0.0598464 -0.0492909
1526 -0.032536 0.0569068 -0.0314139 -0.00671858 0.0300675 0.0189404 0.0103225 -0.0665093 -0.00871119 -0.0587433 0.0317318 -0.0500149 -0.0334774 -0.0548523 -0.091597 0.0292196 0.0725512 0.0274974 -0.00337483 0.0354141 0.0428088 -0.0232535 -0.0041574 -0.0376565
308 -0.213201 0.443246 -0.261509 -0.0267078 0.240059 0.0736035 0.106169 -0.388733 0.0282005 -0.333768 0.420857 -0.385175 -0.210566 -0.318428 -0.73775 0.256145 0.464537 0.115126 0.119193 0.301249 0.305079 -0.136197 -0.151185 -0.185437
495 -0.15734 0.323205 -0.176463 -0.0228533 0.21052 0.0651055 0.107432 -0.289712 0.0521983 -0.220123 0.287024 -0.307285 -0.14157 -0.252478 -0.52369 0.18033 0.344424 0.0791197 0.0939042 0.232669 0.218911 -0.125135 -0.079409 -0.149219
506 -0.117413 0.261542 -0.149034 -0.0147443 0.157854 0.0639834 0.0667575 -0.234679 0.0230077 -0.165854 0.217736 -0.239799 -0.12505 -0.191711 -0.422742 0.131524 0.261159 0.0406942 0.0514829 0.188176 0.156886 -0.101905 -0.0608434 -0.112867
578 -0.112403 0.294776 -0.159919 -0.0270114 0.144005 0.0395839 0.0746453 -0.268672 0.00615653 -0.206868 0.279429 -0.255882 -0.175884 -0.211336 -0.48148 0.17424 0.304721 0.0438706 0.0752006 0.19942 0.202454 -0.123182 -0.108933 -0.118181
3640 -0.0432578 0.0506039 -0.0362979 0.00355141 0.0590657 -0.0030959 0.0190429 -0.0142831 0.0255376 -0.0640615 0.0410713 -0.0320713 -0.0183206 -0.0258389 -0.0968334 0.0620917 0.0598672 0.0138552 0.0258135 0.0442982 -0.00294593 -0.0146087 0.0105381 -0.0315931
825 -0.227185 0.589524 -0.321276 -0.0103709 0.311726 0.11689 0.114215 -0.476512 0.0409668 -0.396988 0.509259 -0.501184 -0.297777 -0.402357 -0.892372 0.340968 0.544486 0.139651 0.135254 0.38977 0.364615 -0.215882 -0.191675 -0.215608
540 -0.081844 0.157395 -0.107171 -0.014039 0.100979 0.0471908 0.0524037 -0.119254 0.000172561 -0.11907 0.131142 -0.140177 -0.0786608 -0.104085 -0.27869 0.114321 0.150034 0.0460679 0.058123 0.1109 0.11863 -0.0368097 -0.0570477 -0.0832662
1398 -0.0330446 0.0890649 -0.0799735 -0.00374105 0.0422981 0.0150212 0.0096803 -0.107991 0.0221622 -0.0762109 0.104762 -0.0918589 -0.0361383 -0.0916427 -0.147881 0.0624911 0.113766 0.00287128 0.0291032 0.0499974 0.0645794 -0.0359667 -0.036462 -0.0533202
1396 -0.0517976 0.138326 -0.0574156 -0.00853277 0.0811557 0.0415605 0.024921 -0.108355 0.00459752 -0.0807378 0.111207 -0.117224 -0.0706846 -0.10052 -0.189007 0.0633836 0.129135 0.0208001 0.0444465 0.0997777 0.0979527 -0.0403379 -0.026102 -0.0435286
1397 -0.0492804 0.12302 -0.086156 -0.00116677 0.072003 0.0231955 0.054401 -0.0792561 0.00959652 -0.0970927 0.0884155 -0.107654 -0.0529578 -0.064538 -0.189475 0.0631919 0.11224 0.0163806 0.0498306 0.0873465 0.0559689 -0.0398359 -0.0418321 -0.0367991
1052 -0.150978 0.453328 -0.261813 -0.0321637 0.219169 0.0795176 0.0921484 -0.363919 0.019974 -0.255712 0.389257 -0.38099 -0.236675 -0.298376 -0.686304 0.242512 0.406728 0.1095 0.0983589 0.302642 0.289482 -0.157015 -0.145056 -0.147128
735 -0.121813 0.304977 -0.179584 -0.00791948 0.154997 0.0630353 0.0676808 -0.271989 0.00488558 -0.197695 0.282776 -0.257457 -0.138206 -0.228928 -0.472582 0.168322 0.312507 0.0618812 0.080707 0.181231 0.193058 -0.110044 -0.0775569 -0.107556
1382 -0.0859353 0.213772 -0.131073 -0.000373144 0.119838 0.0233146 0.0685128 -0.180314 -0.00890416 -0.143465 0.186631 -0.203422 -0.116231 -0.157141 -0.341844 0.141701 0.205957 0.0407357 0.0660067 0.152686 0.128992 -0.0651673 -0.0591086 -0.0709947
2267 -0.0452187 0.0460546 -0.03509 -0.0138988 0.0444838 -0.000927665 0.0351468 -0.0349233 0.0256219 -0.0446384 0.0539677 -0.0389994 -0.0458043 -0.0554312 -0.105556 0.0534265 0.0750089 0.00205742 0.00195598 0.0412411 0.0460263 -0.0314473 -0.00717443 -0.0122628
1963 -0.0390172 0.0899819 -0.0414021 -0.0249131 0.0499834 0.0228427 0.0105955 -0.0939159 0.00197274 -0.0557735 0.0757196 -0.0760136 -0.0276366 -0.0388645 -0.14774 0.0347741 0.091034 0.0386277 0.00511698 0.0479989 0.067624 -0.0438087 -0.0106444 -0.0263787
4334 -0.00489258 0.0595591 -0.0308822 -0.00933175 0.0440183 0.0259148 0.0135618 -0.0302603 -0.00606098 -0.0254616 0.0316773 -0.0345441 -0.0127567 -0.0325492 -0.0865594 0.0123851 0.0729719 0.0108668 0.0152871 0.0396204 0.0587292 -0.00467675 -0.00971234 -0.00343084
622 -0.128994 0.292867 -0.154115 -0.0303427 0.158564 0.0376022 0.0631798 -0.252715 0.00907157 -0.1929 0.267453 -0.232549 -0.140989 -0.181013 -0.439655 0.179275 0.283394 0.0422439 0.0584849 0.170545 0.1797 -0.081571 -0.070952 -0.113474
266 -0.0334826 0.128624 -0.079782 -0.0101837 0.0659388 0.0306782 0.0445592 -0.0963532 0.0195418 -0.0886026 0.111724 -0.132238 -0.0679988 -0.0827434 -0.190348 0.0925551 0.126455 0.0455338 0.0206043 0.0707839 0.0719725 -0.0385903 -0.0581817 -0.0614053
3123 -0.0292336 0.0621814 -0.0281842 -0.00637377 0.0182048 0.0176657 0.00136913 -0.0665752 -0.0106871 -0.0232161 0.0644014 -0.0556013 -0.0221916 -0.0643564 -0.1145 0.0189649 0.0459656 0.0312157 0.0270331 0.0620294 0.0436738 -0.0388961 -0.0407059 -0.038542
1024 -0.133601 0.275138 -0.177087 -0.0126747 0.147322 0.0358429 0.0821832 -0.231279 0.0176557 -0.161747 0.226476 -0.231515 -0.141664 -0.206779 -0.428754 0.168648 0.247912 0.0726813 0.0735581 0.189748 0.177244 -0.0963907 -0.0903441 -0.094345
681 -0.12221 0.296926 -0.16791 -0.0275061 0.123046 0.0486899 0.0359897 -0.236412 -0.0152416 -0.18145 0.239968 -0.222256 -0.173554 -0.171152 -0.416118 0.130804 0.283628 0.03823 0.0301344 0.163515 0.190257 -0.0934985 -0.0760832 -0.0957708
3623 -0.0415814 0.165882 -0.100905 -0.0169356 0.0713897 0.0197997 0.0272062 -0.141908 0.019716 -0.117785 0.120005 -0.144336 -0.0801878 -0.100794 -0.234551 0.0685573 0.129037 0.0303264 0.0339733 0.0937607 0.101048 -0.0373633 -0.0331807 -0.0752244
499 -0.138886 0.324707 -0.187252 0.0139014 0.182083 0.0696285 0.0959119 -0.274283 0.022661 -0.245873 0.27922 -0.282197 -0.170585 -0.225134 -0.536486 0.215826 0.312285 0.0638563 0.0900951 0.229532 0.209245 -0.12485 -0.0761213 -0.154365
3315 -0.0618284 0.158853 -0.0624064 -0.0161555 0.0919936 0.043958 0.0338149 -0.120367 0.0270083 -0.0991416 0.120608 -0.134444 -0.0539807 -0.081576 -0.208141 0.0823702 0.12705 0.0127576 0.0114293 0.0798275 0.106712 -0.0275655 -0.0502706 -0.0369796
1470 -0.0525767 0.126277 -0.0803076 -0.0013642 0.0773484 0.00652488 0.0183799 -0.0668538 0.0171719 -0.0800554 0.103104 -0.0904773 -0.0589593 -0.0806732 -0.188326 0.0832288 0.0944288 0.0472177 0.0252321 0.095406 0.0688864 -0.0580987 -0.0140144 -0.0668794
2508 -0.157584 0.387965 -0.217022 -0.0274392 0.185643 0.0740523 0.0905684 -0.345833 0.0422851 -0.254089 0.340479 -0.345877 -0.190556 -0.265038 -0.62123 0.212117 0.363721 0.0727792 0.0735142 0.273776 0.259267 -0.149262 -0.120092 -0.157683
1977 -0.0452811 0.104316 -0.034832 0.013004 0.0530008 0.0163437 0.0244734 -0.0719432 0.00809203 -0.0620425 0.0609669 -0.0981255 -0.0432316 -0.0624827 -0.166985 0.0747573 0.0839933 0.0135002 0.0182695 0.0489198 0.0412293 -0.0488542 -0.000244547 -0.0264427
3107 -0.0180212 0.102752 -0.0629861 -0.00574974 0.034877 0.0322156 0.00860913 -0.0690763 -0.00966403 -0.0658623 0.0914686 -0.0876357 -0.0603436 -0.0404791 -0.146031 0.0312375 0.0705691 0.0230428 0.0155331 0.0649067 0.0597445 -0.0350525 -0.038553 -0.0295512
569 -0.0408097 0.154953 -0.088011 -0.0337782 0.0297816 0.0314134 0.00772473 -0.150094 -0.0332482 -0.0683655 0.158645 -0.12576 -0.107205 -0.103857 -0.196476 0.0375259 0.118001 0.0109088 0.00438209 0.085569 0.143485 -0.0591847 -0.0769594 -0.0329536
241 0.047774 0.171115 -0.0809306 -0.0575217 -0.0367745 0.0115105 -0.0696797 -0.223711 -0.124614 0.00644389 0.178187 -0.115928 -0.203295 -0.0977477 -0.176727 0.015607 0.169502 -0.000289697 -0.0619326 0.110286 0.202434 -0.0742472 -0.145138 -0.00536643
1351 -0.142334 0.304923 -0.166119 -0.00802675 0.157591 0.0383668 0.0787108 -0.229799 0.0115199 -0.181079 0.26657 -0.262302 -0.164597 -0.1824 -0.45834 0.157081 0.289872 0.0590695 0.0810523 0.203569 0.170169 -0.0998081 -0.0951654 -0.108594
1568 -0.0924323 0.197347 -0.118447 0.00236875 0.0868085 0.0299571 0.0509548 -0.173071 0.0235113 -0.131137 0.149195 -0.17369 -0.109844 -0.120576 -0.303745 0.0964813 0.19486 0.0469057 0.0273241 0.110689 0.0987135 -0.0663084 -0.0771869 -0.0876778
964 -0.126522 0.361327 -0.219986 0.0050873 0.186257 0.0571705 0.061706 -0.309103 0.020553 -0.246489 0.33299 -0.305264 -0.165142 -0.235491 -0.556688 0.194834 0.344727 0.0549896 0.057839 0.233166 0.221035 -0.1394 -0.124789 -0.149093
2966 -0.0510822 0.0666535 -0.0354835 0.00698873 0.0650982 0.0256202 0.0124083 -0.0537071 0.0135252 -0.036044 0.0762221 -0.0752267 -0.0303748 -0.0376477 -0.109075 0.0506946 0.0877492 0.0233391 0.0323073 0.047008 0.0613981 -0.0336026 -0.00164086 -0.0143668
474 -0.258192 0.54058 -0.301727 -0.012287 0.289455 0.0987094 0.0911754 -0.473854 0.0152075 -0.380306 0.496976 -0.517992 -0.268068 -0.404512 -0.894118 0.320596 0.51941 0.133957 0.153438 0.370743 0.362611 -0.201995 -0.179296 -0.187801
467 -0.194817 0.483164 -0.275353 -0.0125092 0.231526 0.0671242 0.116551 -0.403141 0.0056419 -0.280974 0.418679 -0.368834 -0.249536 -0.320264 -0.725005 0.255951 0.463198 0.100344 0.0909799 0.321441 0.271648 -0.155336 -0.137264 -0.193716
518 -0.100354 0.275717 -0.175476 0.00544075 0.162212 0.0506821 0.0540597 -0.256159 0.031196 -0.209426 0.270506 -0.239394 -0.141282 -0.219018 -0.468393 0.174434 0.2962 0.043045 0.0474614 0.210652 0.173898 -0.119561 -0.084081 -0.118779
330 -0.0732392 0.135055 -0.0700374 -0.00380606 0.0803611 0.0164642 0.0653756 -0.125568 0.0173715 -0.122163 0.141698 -0.116588 -0.0448124 -0.0951192 -0.274113 0.0951955 0.154438 0.0342522 0.0251647 0.100021 0.0647738 -0.0550231 -0.0256341 -0.0843432
294 -0.0827967 0.155097 -0.0778379 -0.0225492 0.100127 0.0457219 0.0377276 -0.111189 0.0297043 -0.113365 0.158393 -0.12623 -0.0784179 -0.102383 -0.254929 0.0743012 0.139129 0.025061 0.0298091 0.108918 0.102163 -0.0585945 -0.0473152 -0.0497237
314 -0.165672 0.375209 -0.219734 -0.00499389 0.196813 0.0556946 0.0674129 -0.311206 0.0311257 -0.240054 0.338663 -0.29104 -0.193761 -0.264889 -0.571887 0.209213 0.327464 0.0563577 0.0653024 0.226271 0.21246 -0.118753 -0.0982103 -0.141376
588 -0.0328247 0.123783 -0.0666673 -0.0120957 0.0861668 0.0108659 0.0161249 -0.115037 0.00826044 -0.103181 0.123343 -0.0971013 -0.0796543 -0.0758479 -0.212883 0.0558651 0.107741 0.0217047 0.0128272 0.0885425 0.0797106 -0.0631109 -0.0354787 -0.0462776
6913 -0.0105733 0.0354874 -0.00955319 -0.00973874 0.0334926 0.0188094 0.0212022 -0.0597168 0.00955835 -0.0175539 0.0243549 -0.0231015 -0.00856925 -0.0217437 -0.0875269 0.0340689 0.0529585 0.0181406 0.00900458 0.048916 0.0231578 -0.0325215 -0.027204 -0.0358831
427 -0.0625162 0.162276 -0.0881117 0.00203188 0.106998 0.0446491 0.0584489 -0.143547 0.00131216 -0.117817 0.13738 -0.166819 -0.0784239 -0.110138 -0.267528 0.110241 0.167917 0.0526959 0.0212895 0.122684 0.102819 -0.0435987 -0.0333524 -0.0782416
5680 -0.0463598 0.0494666 -0.0326668 0.00367569 0.0342626 0.0124284 0.0339686 -0.0398697 0.018624 -0.0321201 0.050782 -0.031821 -0.0216997 -0.0558494 -0.071152 0.0210317 0.0515578 0.000119177 0.0233216 0.0264503 0.0213671 -0.0264772 -0.031824 -0.0170115
586 -0.148569 0.325376 -0.187165 -0.0143298 0.159284 0.0598075 0.0745499 -0.260918 0.0175172 -0.209815 0.305381 -0.280696 -0.151803 -0.208491 -0.506124 0.169451 0.308064 0.0678077 0.0739485 0.203489 0.201939 -0.121571 -0.0942724 -0.137275
249 -0.125481 0.250696 -0.12203 0.000209611 0.154052 0.0519719 0.0532543 -0.18906 0.0410122 -0.174622 0.195222 -0.196927 -0.108454 -0.152283 -0.386623 0.143892 0.249342 0.0398 0.0636373 0.152898 0.145626 -0.0688113 -0.0799615 -0.102235
1921 -0.0772202 0.178296 -0.107334 0.00574015 0.0854696 0.0475468 0.0337825 -0.149103 -0.00279314 -0.107034 0.165505 -0.129598 -0.0745865 -0.123668 -0.265815 0.0760619 0.174426 0.0285457 0.0415709 0.097442 0.117914 -0.0359881 -0.0711114 -0.045016
5467 -0.0468785 0.0968038 -0.0462369 -0.0144645 0.0702804 0.0133631 0.0107022 -0.095022 0.0264057 -0.0721158 0.105278 -0.0964936 -0.0740765 -0.0952007 -0.172694 0.0852859 0.125256 0.027166 0.0256459 0.0946229 0.0638218 -0.0354058 -0.0308263 -0.0590114
5438 -0.0794587 0.153656 -0.0715127 0.0068298 0.0691655 0.0244649 0.0560448 -0.11955 0.00718438 -0.114048 0.137239 -0.141233 -0.0695338 -0.0990617 -0.243157 0.0928955 0.162997 0.0270771 0.0185923 0.0954933 0.0728949 -0.0325787 -0.0442079 -0.0435332
431 -0.0832387 0.430619 -0.26616 -0.108631 0.122452 0.0368141 -0.0257236 -0.405515 -0.0909712 -0.177312 0.444445 -0.356239 -0.332737 -0.304059 -0.575902 0.170679 0.430964 0.0636921 -0.0225019 0.262799 0.356434 -0.115634 -0.188326 -0.0853472
133 0.0233733 0.471845 -0.280125 -0.140881 -0.0561093 0.066547 -0.158579 -0.524398 -0.243466 -0.0647864 0.476314 -0.350073 -0.408475 -0.27 -0.506951 0.0668728 0.398087 0.057075 -0.0960206 0.285769 0.490516 -0.140513 -0.304222 -0.0417716
174 0.0318669 0.0652746 -0.0508636 -0.0374858 -0.0415342 -0.00681471 -0.0564273 -0.0881196 -0.0764015 0.0487172 0.0892898 -0.0485912 -0.103154 -0.0261235 -0.0228039 -0.0228876 0.0424027 -0.00405154 -0.026968 0.0335916 0.113643 -0.0150532 -0.083177 0.030175
3009 -0.0292332 0.0543353 -0.00907704 -0.0110736 0.0380697 0.0270348 0.0241901 -0.0428253 -0.00239223 -0.0182292 0.0178526 -0.0505751 -0.0247669 -0.0418788 -0.0790679 0.017238 0.0233828 0.0100056 -0.00827674 0.0154105 0.0375732 -0.0254719 -0.0302188 -0.0357359
348 -0.135889 0.478683 -0.268302 -0.0783747 0.177451 0.0789524 0.0386889 -0.483478 -0.0628425 -0.269543 0.44681 -0.400165 -0.308517 -0.322741 -0.72987 0.187817 0.484745 0.0888997 0.0345908 0.332028 0.384203 -0.151943 -0.219526 -0.120745
62 -0.178462 0.521843 -0.306398 -0.0548946 0.258824 0.085043 0.108428 -0.431641 0.0223476 -0.3303 0.429477 -0.405357 -0.272542 -0.352783 -0.765594 0.268259 0.517228 0.120052 0.0789931 0.348423 0.355823 -0.174282 -0.150328 -0.213882
1581 -0.0473847 0.121784 -0.0677051 -0.00423116 0.0579493 0.0387494 0.0292328 -0.109265 0.0202243 -0.0939026 0.0976556 -0.0829489 -0.0703404 -0.0841906 -0.175642 0.0692945 0.109411 0.00678166 0.0202411 0.0777902 0.0813876 -0.0272974 -0.0271918 -0.0393877
1582 -0.0376349 0.160137 -0.0833351 -0.0130949 0.0709595 0.0235942 0.0276066 -0.105296 0.0152993 -0.113922 0.110158 -0.0999407 -0.08459 -0.110552 -0.215081 0.0676326 0.13892 0.0498116 0.0102772 0.0722859 0.0832326 -0.0419839 -0.0347051 -0.0637068
1377 -0.165061 0.403527 -0.207059 -0.0434681 0.179859 0.066022 0.079467 -0.34981 -0.0135577 -0.252 0.375403 -0.320941 -0.208092 -0.247096 -0.617251 0.196094 0.390444 0.0694821 0.0659113 0.239619 0.25914 -0.11692 -0.138813 -0.134606
656 -0.15091 0.406349 -0.2418 -0.0100287 0.210097 0.0787116 0.0995198 -0.334614 0.00932204 -0.243219 0.365968 -0.349682 -0.214754 -0.278489 -0.619284 0.228207 0.372453 0.0885485 0.0927761 0.266992 0.265791 -0.114878 -0.112021 -0.143454
852 -0.183899 0.404947 -0.232102 -0.0368671 0.211871 0.0929529 0.10592 -0.368524 0.0398437 -0.283038 0.378723 -0.356889 -0.216095 -0.304282 -0.668613 0.252122 0.408485 0.0786231 0.0972346 0.269334 0.263955 -0.138329 -0.107703 -0.150353
729 -0.216228 0.530229 -0.297687 0.00245696 0.270284 0.0771148 0.131049 -0.448336 0.0188251 -0.364636 0.455434 -0.448166 -0.254961 -0.360749 -0.835373 0.321759 0.499303 0.109679 0.113097 0.342124 0.342066 -0.195792 -0.175708 -0.190093
1065 -0.119124 0.285416 -0.163924 -0.0226851 0.146813 0.0552566 0.048341 -0.219741 -0.00290608 -0.164978 0.253299 -0.228318 -0.156553 -0.196056 -0.425588 0.134617 0.247631 0.044511 0.0487287 0.156597 0.168469 -0.0777361 -0.104297 -0.0814977
1063 -0.0559783 0.160193 -0.115536 -0.0190591 0.103323 0.0220076 0.0194791 -0.16387 0.00914318 -0.0903204 0.171887 -0.124439 -0.0737805 -0.103108 -0.267388 0.0746168 0.169072 0.0286508 0.025884 0.120262 0.0948353 -0.0722189 -0.0541706 -0.0466838
846 -0.129932 0.341491 -0.201467 0.00544429 0.184271 0.0552635 0.0807731 -0.280343 0.00380508 -0.199237 0.271268 -0.261349 -0.17572 -0.222426 -0.519467 0.162048 0.312599 0.0663262 0.0621308 0.216068 0.202536 -0.106621 -0.086641 -0.116909
792 -0.0415169 0.100449 -0.0591972 0.0110099 0.0432799 0.0124509 0.00134751 -0.0921595 0.00848075 -0.0773932 0.0951592 -0.0846162 -0.069058 -0.0643025 -0.173123 0.059734 0.0864807 0.0238037 0.0190151 0.0758923 0.0511134 -0.0394158 -0.0224524 -0.0260517
851 -0.0640986 0.107194 -0.0504382 -0.001595 0.0462508 0.0368201 0.00673707 -0.11285 0.000594016 -0.0835365 0.0867567 -0.0739359 -0.0582161 -0.0794542 -0.174563 0.0745206 0.114972 0.0285754 0.00943374 0.0533145 0.0870155 -0.0243394 -0.0456269 -0.040048
2133 -0.0211955 0.0624192 -0.0267434 -0.0240672 0.0217228 0.0129596 0.0148905 -0.0585674 -0.00773937 -0.0591862 0.0594899 -0.0456115 -0.030127 -0.0341225 -0.124641 0.054791 0.0717808 0.0256798 0.0110832 0.0257957 0.0251362 -0.0368009 -0.0398628 -0.0180136
277 0.0330531 0.237905 -0.146433 -0.0696809 -0.0103114 0.00526385 -0.0744128 -0.266281 -0.131804 -0.0464441 0.258546 -0.162924 -0.242878 -0.144682 -0.264968 0.0385794 0.220333 0.00219718 -0.027649 0.113525 0.260126 -0.0873715 -0.168882 0.00274732
1937 -0.112573 0.267157 -0.152138 0.00359329 0.133408 0.0596089 0.0552102 -0.242763 -0.00589073 -0.174644 0.241746 -0.21728 -0.143529 -0.162981 -0.411558 0.12508 0.270009 0.0693532 0.0411709 0.183999 0.183626 -0.0897814 -0.0849929 -0.106883
693 -0.120009 0.337032 -0.189269 -0.0168003 0.181463 0.0536965 0.089118 -0.287832 0.0355301 -0.202833 0.300071 -0.272818 -0.167188 -0.228931 -0.506807 0.172065 0.325526 0.0884413 0.0668224 0.212073 0.213757 -0.107229 -0.113085 -0.12829
643 -0.131263 0.314889 -0.153352 -0.031572 0.143717 0.0696368 0.0577327 -0.233121 0.00963756 -0.172782 0.276692 -0.238631 -0.150632 -0.195248 -0.436866 0.154836 0.285457 0.0513554 0.0735668 0.20795 0.188955 -0.0800288 -0.0871324 -0.114226
140 -0.057177 0.107072 -0.0350211 0.0121871 0.0610424 0.00322549 0.0576884 -0.085249 0.035655 -0.0977664 0.0729258 -0.0788745 -0.0290897 -0.0608036 -0.174931 0.0845488 0.105312 0.0127908 0.0397776 0.060644 0.0522518 -0.0456191 -0.0267406 -0.0353947
53 -0.0990058 0.247418 -0.13284 0.0207668 0.164023 0.0552589 0.0783925 -0.194795 0.0427489 -0.184448 0.234253 -0.200898 -0.108169 -0.162715 -0.405571 0.167532 0.227762 0.0472127 0.0649907 0.150051 0.154398 -0.0845917 -0.065581 -0.103174
85 -0.0948329 0.227951 -0.159869 -0.0362062 0.107156 0.0576348 0.0323294 -0.213162 -0.00580656 -0.161819 0.228643 -0.213268 -0.119449 -0.159971 -0.368171 0.143986 0.245492 0.0688434 0.0591849 0.147256 0.16126 -0.0964765 -0.0787659 -0.0744229
2583 -0.058556 0.0560646 -0.0279788 -0.00699574 0.0333394 0.0250466 0.0128809 -0.0574882 1.85044e-05 -0.0610248 0.0459918 -0.0525308 -0.0191007 -0.0407375 -0.126251 0.0592208 0.063837 0.0123579 0.0367787 0.0592389 0.048511 -0.0360584 -0.0167209 -0.0273894
1610 -0.192446 0.485792 -0.25993 -0.0241496 0.258646 0.0771846 0.103314 -0.414417 0.0332962 -0.318228 0.439644 -0.413153 -0.241371 -0.316851 -0.746401 0.263066 0.480783 0.104982 0.0848042 0.330924 0.303053 -0.167046 -0.154842 -0.193492
1946 -0.076745 0.217274 -0.151924 -0.0304611 0.115336 0.0391881 0.0625156 -0.200083 0.0105689 -0.14968 0.198702 -0.183861 -0.138038 -0.177447 -0.38138 0.126441 0.234343 0.0710195 0.063775 0.168359 0.152845 -0.0659752 -0.0935981 -0.0859314
1920 -0.0997607 0.228206 -0.141488 -0.0246376 0.0926082 0.0433641 0.059218 -0.194346 0.00902072 -0.158083 0.184746 -0.166641 -0.133012 -0.138619 -0.354893 0.101174 0.220463 0.0555592 0.0257751 0.132842 0.139893 -0.0875914 -0.0695033 -0.102511
2773 -0.0752805 0.146594 -0.0965867 0.0123557 0.0881037 0.037099 0.0303269 -0.154284 -0.0058038 -0.117594 0.141423 -0.146014 -0.0803536 -0.103699 -0.275115 0.0983522 0.170569 0.029731 0.013071 0.121228 0.098503 -0.0476665 -0.0470195 -0.0692575
3006 -0.038087 0.148502 -0.0814677 0.00554663 0.0660806 0.0080359 0.0346841 -0.109137 0.0201763 -0.0716411 0.100735 -0.10795 -0.082454 -0.102201 -0.189169 0.0701014 0.121655 0.0168781 0.0423299 0.0932628 0.0943945 -0.063534 -0.0247148 -0.0490881
1786 -0.0969102 0.239484 -0.115025 0.0144904 0.154744 0.033 0.0812334 -0.171039 0.0483101 -0.164276 0.2081 -0.187734 -0.0876045 -0.16923 -0.365142 0.123555 0.213466 0.0538062 0.0508801 0.146605 0.135198 -0.0890636 -0.0406042 -0.0834742
1877 -0.0335005 0.074175 -0.0417986 0.0159805 0.025513 0.0105951 0.00711764 -0.0702848 -0.00663869 -0.0506041 0.068021 -0.0866573 -0.0289571 -0.0647344 -0.124225 0.0628872 0.0671568 0.0370199 0.0116227 0.0767721 0.0580905 -0.0231585 -0.0186209 -0.0351104
445 -0.135163 0.270288 -0.161551 0.010909 0.134545 0.0483104 0.0777814 -0.256744 0.0311285 -0.180839 0.250981 -0.237073 -0.141197 -0.216602 -0.468882 0.176247 0.261604 0.0559288 0.0645067 0.210243 0.162103 -0.106697 -0.0920812 -0.0968468
614 -0.14581 0.331112 -0.188386 -0.017231 0.192479 0.0641891 0.0899233 -0.257054 0.0238382 -0.20366 0.284209 -0.275331 -0.164859 -0.209665 -0.534685 0.183081 0.298739 0.0663654 0.0887711 0.206715 0.223377 -0.131357 -0.0940769 -0.125295
424 -0.0631438 0.102684 -0.0569616 0.00792863 0.0621369 0.0165445 0.0249051 -0.0816015 -0.00752077 -0.0760303 0.0915542 -0.105196 -0.0600913 -0.0678192 -0.166731 0.0605594 0.106705 0.0386196 0.00235401 0.0603418 0.0650573 -0.0292458 -0.0209005 -0.0275035
2222 -0.0158189 0.0625986 -0.043289 0.00376053 0.0352818 0.00529992 0.00424754 -0.0613318 -0.00668149 -0.0412774 0.045322 -0.0384014 -0.0400203 -0.0531726 -0.0710248 0.0307868 0.0646445 0.00197669 0.0106223 0.0202088 0.032012 -0.0159871 -0.00781079 -0.0362073
351 -0.116976 0.237219 -0.148009 -0.0270335 0.136563 0.0590802 0.057523 -0.203093 0.0356163 -0.174316 0.211215 -0.191739 -0.130322 -0.151371 -0.363201 0.123438 0.208937 0.057008 0.049246 0.149442 0.159651 -0.100886 -0.0776425 -0.080768
268 -0.0990443 0.222514 -0.112194 0.00756652 0.109813 0.0383027 0.0335123 -0.171923 0.00928071 -0.124102 0.192192 -0.17272 -0.106346 -0.134664 -0.306576 0.127465 0.197607 0.0625908 0.0227556 0.113445 0.147117 -0.0532635 -0.0702339 -0.0588496
161 -0.0891789 0.252775 -0.127887 -0.019806 0.126953 0.0467361 0.0650561 -0.175335 0.0310547 -0.163288 0.200211 -0.191617 -0.105665 -0.165348 -0.350527 0.149094 0.229276 0.038558 0.050197 0.137089 0.14021 -0.0930543 -0.0544141 -0.0907537
813 -0.00815839 0.0553109 -0.0363039 0.000800655 0.0396114 -0.00620696 0.0149886 -0.0681314 -0.00762294 -0.045253 0.0443845 -0.0659299 -0.0461776 -0.0561876 -0.109837 0.0302339 0.04383 0.0230293 0.0201745 0.0302038 0.0469781 -0.0221852 -0.00101328 -0.0103811
6032 -0.04155 0.0384999 -0.0171111 0.0123631 0.0196614 0.0152131 0.014169 -0.0275001 -0.00687918 -0.0559977 0.0210241 -0.0573286 -0.0298871 -0.0334007 -0.0886237 0.0455574 0.0449751 -0.00768429 0.0155734 0.0182426 0.0102321 -0.00609306 -0.00372065 -0.0395138
565 -0.075847 0.230069 -0.135965 -0.0223625 0.110989 0.0551557 0.0297403 -0.166778 -0.00057168 -0.127082 0.196981 -0.185906 -0.120374 -0.145806 -0.348334 0.10953 0.188022 0.0660281 0.027593 0.144856 0.14927 -0.0937203 -0.0824428 -0.0826917
564 -0.15941 0.369025 -0.219682 -0.0261625 0.188718 0.0714531 0.11413 -0.289813 0.0508761 -0.251188 0.302922 -0.319885 -0.168674 -0.246715 -0.570373 0.221239 0.362228 0.0793072 0.10338 0.222069 0.220136 -0.13294 -0.125045 -0.160105
4 -0.0546997 0.0815011 -0.0565163 -0.00605944 0.0438553 0.0316358 0.039519 -0.0801468 0.0130245 -0.0476413 0.101559 -0.105965 -0.0644273 -0.0513888 -0.146989 0.0723903 0.101654 0.0337578 0.0111911 0.0693743 0.062642 -0.0422844 -0.0321381 -0.0210102
212 -0.0630973 0.200701 -0.106016 -0.0191412 0.101331 0.0352301 0.0404793 -0.184751 -0.00629621 -0.144223 0.20474 -0.182023 -0.13157 -0.148336 -0.338521 0.129705 0.219548 0.0464498 0.0397628 0.160814 0.146617 -0.0900114 -0.0885027 -0.0763601
688 -0.0494841 0.138324 -0.0760589 -0.0109567 0.0903226 0.00544445 0.0211146 -0.101308 0.0153441 -0.0813967 0.12079 -0.131067 -0.0683878 -0.097017 -0.208619 0.0758653 0.11842 0.0199479 0.0279535 0.0765009 0.0912415 -0.0612529 -0.0456652 -0.0664453
641 -0.199793 0.499527 -0.28094 -0.0393101 0.270313 0.102597 0.128007 -0.430643 0.00836517 -0.329604 0.432755 -0.429509 -0.236211 -0.338184 -0.772544 0.294445 0.4794 0.125815 0.115882 0.320606 0.323356 -0.173068 -0.142777 -0.176195
3836 -0.089836 0.250049 -0.163901 -0.0135989 0.139914 0.0519649 0.0368245 -0.208685 0.0229527 -0.147414 0.250082 -0.237687 -0.119693 -0.164604 -0.419727 0.154632 0.264602 0.0546134 0.0452739 0.174235 0.153338 -0.105565 -0.0799878 -0.10073
4698 -0.0163534 0.0267189 -0.016702 0.0116466 0.0197268 0.000653794 0.00809159 -0.0395099 -0.013582 -0.0221518 0.0500581 -0.0492657 0.0067196 -0.0144518 -0.0750397 0.00696132 0.0460261 -0.0117495 0.0140198 0.0381444 0.0103941 -0.0194675 -0.019115 -0.00423573
279 -0.216605 0.46647 -0.281952 -0.0161029 0.260835 0.104133 0.127385 -0.35109 0.072924 -0.341075 0.415099 -0.411503 -0.223737 -0.300435 -0.754929 0.265448 0.419542 0.102666 0.117769 0.292206 0.255778 -0.163859 -0.104029 -0.197191
5219 -0.00828956 0.0912797 -0.0547466 0.00883504 0.0193254 0.0231651 0.0163825 -0.0535455 0.0219795 -0.0661055 0.0871893 -0.0518048 -0.0587974 -0.0658912 -0.108175 0.0270714 0.0846802 0.00718568 0.0129117 0.0550865 0.035458 -0.0391913 -0.0162777 -0.0318223
2895 -0.0861134 0.181287 -0.125663 -0.00937696 0.10498 0.0539289 0.0656376 -0.149405 0.0101342 -0.11713 0.153429 -0.168055 -0.0889515 -0.138446 -0.315154 0.115741 0.193939 0.0278657 0.0244462 0.10922 0.100118 -0.0690877 -0.0365589 -0.0939332
4642 -0.0439899 0.0826566 -0.0322705 -0.0208474 0.0453766 0.00869577 0.0155768 -0.0823575 0.0136486 -0.0451217 0.0776859 -0.059629 -0.0399737 -0.0735525 -0.136212 0.0240218 0.0593636 0.028481 0.0346068 0.0349949 0.0699694 -0.0214821 -0.0182228 -0.0119549
170 -0.0287337 0.142966 -0.097584 -0.0111984 0.0558293 0.0190747 0.00583287 -0.168534 -0.0216315 -0.0634815 0.133617 -0.14018 -0.123111 -0.0909907 -0.218644 0.0539775 0.136996 0.033612 0.00224393 0.0922578 0.139183 -0.0463924 -0.0808762 -0.0445429
42 0.0263144 0.172607 -0.0775618 -0.0691249 -0.0429789 0.00690115 -0.0697162 -0.18315 -0.109704 0.00132906 0.15866 -0.103411 -0.180162 -0.0573175 -0.125776 -0.0141223 0.133186 0.00755258 -0.0251345 0.0602855 0.195641 -0.0307995 -0.0913837 0.0186162
4131 -0.0219802 0.04412 -0.0121858 0.00070666 0.00814747 0.0274264 -0.00650463 -0.0424172 0.0123723 -0.0228398 0.0437772 -0.012099 -0.00153195 -0.0102789 -0.069754 0.00563746 0.0216065 0.01236 0.0233847 0.0160016 0.0230135 -0.0180149 0.00555685 -0.0225151
278 -0.219635 0.49628 -0.272642 -0.00370389 0.263068 0.109198 0.128153 -0.374183 0.0707141 -0.333637 0.403358 -0.4281 -0.21766 -0.355017 -0.780239 0.267659 0.45263 0.108574 0.108781 0.317317 0.30663 -0.146134 -0.132679 -0.224671
4961 -0.0441876 0.0680046 -0.0350426 0.017728 0.029608 -0.00155434 0.00743344 -0.0666037 0.00964251 -0.0542877 0.076015 -0.0626562 -0.0392383 -0.0708634 -0.125255 0.0373052 0.0826173 0.00994272 0.0378865 0.0501916 0.0567228 -0.011719 -0.0105525 -0.0269607
5051 -0.0237985 0.0468346 -0.0430583 0.00449985 0.0189787 -0.00816546 0.0102318 -0.0587102 0.0147266 -0.0196595 0.0649256 -0.0387101 -0.0462156 -0.0312931 -0.0792115 0.0498844 0.04137 0.0215059 0.0031018 0.0427384 0.0295147 -0.0118747 -0.0287538 -0.0156972
1642 -0.0313816 0.107366 -0.0443735 -0.00956167 0.0743661 0.014867 0.00907236 -0.083698 -0.00325178 -0.0816066 0.108838 -0.0790911 -0.0692052 -0.0690986 -0.173651 0.0581219 0.110491 0.0109977 0.0350387 0.0837602 0.0803072 -0.0172075 -0.0412572 -0.0625973
2218 -0.0150991 0.102399 -0.027473 -0.00848322 0.0373683 0.0187044 0.0180662 -0.0735824 -0.00316782 -0.0586619 0.0709762 -0.066308 -0.0500795 -0.0618483 -0.112729 0.0601622 0.0909798 0.0022774 0.00807216 0.0715352 0.058941 -0.0321906 -0.018394 -0.0253575
5740 -0.0172424 0.0572176 -0.0108185 -0.00884758 0.00870151 0.0137143 0.0144001 -0.0400191 0.0246729 -0.0186946 0.0560939 -0.0573602 -0.0344179 -0.0319786 -0.064009 0.0358839 0.0276367 -0.00130146 0.0091681 0.0501525 0.0201478 -0.0175186 -0.0153422 -0.00368404
350 -0.142938 0.261657 -0.148078 0.0205964 0.141438 0.0499337 0.100437 -0.226622 0.0155045 -0.173993 0.221644 -0.206582 -0.1319 -0.167061 -0.399154 0.171134 0.246022 0.0791922 0.0718037 0.170151 0.154658 -0.0898605 -0.0498015 -0.130925
309 -0.229426 0.529404 -0.325338 -0.0109332 0.302484 0.0823818 0.148542 -0.462187 0.0296272 -0.362346 0.494331 -0.471053 -0.277537 -0.373791 -0.855753 0.296666 0.520956 0.133317 0.125616 0.331095 0.327262 -0.17897 -0.148358 -0.216328
4020 -0.0278077 0.050557 -0.0504242 -0.0209582 0.0184837 0.0235268 0.023347 -0.0467869 -0.00383133 -0.0490473 0.0329437 -0.0347966 -0.0238728 -0.03668 -0.0805661 0.04677 0.0704962 0.0126614 0.00871154 0.0448921 0.0481443 -0.0355436 -0.00259583 -0.0171098
79 -0.055411 0.150248 -0.0791305 0.00647896 0.0948451 0.0152458 0.0351998 -0.128819 0.00911652 -0.125238 0.125256 -0.128982 -0.0929691 -0.111544 -0.259427 0.0963029 0.162124 0.0258842 0.0156688 0.100419 0.0897667 -0.0542435 -0.0369557 -0.0759369
1759 -0.045328 0.0735876 -0.0387174 0.0182516 0.0317186 0.0300997 0.0146406 -0.0436381 0.0295855 -0.0424138 0.0696222 -0.0641411 -0.0225344 -0.0469552 -0.119668 0.0325736 0.0754908 0.00566449 0.0149439 0.0387885 0.0262965 -0.0367431 0.00316166 -0.0474347
1599 -0.0522501 0.165376 -0.0766606 -0.0061801 0.0748706 0.0275565 0.06512 -0.136557 0.00107238 -0.119484 0.126007 -0.116685 -0.0626834 -0.102821 -0.255242 0.081997 0.165845 0.0267781 0.0493995 0.115138 0.0799974 -0.0701381 -0.0281936 -0.0693248
1754 -0.0674043 0.214482 -0.134204 -0.015868 0.0859675 0.0388969 0.0399648 -0.194596 -0.00015887 -0.115845 0.191486 -0.15966 -0.121836 -0.148704 -0.314469 0.110794 0.19451 0.0252594 0.0456058 0.128041 0.13657 -0.0731135 -0.0581189 -0.0766265
1445 -0.0558956 0.089418 -0.0445705 0.00576053 0.0414909 0.0117672 0.00177912 -0.092315 -0.00925556 -0.0664357 0.106913 -0.0686407 -0.0549789 -0.0838167 -0.157158 0.0517651 0.0969442 0.0201653 0.0329612 0.0781915 0.0654988 -0.033174 -0.0159483 -0.0459893
1320 -0.133491 0.282145 -0.132931 -0.0207073 0.133156 0.0365055 0.0590474 -0.236377 0.00388155 -0.184041 0.223883 -0.209634 -0.128482 -0.176087 -0.427306 0.155984 0.250558 0.075106 0.0727563 0.189929 0.180958 -0.0902551 -0.0566422 -0.0887296
906 -0.0993962 0.196832 -0.144493 -0.00019409 0.120292 0.0417169 0.050241 -0.166794 -0.0064518 -0.147508 0.185099 -0.193169 -0.0912377 -0.138911 -0.321362 0.136128 0.220584 0.0262061 0.0579008 0.12684 0.141635 -0.0655399 -0.0790634 -0.0625228
5229 -0.0243847 0.0207134 -0.0304575 -0.0120958 0.0438907 -0.00394184 0.0246864 -0.0134013 0.0167824 -0.0321657 0.0183447 -0.0456424 -0.00176902 -0.0252869 -0.0447822 0.0258738 0.0277904 0.00927648 -0.00664292 0.0118153 0.0338246 -0.0204317 -0.0233926 -0.0320448
395 -0.0858777 0.246537 -0.147216 -0.0157874 0.115705 0.0225751 0.0638934 -0.213 0.0242468 -0.153623 0.207293 -0.174525 -0.118962 -0.148681 -0.370928 0.13286 0.236801 0.03016 0.0436076 0.141166 0.155487 -0.0903429 -0.0866468 -0.0933699
1506 -0.0451134 0.099659 -0.0518207 0.00683748 0.0626556 0.0108932 0.0391888 -0.090224 -0.00353504 -0.066235 0.0844766 -0.0824403 -0.0662742 -0.0771349 -0.155354 0.0530162 0.1033 0.00232586 0.00641111 0.052816 0.058194 -0.0328182 -0.0284843 -0.0469623
720 -0.199425 0.455822 -0.263084 -0.00560835 0.22728 0.0871165 0.0960715 -0.397434 0.0111631 -0.293208 0.411769 -0.407081 -0.253888 -0.327507 -0.754935 0.246769 0.460479 0.0843176 0.0998164 0.288825 0.282474 -0.181068 -0.146018 -0.185829
844 -0.121939 0.331546 -0.19546 0.00723773 0.158108 0.0720115 0.0718826 -0.297077 0.019584 -0.232073 0.278586 -0.273207 -0.156865 -0.223811 -0.529341 0.199175 0.304959 0.0757521 0.0640637 0.232065 0.222228 -0.107612 -0.116795 -0.115324
296 -0.00802771 0.0755549 -0.0209981 -0.0244763 -0.0130547 0.010976 -0.0280451 -0.0695969 -0.0321499 0.00789091 0.0462033 -0.0339473 -0.0426701 -0.0261974 -0.0842452 -0.00553735 0.0555563 -0.00250981 -0.0303885 0.0504322 0.0846925 -0.0390553 -0.0282161 0.0162377
10 0.0521576 0.118627 -0.0860465 -0.0531216 -0.0441919 0.011347 -0.0693754 -0.166538 -0.128057 0.0420733 0.123034 -0.0967615 -0.151619 -0.0768608 -0.100485 -0.0158447 0.112037 0.016995 -0.065482 0.0653228 0.178296 -0.0406808 -0.117922 0.0447726
3817 -0.0385708 0.0600058 -0.0462857 -0.0102541 0.0217528 0.00737955 0.014587 -0.0283092 0.0169788 -0.0233367 0.031935 -0.0504682 -0.0271565 -0.015425 -0.061596 0.0269227 0.038385 0.01956 0.0186227 0.0324706 0.0151683 -0.00329164 -0.0252413 -0.0330276
454 -0.128427 0.226295 -0.146067 -0.00554521 0.121702 0.0285831 0.073973 -0.219432 0.0144265 -0.179179 0.224429 -0.201754 -0.120225 -0.1623 -0.365625 0.122798 0.221992 0.0480561 0.0749087 0.152739 0.15042 -0.0893812 -0.0892588 -0.110594
494 -0.125385 0.310757 -0.180518 -0.0303729 0.17931 0.0405969 0.0890834 -0.257544 0.036932 -0.215712 0.277791 -0.297279 -0.164333 -0.226668 -0.53825 0.194859 0.315558 0.0793741 0.0835665 0.232782 0.19678 -0.102718 -0.105731 -0.116731
40 -0.0771913 0.125366 -0.061803 -0.0133796 0.0613365 0.0299253 0.0521274 -0.116128 0.0259641 -0.072929 0.110652 -0.126494 -0.0716328 -0.103915 -0.205263 0.0575077 0.138816 0.00921503 0.015822 0.0618915 0.0668488 -0.0582931 -0.0190851 -0.0374868
50 -0.125724 0.331051 -0.167713 -0.030534 0.14829 0.03323 0.0801142 -0.255488 0.0115082 -0.22045 0.284256 -0.254771 -0.151153 -0.22086 -0.481343 0.172386 0.32121 0.0846696 0.0812812 0.188238 0.1996 -0.109858 -0.0930423 -0.126602
84 -0.0382107 0.0875772 -0.0725023 -0.0167828 0.0342589 0.0302581 0.0173203 -0.0907488 -0.0212866 -0.0750976 0.0831408 -0.108692 -0.040406 -0.0553628 -0.169043 0.0540726 0.119809 0.0376159 0.0233685 0.074966 0.0598219 -0.0173524 -0.0230824 -0.0287201
3319 -0.0242963 0.0826208 -0.0621552 -0.00816835 0.0359566 -0.00305865 0.0177227 -0.0692575 0.00851669 -0.0390629 0.0890521 -0.0840463 -0.0315496 -0.0508493 -0.142133 0.0332513 0.0801155 0.0377526 0.0197838 0.0551326 0.0362696 -0.0173937 -0.0280057 -0.023774
907 -0.184653 0.497459 -0.27415 -0.00195811 0.240521 0.109564 0.119072 -0.426956 0.0294192 -0.337167 0.443057 -0.433633 -0.247174 -0.341532 -0.779545 0.274651 0.483425 0.115821 0.119873 0.342347 0.312166 -0.184454 -0.1512 -0.202208
682 -0.126087 0.324568 -0.168243 -0.00871878 0.177912 0.0380185 0.0756078 -0.279681 0.0211728 -0.194913 0.257693 -0.251931 -0.169287 -0.2106 -0.462311 0.166627 0.305502 0.0535403 0.0577587 0.18545 0.199099 -0.103858 -0.0824786 -0.139914
703 -0.0705373 0.195986 -0.13693 -0.0216991 0.129988 0.0448183 0.0489148 -0.187564 0.0237594 -0.157505 0.201457 -0.19296 -0.105684 -0.147011 -0.323013 0.124552 0.220967 0.0342965 0.0257129 0.139613 0.119854 -0.0814416 -0.080661 -0.0660291
2293 -0.0481154 0.104171 -0.0632268 0.0143461 0.0828665 0.0151718 0.0213727 -0.0881188 0.0279983 -0.0925087 0.116699 -0.111669 -0.0608421 -0.0814922 -0.183332 0.0789502 0.12396 0.0395468 0.0191948 0.0812247 0.0645393 -0.0361181 -0.0383583 -0.0582574
896 -0.0962165 0.172913 -0.127552 -0.00698742 0.116866 0.0591453 0.0466909 -0.165085 0.0390491 -0.14368 0.167567 -0.167555 -0.094942 -0.127396 -0.297048 0.120807 0.167658 0.0669386 0.0555395 0.132537 0.128509 -0.0797533 -0.0637051 -0.0945401
3982 -0.0772735 0.158229 -0.0749486 -0.0168734 0.102366 0.0474799 0.0240578 -0.12852 0.00301899 -0.10065 0.14856 -0.148909 -0.0613492 -0.103591 -0.241968 0.085469 0.16017 0.0175908 0.036936 0.0890696 0.0954958 -0.0386383 -0.0501672 -0.0722092
3983 -0.0726562 0.158608 -0.0893961 -0.00303755 0.0804988 0.0434661 0.028866 -0.137542 0.0152151 -0.108519 0.150947 -0.139225 -0.0927043 -0.122778 -0.276866 0.084552 0.167229 0.058886 0.0207017 0.124888 0.124476 -0.0719808 -0.0354881 -0.0621861
653 -0.155443 0.302296 -0.178277 -0.0126909 0.175754 0.0472496 0.0869219 -0.240894 0.0200858 -0.227045 0.262448 -0.25922 -0.132172 -0.212759 -0.499111 0.182497 0.298664 0.0691024 0.0878038 0.214929 0.182393 -0.0978712 -0.0684715 -0.12471
663 -0.0704414 0.137979 -0.0806626 0.0126196 0.0798184 0.0418183 0.0152303 -0.137145 0.0142575 -0.0932891 0.144588 -0.134659 -0.0674716 -0.109541 -0.248285 0.0806725 0.14503 0.0171073 0.0271309 0.0877373 0.119933 -0.04056 -0.0562109 -0.0589393
166 -0.104251 0.211394 -0.116402 -0.0290027 0.109241 0.0189052 0.042095 -0.169912 -0.00757441 -0.133902 0.171922 -0.176044 -0.121067 -0.151408 -0.313045 0.112736 0.196625 0.0576054 0.02195 0.139548 0.115512 -0.05633 -0.0522813 -0.0913444
2543 -0.0630102 0.13733 -0.0708078 -0.0226864 0.067124 0.0432474 0.0484346 -0.113518 -0.00637168 -0.0926428 0.142557 -0.125545 -0.0629404 -0.103825 -0.24068 0.0656321 0.130676 0.0242157 0.0369278 0.0938063 0.0886731 -0.0426834 -0.0598145 -0.0415542
804 -0.0396316 0.0865646 -0.0555218 0.00026855 0.035971 0.00876703 0.0110583 -0.0954354 -0.00700166 -0.0783039 0.0837191 -0.0735899 -0.0468086 -0.0497465 -0.150862 0.0362255 0.0868008 0.0307719 0.0142485 0.0625945 0.0670278 -0.0534765 -0.0225627 -0.0337842
691 -0.130589 0.274119 -0.181535 -0.0283895 0.141277 0.0360827 0.0792966 -0.240695 0.0305906 -0.181986 0.26219 -0.256485 -0.143312 -0.219096 -0.43481 0.179388 0.284188 0.0455281 0.0506568 0.173859 0.183098 -0.107581 -0.100273 -0.13155
3861 -0.0411532 0.0326802 -0.0113884 0.00567795 0.03859 -0.000494802 0.0256132 -0.0250809 0.0286314 -0.051765 0.0372509 -0.0391332 -0.00488065 -0.0171105 -0.075285 0.0408112 0.0374648 0.0084912 0.034387 0.0213036 0.0334905 -0.0314885 0.00473962 -0.01323
680 -0.158039 0.430516 -0.229707 -0.0278621 0.197339 0.0895564 0.0782261 -0.378188 0.0145268 -0.259972 0.404701 -0.382191 -0.204851 -0.275872 -0.68045 0.235969 0.392666 0.0845662 0.104537 0.276818 0.257395 -0.160668 -0.151717 -0.180474
3179 -0.0279304 0.0399201 -0.0167463 -0.00143708 0.0346226 0.0241073 -0.00374544 -0.0595946 0.00625154 -0.0560574 0.0554819 -0.0278061 -0.0456642 -0.0511079 -0.101401 0.0306618 0.0570204 0.031035 0.0317871 0.0538141 0.0248735 -0.0222034 -0.0187014 -0.0228481
1343 -0.0245857 0.0741006 -0.0191854 -0.00950072 0.0536792 -0.00116708 0.0420867 -0.0454504 0.0180248 -0.0512469 0.0399537 -0.0657018 -0.0149703 -0.043465 -0.126393 0.0292305 0.0747248 0.0185595 0.00931757 0.0369755 0.0549933 -0.038184 -0.0202453 -0.0299063
784 -0.0638864 0.138492 -0.0681488 0.00444406 0.0720943 0.0488588 0.0439601 -0.123534 0.00488741 -0.093353 0.126115 -0.12817 -0.0771547 -0.0977545 -0.267993 0.0857376 0.165705 0.0419287 0.0281494 0.103232 0.0821858 -0.0463672 -0.0568708 -0.0472223
893 -0.0498914 0.0991372 -0.0515231 0.00929021 0.0647994 0.0354593 0.00857499 -0.0884548 0.0267025 -0.0709029 0.0688072 -0.0559529 -0.0349983 -0.0728288 -0.135808 0.0638403 0.0908046 0.0224151 0.00647501 0.0742823 0.032854 -0.0156357 -0.0435394 -0.0567099
5007 -0.0230662 0.0557369 -0.0386019 -0.00113245 0.037037 0.0216518 0.0187145 -0.0562238 0.0142165 -0.0628392 0.073912 -0.0528345 -0.00117623 -0.0664519 -0.0945815 0.0579729 0.081422 0.0386288 0.0323567 0.0451467 0.0395837 -0.034817 0.0111741 -0.0399401
459 -0.146685 0.327702 -0.185475 -0.0262376 0.183736 0.0618883 0.0873988 -0.251306 0.0288525 -0.213353 0.26078 -0.272108 -0.136625 -0.197617 -0.482427 0.180624 0.314409 0.0743907 0.0582617 0.225111 0.179074 -0.0856666 -0.0824708 -0.107018
3360 -0.0385589 0.149199 -0.0802355 -0.0175494 0.0607523 0.0034982 0.0337162 -0.104802 0.0136282 -0.0751349 0.125499 -0.117313 -0.0921277 -0.0793679 -0.208087 0.0819854 0.118172 0.0265369 0.00215769 0.093889 0.0895954 -0.0636265 -0.0313326 -0.0405718
5567 -0.0660253 0.116515 -0.078083 -0.00924484 0.0827843 0.0318818 0.0497602 -0.122776 0.0184723 -0.0807541 0.0991501 -0.131914 -0.0678541 -0.108218 -0.217187 0.0568359 0.117919 0.0301223 0.0130826 0.0918012 0.0830134 -0.0616665 -0.0243906 -0.0371623
5884 -0.038967 0.0252476 -0.0324891 -0.0155747 0.0293761 0.00640827 0.0262199 -0.0371199 0.0208375 -0.0248351 0.0518497 -0.0529081 -0.0302056 -0.0498999 -0.0613828 0.0515667 0.0240711 0.0312376 0.033697 0.0322487 -0.0032218 -0.0161939 -0.00619026 -0.0267387
580 -0.2109 0.519858 -0.320469 -0.0294362 0.272334 0.0758467 0.122605 -0.438947 0.0352581 -0.368093 0.494547 -0.444829 -0.295186 -0.384427 -0.850337 0.296316 0.534485 0.101907 0.120153 0.368034 0.342698 -0.187817 -0.169219 -0.21922
345 -0.182716 0.416488 -0.24163 -0.0196745 0.20618 0.0732444 0.10133 -0.347375 0.0324415 -0.287967 0.39739 -0.341459 -0.234652 -0.284467 -0.651751 0.208388 0.42507 0.0688561 0.0841347 0.255156 0.283921 -0.123854 -0.138026 -0.140156
6594 -0.0303712 0.0477833 -0.0295549 0.00707033 0.0104487 0.0281679 -0.0108638 -0.0661612 0.0163125 -0.0323482 0.0386294 -0.0533292 -0.040988 -0.0398955 -0.066853 0.0449678 0.0679209 0.0266206 0.0023317 0.0336088 0.0202046 -0.0190631 -0.01205 -0.0238826
303 -0.0729363 0.411324 -0.244889 -0.0283897 0.129254 0.0319017 0.0326075 -0.341037 -0.0774056 -0.214581 0.38373 -0.328688 -0.27219 -0.223404 -0.556998 0.185879 0.379477 0.0884989 0.0295372 0.221167 0.286832 -0.151572 -0.166721 -0.114784
12 -0.0186878 0.353275 -0.185213 -0.0743423 -0.00813684 0.0485001 -0.0682795 -0.399486 -0.147513 -0.0875968 0.331403 -0.282845 -0.30824 -0.20607 -0.415894 0.0783468 0.33346 0.0621382 -0.0373462 0.213411 0.347745 -0.119982 -0.206364 -0.0556444
3024 -0.0714809 0.0794277 -0.0404463 0.00750801 0.0548325 0.0109133 0.042134 -0.0591073 0.0239833 -0.0615913 0.0712114 -0.0683223 -0.0256725 -0.0626763 -0.188531 0.0866765 0.116174 0.042061 0.0171981 0.0608738 0.0655254 -0.037685 -0.0133878 -0.0541708
1838 -0.0776104 0.23183 -0.131819 0.00975336 0.126157 0.0452194 0.0740389 -0.202231 0.0178674 -0.144375 0.206465 -0.182393 -0.104834 -0.148229 -0.35122 0.119907 0.199606 0.0307314 0.0515737 0.134897 0.143312 -0.0714165 -0.0516886 -0.0887887
3772 -0.0101451 0.0349281 -0.0268454 0.0102161 0.0211904 -0.000121178 0.00834843 -0.0321308 0.00785046 -0.0483131 0.0406754 -0.0277146 -0.0421097 -0.0444398 -0.0757374 0.0163928 0.0475437 0.0126856 0.0109879 0.0209171 0.0439367 -0.0329165 -0.0341305 -0.0288518
526 -0.159718 0.379707 -0.243442 0.0044585 0.218947 0.0920308 0.0968123 -0.315572 0.0168377 -0.289875 0.359933 -0.352012 -0.192434 -0.292941 -0.612587 0.237043 0.371013 0.0824092 0.0908686 0.255336 0.261606 -0.137522 -0.0974553 -0.160691
4470 -0.0364511 0.0305789 -0.0399159 0.0108799 0.0163019 0.0101601 0.0185731 -0.0411307 0.00424248 -0.0413144 0.0297413 -0.0295059 0.00637749 -0.0207443 -0.0698165 0.0404268 0.0333437 0.0153003 0.014682 0.023097 0.00278772 -0.0239014 0.000783424 -0.011518
503 -0.238543 0.599107 -0.333728 -0.04243 0.303797 0.114318 0.140323 -0.500254 0.047523 -0.405159 0.522821 -0.525595 -0.279918 -0.393041 -0.926021 0.353052 0.556012 0.116768 0.119825 0.38125 0.370096 -0.185158 -0.198894 -0.25021
324 -0.19554 0.435317 -0.254111 0.00690318 0.231034 0.0668748 0.102874 -0.348108 0.0198812 -0.287445 0.397569 -0.393595 -0.235199 -0.285326 -0.705558 0.239087 0.421766 0.0961982 0.076712 0.271143 0.277886 -0.158003 -0.11982 -0.154085
2160 -0.0318609 0.028172 -0.0374891 0.0151928 0.0129668 -0.0113746 0.00551242 -0.0280844 0.0258369 -0.0272469 0.0553556 -0.0292142 -0.0148253 -0.0265579 -0.0575707 0.0324627 0.0338301 0.000922615 0.0152729 0.031064 0.0304119 -0.00750865 -0.00907576 -0.0327239
725 -0.140863 0.35978 -0.196471 -0.0192742 0.181971 0.084387 0.0775604 -0.305027 0.00930253 -0.235795 0.31587 -0.299552 -0.197434 -0.220044 -0.53447 0.183917 0.324206 0.069182 0.0795519 0.25382 0.23219 -0.105331 -0.0935777 -0.146149
1143 -0.0238418 0.111761 -0.0592613 0.00381679 0.0297831 0.00436034 -0.00371298 -0.0808582 0.00248571 -0.0462671 0.111037 -0.0974431 -0.0642695 -0.0645845 -0.158118 0.038242 0.102199 0.0283633 0.0338829 0.0762718 0.0573705 -0.0327398 -0.0534157 -0.0200946
737 -0.136104 0.297952 -0.168868 -0.0109733 0.134912 0.0365109 0.0444648 -0.277731 0.0128654 -0.193739 0.268377 -0.249534 -0.153074 -0.184725 -0.480593 0.178824 0.280871 0.0643688 0.0517777 0.211193 0.208425 -0.105798 -0.0999085 -0.0980247
5246 -0.0503864 0.0763376 -0.0483932 -0.0116648 0.0542681 0.0116354 0.0544976 -0.0646506 -0.00192176 -0.0832159 0.0949029 -0.0946868 -0.0246621 -0.0688044 -0.155603 0.045004 0.095058 0.0300606 0.0311787 0.0559276 0.0356458 -0.0284659 -0.0152013 -0.0386555
811 -0.0421705 0.154268 -0.0850101 0.00422411 0.0608782 0.0192627 0.0282625 -0.120184 -0.00456422 -0.0879321 0.144931 -0.101199 -0.0522317 -0.0898901 -0.229442 0.0609393 0.148626 0.0248894 0.0132382 0.0849468 0.0993612 -0.0296938 -0.0611387 -0.0375878
3459 -0.0449367 0.0657031 -0.0497618 -0.0109997 0.0351349 0.0297625 0.00633562 -0.03317 -0.00568288 -0.0463136 0.0605235 -0.0373839 -0.0195343 -0.048995 -0.0748962 0.0334361 0.0381554 0.0283239 0.0169456 0.0483049 0.0171456 -0.0218648 -0.00561133 -0.0292372
592 -0.0873887 0.273876 -0.134758 -0.00166658 0.122526 0.0352589 0.0622188 -0.238647 0.0116773 -0.174018 0.254269 -0.236157 -0.149607 -0.162927 -0.399577 0.157149 0.276346 0.0581681 0.0528166 0.176454 0.186727 -0.080429 -0.0972968 -0.0900469
1915 -0.0196717 0.0819523 -0.0443583 -0.00532385 0.0360856 0.00779966 0.0198713 -0.0512918 -0.0141952 -0.0480439 0.0841022 -0.0784234 -0.0443288 -0.0631981 -0.125357 0.0477726 0.0806525 0.0307955 0.0200566 0.0652154 0.0486983 -0.0358892 -0.0148398 -0.0263293
1818 -0.0562513 0.130358 -0.0912626 -0.00934755 0.0956891 0.0351484 0.0536568 -0.0900235 0.023922 -0.0899335 0.128618 -0.0914267 -0.0561388 -0.0679591 -0.219136 0.0761458 0.100273 0.0130251 0.0285814 0.094398 0.0518882 -0.0606927 -0.0388464 -0.0611833
5998 -0.0426211 0.0678632 -0.0237536 0.0120328 0.0174631 0.0283647 0.0199274 -0.044929 0.0211736 -0.0399374 0.0546531 -0.0276159 -0.0198614 -0.0231096 -0.0912636 0.0283577 0.0715286 -0.00488137 0.0294413 0.0330145 0.0517506 -0.00018677 0.00259275 -0.0185385
2726 -0.0228716 0.105784 -0.049544 -0.0119301 0.0469878 -0.00481803 0.0163483 -0.0628 -0.0085404 -0.0626784 0.0655604 -0.0790793 -0.0596923 -0.0611641 -0.149423 0.0541397 0.082871 0.00195847 0.018051 0.0758313 0.041467 -0.0520277 -0.0342492 -0.0341184
2444 -0.0596989 0.14321 -0.0538057 0.00236718 0.0764411 0.0185553 0.0461478 -0.0906115 0.00515687 -0.0640008 0.130218 -0.107528 -0.0537659 -0.0815585 -0.213704 0.0835516 0.131411 0.0228793 0.039995 0.0932467 0.100908 -0.0431827 -0.0305531 -0.0476035
347 -0.12073 0.326807 -0.182613 -0.0267098 0.147274 0.0810628 0.0892105 -0.285373 0.0116747 -0.191004 0.273194 -0.249055 -0.185748 -0.244374 -0.49508 0.164262 0.33383 0.0768166 0.0557286 0.219882 0.233359 -0.0854556 -0.104887 -0.113752
571 -0.125237 0.250223 -0.175224 -0.0113835 0.157222 0.0307625 0.0778152 -0.244524 0.0275077 -0.193836 0.260735 -0.210733 -0.149051 -0.190057 -0.405835 0.151249 0.262477 0.0659932 0.040374 0.195968 0.170972 -0.0742173 -0.0962651 -0.0864693
379 -0.0783107 0.239575 -0.145528 -0.0102099 0.138072 0.0546156 0.0487184 -0.220231 0.00592189 -0.148113 0.235951 -0.218666 -0.139866 -0.171274 -0.367243 0.12088 0.230799 0.0546747 0.0316774 0.154297 0.147699 -0.0659053 -0.0662335 -0.104991
400 -0.0285663 0.121129 -0.0642434 -0.00675074 0.0402719 0.0281625 -0.0127078 -0.134205 -0.000952218 -0.0631104 0.111903 -0.0950353 -0.104029 -0.0787103 -0.175439 0.0653678 0.127109 0.0408915 -0.00992636 0.0868096 0.0836908 -0.0359412 -0.0487655 -0.0159716
3207 -0.0252908 0.0191592 -0.00932028 -0.0192211 0.00667935 0.0208853 0.0100887 -0.0128733 0.0120096 -0.0476183 0.0417973 -0.0279341 -0.034776 -0.00774507 -0.0521038 0.00696497 0.0575781 0.0185794 0.001975 0.0357308 0.00357586 0.00085423 -0.00928207 -0.0134499
384 -0.124484 0.306259 -0.204686 -0.0144571 0.18398 0.0762737 0.0971352 -0.251172 0.0157585 -0.227628 0.297716 -0.295737 -0.144147 -0.202979 -0.498336 0.180243 0.289093 0.0599615 0.08897 0.205503 0.219334 -0.0871017 -0.113038 -0.138611
3416 -0.0591917 0.161349 -0.0993702 0.0116071 0.106193 0.0121095 0.0292165 -0.137471 -0.012166 -0.130032 0.161456 -0.148357 -0.105206 -0.131669 -0.25959 0.112132 0.170568 0.0247542 0.0249749 0.114263 0.108902 -0.0569797 -0.0512666 -0.0546725
2634 -0.117757 0.248653 -0.160982 0.000447836 0.12747 0.0278356 0.0866893 -0.204388 0.0340072 -0.172269 0.199031 -0.220169 -0.10251 -0.186976 -0.370665 0.156374 0.242694 0.0737073 0.0478315 0.16034 0.125893 -0.0792556 -0.0728785 -0.119372
2528 -0.068465 0.101425 -0.0562391 -0.00860442 0.0698815 0.00820374 0.0086426 -0.115351 0.0251082 -0.0591543 0.0824942 -0.0944961 -0.0648333 -0.0665407 -0.172484 0.0813764 0.109192 0.0207044 0.0152668 0.072952 0.0579303 -0.0500442 -0.018289 -0.0540395
2939 -0.0307726 0.0386667 -0.0312067 -0.00541016 0.0428373 0.0149389 0.00459432 -0.0494466 -0.0104183 -0.0415099 0.0452362 -0.031613 -0.0117641 -0.0474441 -0.0796712 0.0104051 0.0403694 0.00717892 0.00619576 0.0259101 0.00367837 -0.00718297 -0.00880824 -0.0391286
1081 -0.230589 0.577356 -0.306061 -0.0427226 0.288781 0.102558 0.120445 -0.472681 0.0397751 -0.350058 0.515276 -0.490621 -0.281142 -0.392187 -0.889319 0.285462 0.528383 0.13143 0.123444 0.365204 0.348322 -0.182915 -0.19429 -0.197061
3060 -0.0531536 0.173772 -0.0891635 0.00748935 0.0790676 0.048838 0.0203706 -0.135725 0.0268713 -0.107414 0.130142 -0.119217 -0.0879265 -0.114647 -0.269222 0.0876655 0.148497 0.0478735 0.0483772 0.124713 0.118644 -0.0657758 -0.0575645 -0.0769029
1659 -0.0255512 0.114776 -0.0724318 0.0129497 0.0655465 0.0053192 0.0258979 -0.105407 0.0126564 -0.0860467 0.101777 -0.0950523 -0.0508131 -0.0624194 -0.153153 0.077096 0.10071 0.0184183 0.0424104 0.0740258 0.0636187 -0.0400952 -0.0163442 -0.0593664
2908 -0.0546442 0.151303 -0.0632692 0.000246699 0.0728906 0.0318081 0.0332619 -0.124247 0.0163374 -0.0821718 0.116061 -0.138173 -0.0607282 -0.0811072 -0.2155 0.0627745 0.140355 0.0196812 0.0367377 0.0853817 0.0835417 -0.049045 -0.0318798 -0.044297
6170 -0.0338013 0.0595443 -0.0133292 -0.0174513 0.0392362 0.0273031 0.0105547 -0.0468657 -0.013781 -0.0397875 0.0450642 -0.0449647 0.000218707 -0.048967 -0.0660085 0.0107914 0.029414 0.0173564 0.0291582 0.0494472 0.013606 -0.00881268 -0.0109214 -0.0211848
318 -0.105858 0.197026 -0.136841 0.00282262 0.135408 0.0511373 0.0675622 -0.167698 0.023286 -0.169865 0.204528 -0.178409 -0.0909626 -0.166077 -0.341011 0.131581 0.196324 0.0432705 0.0520516 0.135699 0.124689 -0.0527279 -0.0535564 -0.0827486
29 -0.0681313 0.136619 -0.0575284 0.0118292 0.0732632 0.0174649 0.0479693 -0.100067 0.0206347 -0.0721901 0.0923467 -0.107832 -0.0476863 -0.065888 -0.186282 0.079002 0.116401 0.0451643 0.0371326 0.0871024 0.0599177 -0.0592383 -0.0215104 -0.0276836
2037 -0.0368992 0.0596957 -0.0185497 0.020791 0.033514 0.00685318 0.0340656 -0.0380661 0.0203255 -0.0601129 0.0563657 -0.029245 -0.018209 -0.0461383 -0.0839077 0.0451084 0.0512574 -0.00723268 0.00409304 0.0344754 0.0336189 -0.00817632 -0.0170745 -0.0205189
360 -0.142962 0.307605 -0.188275 -0.00282371 0.179817 0.0627213 0.109569 -0.255309 0.0322131 -0.234407 0.281469 -0.279796 -0.130367 -0.24144 -0.542171 0.191441 0.322168 0.0789963 0.0802848 0.212779 0.204337 -0.0951314 -0.0879552 -0.144197
1923 -0.0219196 0.0347888 -0.0462534 -0.00896179 0.0550563 0.0278805 0.0159905 -0.0519363 0.0149445 -0.0233973 0.0412011 -0.038871 -0.026913 -0.0465947 -0.0696345 0.0402015 0.0300967 0.00509532 0.0144478 0.0516399 0.0382226 -0.0243126 -0.016709 -0.0346776
305 -0.239923 0.512201 -0.300783 -0.0241844 0.268877 0.0740822 0.13712 -0.410058 0.0606677 -0.334736 0.449295 -0.447907 -0.236721 -0.344853 -0.794035 0.289666 0.481769 0.125062 0.0975388 0.35255 0.292097 -0.152072 -0.137266 -0.216464
2195 -0.0374884 0.0624129 -0.0287012 0.0111347 0.0559939 0.00727841 0.0109908 -0.0502422 0.0129517 -0.0734507 0.0594311 -0.059266 -0.0225485 -0.0462119 -0.0884252 0.0268841 0.0687211 0.0263794 0.00896222 0.0320261 0.016292 -0.0268027 0.0109855 -0.0163356
670 -0.162428 0.414007 -0.251454 0.00686249 0.209379 0.0615825 0.0910414 -0.326474 0.0389555 -0.267718 0.359808 -0.363346 -0.177104 -0.262682 -0.648272 0.250252 0.38078 0.083799 0.113609 0.266594 0.222753 -0.133364 -0.105579 -0.180949
690 -0.0979485 0.272298 -0.165901 -0.0210036 0.132687 0.0681845 0.0548783 -0.268652 -0.00482613 -0.199096 0.272374 -0.229815 -0.174088 -0.194932 -0.434847 0.154017 0.289267 0.0409594 0.0507918 0.207802 0.173857 -0.110647 -0.0967198 -0.0922846
712 2.17679e-05 0.0297986 -0.0290257 -0.0126404 0.00533529 0.0161828 0.00571974 -0.0275086 -0.00713177 -0.0315386 0.0240139 -0.0372945 -0.0384301 -0.0176145 -0.0509012 0.0372503 0.0437894 0.00286373 0.000874108 0.0351594 0.0144862 -0.0185384 -0.018802 -0.000552452
485 -0.135738 0.36109 -0.230803 -0.0320323 0.16565 0.0457105 0.09056 -0.295222 0.0276476 -0.23594 0.342726 -0.303153 -0.202853 -0.255431 -0.560699 0.189122 0.334084 0.0591903 0.0876886 0.248539 0.252263 -0.10494 -0.12557 -0.121951
470 -0.0911456 0.186662 -0.129689 0.0157567 0.113958 0.0312556 0.061025 -0.162602 0.014048 -0.168635 0.164183 -0.192609 -0.084767 -0.143742 -0.338745 0.14713 0.218704 0.0425003 0.0588933 0.13813 0.133955 -0.0882882 -0.0423813 -0.107548
2700 -0.0402631 0.081716 -0.0445595 0.0152479 0.0217634 0.0171163 0.0215108 -0.0629154 -0.0141015 -0.0327666 0.0649528 -0.0544164 -0.0231805 -0.0517684 -0.118181 0.0438267 0.0773222 0.0144361 0.0150724 0.0299093 0.0480915 -0.022536 -0.00916982 -0.0124459
1294 -0.149312 0.323989 -0.161379 -0.0243033 0.173381 0.0608328 0.0631214 -0.248498 0.0321824 -0.2266 0.291693 -0.268668 -0.170529 -0.201961 -0.479048 0.195369 0.30481 0.0594789 0.0789747 0.211147 0.180261 -0.105051 -0.0902573 -0.125025
898 -0.32525 0.804725 -0.475568 -0.0417918 0.383284 0.148491 0.193641 -0.688828 0.0268996 -0.520892 0.739697 -0.683538 -0.427868 -0.564597 -1.27659 0.450816 0.792494 0.161371 0.158915 0.554818 0.515316 -0.269816 -0.265115 -0.317887
4090 -0.0375016 0.0633478 -0.00794638 -0.00506279 0.00610114 0.00876918 -0.00194496 -0.0289848 -0.00190062 -0.041883 0.028659 -0.0206238 -0.010454 -0.0192742 -0.0558874 0.0399088 0.0410379 0.0177713 0.00581223 0.0432457 0.0142389 -0.0318038 0.00252454 -0.00192108
2155 -0.00852539 0.0503016 -0.0201377 0.0130322 0.0207615 0.0127632 0.019938 -0.0298188 0.0165253 -0.0192202 0.0298594 -0.0397326 -0.0495069 -0.0237168 -0.0874276 0.0302589 0.0498037 -0.00822406 0.0139913 0.0350733 0.0361594 -0.038554 -0.0194192 -0.0305595
884 -0.0271272 0.106881 -0.0761253 -0.0222461 0.0618751 0.028177 0.0331599 -0.11393 0.0148844 -0.0617218 0.117906 -0.0807825 -0.0442607 -0.0742513 -0.163817 0.0682848 0.101155 0.00884264 0.0107538 0.0774789 0.0799433 -0.0371717 -0.0334585 -0.0338265
6192 0.0039405 0.0403524 -0.0317739 0.00135007 0.0309823 -0.00460389 0.0169212 -0.0336857 0.000821719 -0.0294295 0.0443345 -0.0459476 -0.0142636 -0.0174332 -0.0512343 0.00367122 0.0447409 -0.00600984 -0.00887793 0.0250486 0.0262454 -0.000200453 -0.00847394 -0.0140984
498 -0.157073 0.35927 -0.208808 -0.00199102 0.199656 0.068888 0.0761209 -0.297679 0.0166492 -0.245058 0.325856 -0.292658 -0.176332 -0.243726 -0.533528 0.186375 0.317516 0.0608085 0.073504 0.23829 0.224002 -0.133966 -0.107792 -0.121159
519 -0.131706 0.268408 -0.170871 0.00909654 0.168496 0.0697173 0.0733664 -0.214579 0.053265 -0.215248 0.220397 -0.233949 -0.126152 -0.177288 -0.440524 0.158525 0.263325 0.0692539 0.0551803 0.178819 0.175834 -0.0922572 -0.0672906 -0.134391
826 -0.029272 0.0615823 -0.0455832 0.00832186 0.0552066 0.013171 0.0171155 -0.0654829 0.0182962 -0.0473394 0.0757549 -0.0445512 -0.0141756 -0.0688747 -0.117512 0.0553118 0.0577168 0.00422684 0.0239947 0.0546234 0.0301408 -0.0272034 -0.0164614 -0.0193367
1163 -0.0438617 0.0764403 -0.0254894 -0.0238361 0.0296932 -0.00277462 0.0297374 -0.0731477 0.00902945 -0.0492926 0.0761084 -0.0785941 -0.0583478 -0.0446529 -0.105604 0.0430199 0.0892729 0.02579 0.0306577 0.0578485 0.0664807 -0.010174 -0.0384129 -0.0151113
1162 -0.108985 0.218741 -0.115415 -0.0203165 0.103372 0.0448593 0.0427364 -0.156626 0.0357391 -0.15208 0.173247 -0.172285 -0.077792 -0.162813 -0.348463 0.111361 0.218075 0.0460809 0.0590553 0.123805 0.109152 -0.071946 -0.0683058 -0.0735094
4169 -0.0486488 0.0476653 -0.0159888 0.00358533 0.021141 -0.000722928 0.00340335 -0.0352339 -0.00439964 -0.0625059 0.0374792 -0.0678726 -0.015213 -0.0220039 -0.103522 0.0462176 0.0469739 -0.000588447 0.0378868 0.0369006 0.036602 -0.0162945 -0.00442846 -0.0286857
333 -0.177953 0.340808 -0.215141 -0.0147453 0.210997 0.0555052 0.0933739 -0.30603 0.0294202 -0.274702 0.311073 -0.300886 -0.14367 -0.231728 -0.575112 0.22567 0.334007 0.100295 0.1018 0.217867 0.217295 -0.127669 -0.098091 -0.149409
591 -0.112686 0.264008 -0.128719 -0.0116446 0.136375 0.0391236 0.0740583 -0.213275 -0.00466383 -0.179828 0.217024 -0.219911 -0.152322 -0.160349 -0.394725 0.129769 0.224541 0.047981 0.0543272 0.150098 0.154313 -0.106861 -0.0969813 -0.0916252
2524 -0.0369555 0.0651627 -0.0198083 0.0158989 0.0335801 0.0309176 0.0165315 -0.0554813 0.00428622 -0.028441 0.0538681 -0.0414816 -0.0433259 -0.0380086 -0.0978468 0.0228225 0.066315 0.00181078 0.02 0.0313177 0.052406 -0.00180486 0.00377885 -0.01811
525 -0.109753 0.334412 -0.201921 -0.0480783 0.103186 0.050752 0.0187822 -0.310598 -0.0414518 -0.187221 0.333937 -0.289891 -0.227063 -0.236901 -0.463597 0.123319 0.310769 0.0645895 0.00857629 0.221649 0.259919 -0.124909 -0.118106 -0.0777798
208 0.038299 0.24094 -0.146958 -0.0859275 -0.0312288 0.0135456 -0.0932195 -0.258814 -0.168265 0.000792838 0.25069 -0.162651 -0.261047 -0.1423 -0.242115 -0.0107009 0.213616 0.00880387 -0.0454793 0.138757 0.261904 -0.0738474 -0.185583 -0.00357319
1279 -0.0556312 0.174065 -0.106375 -0.0268239 0.0877409 0.0464333 0.0465034 -0.164004 -0.0224851 -0.0811947 0.172528 -0.146006 -0.0819996 -0.104752 -0.258693 0.0888476 0.145851 0.0439706 0.0481733 0.115269 0.123105 -0.0354118 -0.0652108 -0.0435339
2107 -0.0477378 0.0847109 -0.0464337 0.0166807 0.0513205 0.0259576 0.044094 -0.0689182 0.0169918 -0.0489121 0.102204 -0.102364 -0.0555648 -0.0462195 -0.151759 0.0466652 0.091605 0.000942147 0.0137411 0.0754418 0.0731141 -0.017713 -0.0254302 -0.0460795
3598 -0.0512575 0.122906 -0.0618517 0.0129949 0.0865319 0.00995727 0.0308503 -0.105155 0.0154076 -0.118143 0.105028 -0.0957887 -0.0576922 -0.106392 -0.194394 0.0917124 0.109999 0.045141 0.0570051 0.0727252 0.0726965 -0.0608908 -0.0236563 -0.0510214
771 -0.17986 0.452837 -0.244211 -0.029801 0.224128 0.0954126 0.0912868 -0.383335 0.018374 -0.267725 0.380507 -0.363848 -0.253125 -0.306225 -0.697322 0.235154 0.409559 0.0764736 0.0718716 0.27962 0.307854 -0.158564 -0.13513 -0.164647
1466 -0.0599993 0.123028 -0.0892906 -0.00914034 0.0696768 0.0187674 0.0382863 -0.100604 -0.00188357 -0.0630438 0.124484 -0.114376 -0.0498232 -0.104568 -0.193205 0.0488317 0.126323 0.0325598 0.021966 0.0777563 0.0869195 -0.0447526 -0.0332161 -0.043835
2228 0.0022204 0.0520578 -0.0396647 0.00644235 0.0386167 -0.00224497 0.0116812 -0.0219128 0.00748733 -0.0316304 0.0575973 -0.047114 -0.0130612 -0.0304013 -0.0843199 0.0190473 0.0331363 0.0134259 0.00696048 0.0375503 0.0352938 -0.0263003 -0.0011888 -0.00541614
567 -0.143133 0.369047 -0.192651 -0.0311 0.185169 0.0668198 0.0707428 -0.31478 0.0262179 -0.22234 0.32183 -0.313502 -0.196762 -0.22481 -0.563199 0.211043 0.324568 0.0619757 0.0662395 0.210837 0.207348 -0.137438 -0.0955194 -0.151811
613 -0.111876 0.272981 -0.15378 -0.00879552 0.142708 0.0668199 0.0628082 -0.252636 -0.00150215 -0.186405 0.25993 -0.247688 -0.160526 -0.199409 -0.457569 0.174457 0.29018 0.0742529 0.0435752 0.209573 0.200796 -0.0817876 -0.104829 -0.123472
6535 -0.0323102 0.0628961 -0.0290456 -0.0138326 0.029805 0.00253721 0.020533 -0.0226901 -0.00613797 -0.0502824 0.0449172 -0.0358331 -0.0421973 -0.0300513 -0.094432 0.0398508 0.0488537 0.0209508 -0.0106884 0.0341547 0.0330553 -0.0273046 -0.00653351 -0.0245042
376 -0.185774 0.443898 -0.258434 -0.0166091 0.207785 0.0536802 0.109122 -0.363796 0.00558458 -0.252344 0.397492 -0.37293 -0.225598 -0.30328 -0.652696 0.241492 0.389357 0.0855943 0.0749165 0.262144 0.274095 -0.118372 -0.140735 -0.161332
2076 -0.0421967 0.136592 -0.100892 0.0179623 0.0801551 0.0133809 0.0334796 -0.0971685 0.0245348 -0.0954615 0.105331 -0.139057 -0.0713149 -0.103595 -0.244418 0.0796695 0.137186 0.0414155 0.0230235 0.102657 0.0830692 -0.0317884 -0.0419014 -0.0678222
2075 -0.0284652 0.120427 -0.0531401 0.00789701 0.0732011 0.0167196 0.0314854 -0.113975 -0.0137554 -0.0593035 0.116246 -0.0971122 -0.0636329 -0.089398 -0.164093 0.0622661 0.0998286 0.0189525 0.0214806 0.0513656 0.0805521 -0.0368978 -0.0533848 -0.0488304
323 -0.201783 0.439711 -0.281122 -0.0168743 0.25337 0.0959867 0.10601 -0.379242 0.0630762 -0.309947 0.393415 -0.38679 -0.221397 -0.312085 -0.737307 0.255584 0.43722 0.097917 0.134259 0.278452 0.282869 -0.146008 -0.141515 -0.209463
510 -0.083765 0.263755 -0.131666 -0.0142738 0.115333 0.0497736 0.0549013 -0.188528 0.0300002 -0.14432 0.204255 -0.189503 -0.134336 -0.14821 -0.39083 0.119767 0.252298 0.0363628 0.0657963 0.168197 0.156578 -0.0825118 -0.0666449 -0.0871167
3819 -0.00214778 0.0501782 -0.00960627 -0.00483758 0.0123611 -0.0130733 0.00560719 -0.0279105 -0.0150708 -0.0359437 0.0432054 -0.0325184 -0.00952427 -0.0100715 -0.065197 0.00408702 0.0505866 0.0114926 0.0263503 0.0437346 0.00888094 -0.0328256 -0.0158615 -0.0182426
5165 -0.0140568 0.0391101 -0.0496146 0.0128706 0.0384112 0.0265735 0.0197333 -0.0255436 -0.00682115 -0.0610754 0.0486452 -0.0610421 -0.00518543 -0.0520597 -0.0992305 0.0236029 0.0713692 0.00689162 0.00875145 0.0242411 0.0406962 -0.024056 -0.0277434 -0.0223233
4357 -0.0337399 0.0997615 -0.0506343 -0.00517602 0.0431339 0.0343776 0.0100332 -0.0925456 0.0105781 -0.0605252 0.0799747 -0.0939319 -0.0386925 -0.0869112 -0.147271 0.0332236 0.104689 0.0197102 0.0333087 0.0736737 0.057388 -0.0190811 -0.0365749 -0.0453373
1160 -0.0831618 0.195459 -0.089145 -0.00820821 0.0837184 0.0307056 0.0538433 -0.160609 0.0334353 -0.127534 0.143642 -0.172512 -0.0766446 -0.139091 -0.290209 0.106826 0.163983 0.0213094 0.0507973 0.109455 0.11435 -0.0422282 -0.0730711 -0.0544959
684 -0.246786 0.632542 -0.349939 -0.0374434 0.275292 0.0994527 0.112457 -0.521594 -0.00267686 -0.399441 0.562481 -0.526261 -0.336412 -0.40594 -0.946918 0.341411 0.570287 0.118371 0.101457 0.411149 0.399258 -0.229299 -0.210195 -0.24012
2221 -0.0230789 0.0550515 -0.0415222 -0.0053571 0.0262652 0.0183811 0.0149346 -0.0382974 0.0135094 -0.0463436 0.0536065 -0.0477054 -0.00209724 -0.0422001 -0.0636495 0.0159667 0.0305547 0.00652085 0.0146419 0.03659 0.0485412 -0.0212571 -0.0103119 -0.0275851
1653 -0.0345493 0.100601 -0.0572184 0.0155356 0.0732338 0.0306537 0.0143515 -0.0805104 0.000943772 -0.0729652 0.0800773 -0.096247 -0.0430278 -0.0809117 -0.15608 0.0664776 0.105852 0.027262 0.0054762 0.0513484 0.0457911 -0.0520256 -0.0402514 -0.0512325
4769 -0.00586549 0.0489775 -0.0357118 0.0103794 0.021924 0.0233354 0.0249801 -0.0295031 -0.0106232 -0.0230793 0.0379086 -0.0373869 -0.00999438 -0.0374815 -0.0814375 0.00923716 0.0596066 0.00494679 -0.00595004 0.0539802 0.0182061 -0.033667 -0.0366584 -0.0348722
572 -0.0868273 0.172346 -0.0833733 -0.00740182 0.109699 0.0476951 0.0488796 -0.135501 0.00222984 -0.12316 0.148282 -0.135093 -0.0526231 -0.116524 -0.253908 0.0827627 0.16328 0.0331008 0.0286593 0.124521 0.114223 -0.0432498 -0.0286335 -0.0776191
504 -0.143164 0.337753 -0.206962 -0.00877458 0.17991 0.0508874 0.0785856 -0.281668 0.013784 -0.203627 0.291713 -0.287592 -0.178225 -0.211257 -0.520747 0.183744 0.314485 0.0688476 0.0529176 0.214361 0.230279 -0.0979014 -0.110166 -0.145677
2177 -0.0406361 0.0873891 -0.0431797 -0.00659918 0.0618874 0.00536881 0.00915011 -0.0781905 0.0190286 -0.0514577 0.0873407 -0.0777916 -0.0546418 -0.0821653 -0.150615 0.0393446 0.0809928 0.0434 0.0329828 0.054135 0.0843632 -0.032365 -0.01916 -0.026244
2186 -0.0762492 0.16957 -0.0988969 -0.0136545 0.0947171 0.0417059 0.0191136 -0.151658 0.0205333 -0.11212 0.137497 -0.15301 -0.0799457 -0.136691 -0.248883 0.105195 0.170065 0.0165741 0.0431581 0.103882 0.104811 -0.0513066 -0.0651107 -0.0493458
848 -0.129025 0.274455 -0.138252 -0.0213923 0.16491 0.0584999 0.0529473 -0.206109 0.0313221 -0.193274 0.239988 -0.239943 -0.117872 -0.167724 -0.420886 0.153335 0.269548 0.0508392 0.0439963 0.185312 0.182423 -0.104393 -0.0771458 -0.0918485
2601 -0.0307288 0.0665556 -0.0278811 -0.000582391 0.0143895 0.00338491 0.0056382 -0.0235543 -0.00637803 -0.0377878 0.0597622 -0.0404153 -0.00640535 -0.0396315 -0.0610798 0.0470075 0.0563568 0.0255228 0.00213091 0.0467328 0.0142477 -0.00489941 -0.00762358 -0.0258514
982 -0.152876 0.394233 -0.24147 -0.0233196 0.218463 0.0845347 0.106269 -0.343111 0.017682 -0.264537 0.365437 -0.351172 -0.209587 -0.247466 -0.615894 0.232927 0.386435 0.0846691 0.0787532 0.27189 0.268806 -0.132525 -0.117701 -0.164416
903 -0.0337475 0.10987 -0.0521605 0.0083309 0.0313811 0.0164677 0.00755076 -0.104626 -0.0218972 -0.0552362 0.0980489 -0.0754577 -0.0447322 -0.0835647 -0.155326 0.0379008 0.0864443 0.0390231 0.00590645 0.0611469 0.0676166 -0.0183593 -0.022825 -0.0338649
